1.390725297192406673e+00 2.237108870458243692e-01 -6.455621905930875037e-01 1.228612033672908499e+00 1.108174933910225507e-01 -9.258375465379637959e-01 1.477300868999782191e+00 -5.956486557314183417e-01 -1.446449106938320961e+00 2.458759694734568679e+00 1.729339580844995450e-01 1.901705190572999457e-02 4.139934754042158271e-01 1.597764387845529210e+00 4.202530900458510410e-01 -1.836109603742691887e-01 1.009889720644239208e+00 -7.848910424610053838e-01 3.152463295530522625e-01 3.065033876126428969e-01 -1.720319954430581166e+00 4.633687297367519720e-01 -1.079056626521806450e+00 -1.012650839384203971e+00 -2.051972425613193707e+00 -1.022308166116829398e+00 -3.865718954532661455e-01 -2.999074149361194430e-01 1.675693927127062555e+00 -2.124955712547473285e-01 1.438504057912458389e+00 1.954400668524195195e-01 5.916127512588660320e-01 -7.076244932386306363e-01 -6.502250544295052892e-01 -5.503503549339950895e-01 1.228499598267014381e+00 3.138861636018476786e-01 9.818977179363119756e-01 -1.341485303645031157e+00 6.782283434182927451e-01 -8.668176716153437322e-01 9.994121830307028942e-01 -1.053989197443878867e+00 3.495926164578800344e-01 -2.518689433600208583e-01 -3.051363138471302472e-01 7.687314842209946875e-01 3.318149017063327239e-02 1.259490545146558782e+00 -7.547011014305353704e-01 -2.553631916560807902e-01 -3.579660421327378605e-01 4.388957841712715080e-01 -1.229043338256223805e+00 4.244562369076768649e-01 2.168155384866804702e+00 3.546297064058138160e-01 -7.575661343611578280e-01 1.338780994745998765e+00 -3.389623751810245111e-01 7.820294426284001010e-02 -2.340767758580323266e-01 1.408951739191233177e+00 -5.698792490550822487e-01 1.538459209551563234e+00 6.951826796758558968e-01 1.638850069587676206e+00 4.062728803981636994e-02 2.469336292261476440e-01 -7.830935558096817628e-01 -1.017569947976625810e+00 1.696724825313054241e+00 1.387282262290880031e+00 4.884688064599425061e-01 1.705550658541893805e+00 3.584217564445544291e-01 9.287696429481442362e-01 1.596003744626640408e+00 5.596791681987215439e-01 -5.264174821172199481e-01 8.763859199160537461e-01 -1.514598764209104109e-01 -7.518385888281043927e-01 1.771940059850570237e-01 6.285742935812925480e-02 5.096079783344032998e-01 -7.728098766900026728e-01 1.458325365460086509e+00 -1.230674179361120446e+00 -1.033381118284103284e+00 -1.157093543419209114e+00 1.024022361424385519e+00 -4.347976122599209736e-01 1.501794172162871366e+00 3.587755663577817944e-01 1.605291049679232751e-01 9.357465234232885676e-01 3.979977534229379305e-02 -9.143643945481090274e-01 -1.536435902916078122e+00 4.290363162316733758e-01 5.285383085917223084e-02 -3.307068822314532808e-01 -1.939495674757192090e+00 1.312730329626724757e+00 2.366876666110951710e+00 7.160637414812162094e-01 1.945830020195025378e+00 7.399109979823363659e-02 -3.738579235590741567e-01 -2.423197007651894386e-01 -4.783039815805691375e-01 -7.908337294953773355e-01 1.861410821434064666e-01 8.307468160357485143e-01 6.007285528453030349e-02 -1.085935136669887280e+00 -5.433049948424980569e-01 1.858724927782638148e-01 -1.155752634013230695e+00 -7.060614930466225792e-01 5.351211568170396449e-01 1.630646391632708525e-01 -3.523257350616600947e-01 -3.703844323833385133e-01 -4.859033199996671271e-01 1.443719361584296645e-01 6.903847969644220095e-01 4.407336608623845797e-01 5.912549165213441121e-02 -6.298695300587895396e-01 4.872829233256484871e-01 4.218796570383687161e-01 -1.125842870400125095e+00 2.668898048067323003e+00 -6.870546474267077430e-01 1.437513288961654423e+00 1.388261358364596854e+00 1.942721329783213768e+00 8.820682236051856639e-01 -1.256470226728541251e+00 -1.076079923271363370e+00 1.680432255957610699e-01 1.267168795106435430e+00 4.672462794686408349e-01 -2.450286301016484647e-01 -1.996083193205445416e-01 4.272795341822440696e-01 -2.136711600742688955e+00 -2.544816145730651735e-01 -6.219987279824278348e-01 7.220659063301632097e-01 -4.449355248931007867e-01 -4.359286476157701873e-02 1.770190054162821547e-01 1.509820440836716404e+00 -3.406897744775405079e-01 4.497894922000812423e-01 -6.278048519224120882e-01 1.973928679300030131e+00 1.451771373578888691e-01 8.502734080624887447e-01 3.228583590223026989e-01 9.662709504934702265e-01 3.572371613029836496e-02 -2.627921797252870117e-01 1.133488702534516612e+00 1.170356297596067074e+00 3.460429107854405828e-01 5.345985738958558553e-01 -3.585827354175909476e-01 -6.611226188169370133e-01 -4.095434959795947460e-02 1.131986737802561649e+00 -1.038590146832482491e-01 -3.250088625949529297e-01 -9.015153997949685305e-01 1.606848573986243922e+00 1.173551107700185892e+00 3.558522630202624049e-01 -1.351177113054627510e+00 1.056171739944704813e+00 4.005207555466628877e-01 -8.860782330715368804e-01 -2.452119766422416747e-01 -3.066026011059901357e-01 -4.453466912513131572e-03 6.185214282220140580e-01 1.096466276807235074e+00 -5.947056733494716640e-01 7.701008897160972477e-01
3.981941649543309092e-01 7.688297125238394147e-02 1.401426100913364947e-01 1.945804883824497900e-01 -2.212571714014120783e+00 3.053944845806988995e-01 8.358734914393226023e-02 4.041277435481637759e-01 7.471310760879259494e-01 2.001869745182619731e+00 -5.134381826516973973e-02 -1.036198217078825312e+00 7.684694209788422992e-02 -1.757618378368570322e-01 3.052662781120590307e-01 1.162332395297417609e+00 -1.336952614645840198e-01 1.635518393940784965e-01 2.093294033927090236e+00 8.615917005067631473e-01 1.034966324764092116e+00 -1.025022387063972307e+00 9.966995552772944800e-01 -2.529035025179747209e-01 1.313426988007659002e+00 8.019599695534527228e-01 1.906456658190554543e-01 -1.397715455147082064e+00 1.314280454670673504e-01 -2.463962110787183690e-01 -1.791333957812728084e+00 1.537944260556200815e+00 -4.365724816106354017e-02 -1.893618969713598776e+00 -1.459001463668148368e-01 -1.150661434871341982e+00 -8.205763482794432573e-01 1.619585380848485245e+00 1.033473379289794047e-01 -1.039425926285474144e+00 1.395541148993784786e+00 -3.017783409664988592e-01 -2.004701945059853829e-01 -1.115318929846992546e+00 -8.564441111247956817e-01 3.591256609526690541e-03 -1.799597901030929981e+00 -9.332641146653918307e-01 1.432669482654891357e+00 8.696436512639198479e-01 -2.325424598812815269e-01 -7.916222544136140016e-01 -1.662689978722537709e-01 -1.736964011204767733e+00 -3.284541626642463741e-01 -1.282880524210456397e+00 7.299185954157418887e-01 -8.997101430525327181e-01 -6.051275199549051020e-01 -4.695815958301760018e-01 5.249494413036247531e-01 1.151461637215788425e+00 3.063168796426272711e-01 -1.534629749630386897e+00 2.851074081723847797e-01 -1.849905729363002127e+00 -6.525582658821570403e-01 -2.091211013004551922e-01 -4.985694335133615818e-01 5.678449983934383827e-01 1.083224173298983350e+00 -2.112847732106684362e-01 -7.263701253924542689e-02 -4.289333192568139386e-01 2.193159656077712238e+00 -2.909275416840148010e-01 -8.874975317901433181e-02 1.125961775315615032e+00 6.396201037234933162e-01 -7.020985476843223660e-02 1.165159297126200366e+00 4.822215842329470870e-01 9.048535817912162216e-01 -1.546370045336272980e+00 3.685861628792465594e-01 -3.999233087068979065e-01 8.636850603221203349e-01 2.174500923444533829e+00 6.702768039357596130e-01 -8.054208313408166564e-01 -3.400836164132039485e-01 -1.086563141991592901e-01 -1.695058603424342225e+00 -7.674937022128319741e-01 -5.181995037753877043e-01 1.742674648538383719e+00 8.619931047559696580e-02 5.844648415843768374e-01 -5.591133195062815142e-01 -1.223809528431003546e+00 8.028508512824041876e-01 -1.401907855337345632e+00 -1.669244023985868089e-02 1.467357981717258911e-02 2.976232358427133642e-02 -2.787193736058212745e-01 -2.250321634817784855e-01 1.718119819170601803e-01 7.329121659215461770e-01 -4.840625642340912194e-02 -9.889371679620526101e-02 -1.171640811292520012e-01 -5.457424773357143488e-01 7.784791347948927243e-01 -2.484445614405965119e-01 2.805285232503251791e-01 -2.738888966493154276e-01 -2.890462615572856886e-01 -9.736957853835701560e-01 -3.242387632071383474e-01 -2.022349153778039810e+00 1.362281980160061634e-01 1.186525444783300021e+00 5.237401476566748704e-01 -8.814813377352977986e-01 -6.991308083359915049e-02 -6.571572965636205410e-01 4.860453551776540704e-01 9.111101431965592523e-01 1.598128113469219569e+00 -8.155924231450905060e-01 -1.400492437545509228e+00 -5.976054422523856546e-01 5.457283893081230630e-01 -2.113329301842580499e+00 -1.551577016793415975e+00 -7.333213938071079241e-01 1.233472442802996838e+00 -2.542392916296989935e-01 1.552447078395034485e-01 -3.426812150084035391e-01 -3.656121367794958887e-01 3.829593220844769441e-02 5.144520633403568688e-01 -1.213608197725977833e+00 -1.709888195183378645e+00 5.613354185769968696e-01 -3.720351276605213808e-01 -3.325902341811286522e-01 1.090248527999771344e+00 5.327743991733612239e-01 -1.730576202862103674e+00 2.767546576174336193e-01 -1.405449647151422843e+00 7.736825586450646330e-01 -8.185468457546459797e-01 1.726175225331123331e+00 6.253597021541186241e-01 7.226738485005369979e-03 2.849051878673092286e-01 -8.409422654632542349e-01 5.447478546839678026e-01 -1.924177357395695509e+00 -9.277397562980016499e-01 -9.047635461568644955e-01 -9.421098340843694352e-01 -9.034567236153523417e-01 -1.887151774517000336e+00 -5.879836453746989378e-01 2.010077595136583462e-01 2.032648342554107049e-02 -4.013021415868660569e-01 1.090250652540467602e-01 4.261625970706499622e-01 1.045405068533646009e+00 1.553756277985210765e+00 -3.042655470314517885e+00 -2.984781136560176740e-01 -1.422732997603191329e-01 -1.050024153814157257e+00 6.929780525202017261e-02 -1.405623188577582283e+00 -1.337052980688753223e-01 1.060489172712661743e+00 1.631445955854883278e+00 3.593424463226789767e-01 -8.462331944703145314e-01 -1.920489768210935644e+00 -7.985360594746617746e-01 2.263998068457333812e-01 -4.240543467450387238e-01 5.892216988730890614e-01
-8.979588911267933904e-01 -1.222093230622001148e-02 1.019134824237873049e+00 7.100793148250446329e-02 -6.251256998489918004e-01 3.609811024646065181e-01 -1.272394634323866569e+00 1.075089868057939047e+00 4.387420309257372142e-01 -2.429527241521393099e-01 -2.940066528120970912e-01 -1.267372242551268124e+00 -7.374539026786617324e-01 -7.441563622295944702e-01 -1.671817775859816557e-01 -1.271281722679145298e+00 -4.697454798708305401e-01 -3.748408822196976353e-01 -2.105798822243408197e-01 2.149830930058546308e+00 1.455153708153247516e+00 2.236928292116458827e+00 -5.249933411692309093e-01 6.272373171671378200e-01 -1.118501113294112059e+00 9.602181905650723770e-02 -1.104158170709740761e+00 9.907872073130569168e-01 6.209060864344155550e-02 -2.137992606200018464e-01 -1.551109320349131071e+00 -1.304737112039878522e+00 -1.006669728976642864e+00 2.207638126265296652e+00 -3.410929062226845665e-01 2.190978734427678765e-01 1.043085372727925231e+00 -2.226308085669619352e-01 -2.766910837291944314e-01 1.248895659808756831e+00 6.691297998329736041e-01 -1.040312998925424059e+00 -7.460437127402226309e-01 1.614831585659155799e-01 1.023361157542120869e+00 -2.541535225132666165e-01 6.055330300357739670e-01 -1.714048763858314173e+00 5.859475405366572076e-01 -1.256248776231472686e+00 -5.067801107005018291e-02 1.884086769284464002e-01 -2.801031376213118373e-01 -5.957040542887991341e-01 -2.999310562145214576e-02 -1.956539936290690174e-01 1.996270696744588125e-01 -1.944096167689572108e-01 2.003148890682314498e+00 -7.633769790198670080e-01 5.095144749714113352e-01 1.536609528567240757e+00 1.864197244983780255e+00 1.663698797401037821e-01 -1.060459265416180186e+00 1.356231393616981862e+00 -2.709769077972190132e+00 2.540556317188986668e-01 2.439290865460973290e+00 -4.005819841407833315e-01 -1.292480114540027314e+00 -1.437599103432651626e+00 -1.904275588711072720e+00 6.752913354294728943e-02 -3.608432285470560830e-01 -5.103282516836219473e-01 -1.721034795939741846e+00 -4.659529342698673360e-01 -3.900759502424980818e-01 1.750262442959098719e+00 -2.002590330478501102e+00 -1.288137330345168863e+00 -5.112598013332652069e-01 6.767416261558825870e-03 4.739672377749828969e-01 4.976240270018431056e-01 -2.296358847343852039e-01 1.096221997379271729e+00 -1.249890399038349198e+00 6.995684328269932140e-01 -2.293978732624890604e+00 6.798760521562949855e-01 -1.379442159764148190e-01 -1.206149560042565794e+00 6.767462612396829558e-01 -4.278348513709502865e-01 7.860498716627396520e-01 -3.225461443866218803e-01 1.428730206815194359e+00 -2.370552591390720387e+00 -5.852349504741503061e-01 -2.124650652010475482e-01 4.103292644265485456e-01 1.518880974890374880e+00 8.152624881189914907e-01 -6.406754147603770377e-01 -5.092013083411476293e-01 -8.905235956771372363e-01 4.967502461180730577e-01 3.026356366221810146e-01 1.196505250418237673e-02 -3.797080670753593123e-01 -8.147508587811870262e-01 -1.252677806800752691e+00 -8.973219037804689435e-01 8.077301552793787476e-01 2.787379866700607778e-01 -1.751556292095588274e+00 4.298847028821565774e-01 -4.372298842521625262e-01 -1.811305547525699167e+00 1.548081360805294848e-01 -5.580732429874099565e-02 6.102309054380561371e-02 8.030641628143000421e-01 2.921667269011014034e-01 -2.621293264889851815e-01 9.165824780267615157e-01 -4.306694420080220409e-01 -1.530138705082854933e-01 -3.901776539169433677e-01 -9.358019096257434999e-01 -5.192665496544214276e-01 -2.813626016549556574e+00 9.591799691726590193e-01 5.614138442832365961e-01 -9.759174310392328133e-02 7.055162840529208279e-02 -5.602061065906493997e-01 -5.627387033406860972e-01 -9.816215231155360488e-02 -1.452622002364318377e+00 2.828609670762703976e-01 -5.797755361425290799e-01 -8.090947645247023035e-01 -1.476181164392425860e+00 -1.878115499428998136e+00 1.124944273722635391e+00 1.048700669247398354e+00 3.408570826376132179e-01 8.553032725266327407e-01 -5.050951446367618614e-01 -1.785270246201881461e+00 -1.718275519958232730e-02 -3.814922247822444823e-01 -6.708487544412730097e-01 1.307110375232941601e+00 8.672432034524317768e-01 -2.704052318720314152e-01 1.154691300865517412e-01 1.089703126121680743e+00 1.898769392635703657e+00 -3.931040156671893326e-01 9.741319080025802046e-01 -5.955143957227012619e-01 -5.397214069029570016e-01 3.415043801252842237e-01 1.326731042709895947e+00 1.718409529603287078e+00 5.458459281400571683e-01 -7.980239799409014068e-02 -3.931655040031402093e-01 -1.279071002625436826e+00 1.815411678758040548e+00 1.810202480788490886e-01 7.832016098826155570e-01 9.565536878111325914e-01 -1.473251851244334609e-01 1.587647934721065912e-01 2.410225952449176479e+00 -3.725349478893233424e-01 5.766200924319137000e-01 1.447878320562655752e+00 1.129766938669318543e+00 3.960246412903266622e-01 -3.834114635852755582e-01 -4.365347005168985772e-01 -1.148707975547048399e+00 9.305068824087596724e-01 1.434799498364528914e+00 1.710794899366993027e-01 -7.773513743492488359e-01
-8.414535448928660566e-01 7.288787036407250453e-01 8.514176969385079952e-01 6.070212717052840823e-01 -4.682176096851619063e-01 3.944753766191332889e-01 -5.522732246346315765e-01 3.853736500871031700e-01 9.277273100794189986e-01 1.074366689710743339e+00 4.968827268835598887e-01 1.357145536253911100e+00 6.455817974452267016e-01 -8.952690635687704512e-01 8.920667495735090657e-01 8.066371412634243399e-01 5.245679671853787918e-01 -6.566420301517228442e-01 -5.300394523593003893e-01 4.936229148203100103e-01 2.558431487431755622e-02 5.851031931843424516e-01 -1.174707120686393907e-01 -1.928167248316796867e+00 -6.828286914850947298e-01 -1.550485668810150722e-02 6.227764246606643656e-02 -1.050229147285632464e-01 -1.476928675969572780e+00 -1.241945553310486838e+00 -1.802315440713057715e+00 1.070148271024293218e-01 1.599527753351714932e+00 -1.827058253449407310e+00 5.699623178361656883e-01 -3.366555296096320760e-01 -1.985180630997113171e+00 6.789880234498727463e-01 -3.379203482045538554e-01 -1.299997606869829125e+00 -9.861921395857158323e-01 -1.386130754461280423e+00 9.768851513262823139e-02 -1.012398695210091626e+00 -8.818678852376361510e-01 -9.708285026569188347e-02 1.694168064741530033e+00 9.204255289702519827e-01 5.299273962541355409e-01 -3.566679790490785984e-01 -1.246348628252431423e+00 -7.391530591147011942e-01 -1.045121642368203735e-01 4.312509402526235602e-01 4.655256062791999216e-01 -1.071331688302383567e+00 3.017779703998724888e-02 7.816479446225585437e-03 -1.878474746635235837e+00 -7.614020982520135483e-01 1.085894127468606030e+00 3.113081933373032517e-01 1.190617542081327418e+00 -1.286198857827248743e+00 8.578751946493418101e-01 -6.279744199031865870e-01 1.752175782547024330e+00 4.545937858131084974e-01 -7.939375393072760634e-01 -9.443905493027719977e-01 -4.320769167692662394e-01 -5.664930767273469447e-01 -2.980944154620995268e-01 5.494960805537854043e-01 -9.238043088134788583e-01 -9.825610170670538990e-01 -8.048912600736879419e-01 7.629718958251680005e-01 1.673999745454596288e-01 2.580620810966609557e-01 4.673071560515021927e-01 6.147001842878865308e-01 7.751659686916256842e-01 5.676657561711497824e-01 -1.197419705944021251e+00 -1.070968123251564652e+00 1.066920958541733189e+00 4.732425546602576638e-01 -2.442421934539157569e+00 -3.858838034426887442e-01 -1.492181133937367843e+00 1.775656836981598929e-01 9.918661672638978688e-01 1.041788529124747731e+00 1.919398282725694460e-01 -6.966551926589851229e-01 -3.013954439533701457e-01 -9.311039041081138334e-01 -8.258203661761975845e-01 -1.216187901457056908e+00 1.865516032407070979e+00 -1.390853165968863658e+00 -8.991442238710579682e-01 3.354331486794234207e-01 5.750717262345454994e-01 -2.857716709120935450e-01 1.113564847690330512e-01 -5.788133248528951613e-01 1.109019306626667367e+00 -9.896826624049245846e-02 -4.502248224037390667e-01 -6.621944582373789912e-01 -1.590101863452773490e+00 -2.388674449627219976e-01 8.773908512044791275e-01 -2.842329606343314552e-01 9.413691844743783399e-01 3.650954299145147547e-04 -1.561843307797317892e-01 -6.507290982183731032e-01 -2.379655598989001142e+00 -1.459998413443189591e+00 -2.607681658663767443e-01 -1.167311727588995929e+00 8.052344634476045204e-01 4.537487826070794039e-01 5.668820964917485883e-01 2.769911730213128406e-02 2.024227407154552127e-01 2.934482336354948817e-01 -1.711372314994966670e+00 2.245674873321489073e+00 2.203772183054720224e-01 6.589643152390592951e-01 -1.999580060184500130e-01 2.295908426933405355e+00 -1.218541773869781686e+00 -7.705980013280794294e-01 -2.484997696802076772e-01 3.822267098021734366e-01 -6.043382186842726211e-01 -2.694829293832692318e-01 -1.054425775488378125e+00 2.814129107179298428e-01 1.174882416607029079e+00 4.505581110961741076e-01 1.581440831679982173e-01 1.132400141984053032e+00 -1.697759410122615220e+00 -1.374831015437210091e+00 1.273008201688802910e+00 -4.161997411494555710e-01 -2.396213911132738794e-01 9.895218412146149500e-01 -5.922231264668265105e-01 1.506829189622250320e+00 1.286187512793296114e-02 -2.140839773921060285e+00 1.123832248130494753e-02 7.928974451426415992e-01 4.853785367130045714e-01 -1.319517974145967720e+00 -1.096263419309493337e+00 6.098625005820451639e-01 -1.634784477054460172e+00 -1.233283215565798563e-01 -2.861910521133655405e-01 -1.302704122991558133e+00 -4.965103662495312098e-01 -7.915943505193184793e-01 9.561456096017685313e-01 -1.191770911148912093e+00 -1.009300338552110876e+00 -1.966589235816773862e-01 -9.159556087587907847e-01 -1.321999607666907162e+00 -1.246381056617452243e+00 -1.469102281857750381e+00 -1.755846807084754602e+00 1.474295030016254282e+00 6.345878479538620276e-01 -8.876938631953170677e-01 -1.782829729933904872e+00 1.400920759629133316e+00 1.936608408517127566e-01 -1.528771865488686377e+00 4.603459903650080065e-01 2.806579646714474907e-01 5.341252138419785300e-01 8.319766087642782582e-01 -1.034461428388854021e+00 9.093582069313969063e-01
-3.517916066824358090e-01 -1.209803519604205402e+00 -7.605381908616650755e-01 -3.793429028773482869e-01 2.752202872350981155e-02 5.146705909301419607e-02 -1.280402721612750927e+00 -7.380736191294966497e-01 -1.734543010320211964e-01 -1.037315260293889679e-01 -1.029474753471784076e+00 8.736092906930367219e-01 5.474055433892823785e-01 2.504534916695736954e-02 5.197306666612775405e-01 -2.646626948418083769e-01 -4.513645924589400615e-01 5.039000157396582580e-01 -6.409432750444095106e-01 1.171893518798085454e+00 2.202780445383130559e+00 -1.981819526952236732e+00 1.368225593200859791e+00 5.189852157782806064e-01 1.104848257092354347e+00 -2.213216803454896908e+00 -9.202899452583507278e-01 3.562817263773229159e-01 -5.415243122169327572e-01 -1.062829401173959853e+00 -2.026143603984918329e+00 3.745701890034626724e-01 7.897613473147761798e-02 -1.916692244145544455e-01 -3.563321459246779899e-01 1.900786693739420219e+00 -5.912939731691195799e-01 1.768908719413042396e+00 -7.149426082505336844e-01 1.903008674738114192e-01 -2.646161835031594564e-02 -7.430260169543999593e-01 1.765923251875643474e-01 4.619367341450912878e-01 -1.782716761276635253e+00 1.271005228651491681e+00 -6.442352929420139818e-01 1.510629427262314417e-01 1.476226818709229560e+00 2.327750120783532717e-01 -1.273286381096610187e+00 5.399940573724584247e-01 5.521091436944145468e-03 6.083062929639381222e-01 1.238425623997397640e+00 -5.208774890593992346e-01 -9.622850302319684024e-02 -5.958450068661927945e-01 -7.924621596490025177e-02 -1.242265781182273710e+00 1.391120484716491745e+00 -1.973867607068526819e+00 1.286185953860850439e+00 -7.259365679824585360e-01 -1.356728989983450040e-01 -1.617368865912602427e+00 1.022737700298557595e+00 -1.345352484593626885e+00 -3.185367621227456758e-01 -4.562983244907818370e-01 1.374721671445835902e+00 6.156409844530437159e-01 1.168667653858177502e-01 6.963387664404732114e-01 -1.340697270889319226e+00 -4.050758788517122011e-01 -5.198343707691005511e-01 -2.239810176276816125e-03 4.470037328908526564e-01 -2.193852768804621878e+00 5.258700141053603838e-01 -1.354405209093501927e+00 -7.651280109020038855e-01 -4.133786442868023769e-01 -1.057702781339582981e-01 1.649564821207126220e-01 1.506518656123197741e-01 2.361009604071498125e-01 3.143084078097903022e-01 -4.346876234151574314e-01 4.436485531092327350e-01 2.140838544943535648e+00 -3.000565812009624647e-02 -1.181438892043152888e+00 -6.791059508205535278e-02 2.300249961576609770e-01 -4.844705223321393306e-01 -1.120224104169341039e+00 -8.448946935908052680e-01 5.645052397854074533e-01 -3.645243036158475336e-01 3.754793032619426207e-01 5.014347271325955147e-01 -1.728373692512598092e+00 -5.013596796015805657e-01 -3.082451227340469169e-01 -1.221408479793544055e+00 3.270422883071931186e-01 5.542006935822574309e-03 7.337946500969723118e-01 2.346559758925868266e-01 2.774869308019678807e-02 5.222463357802302752e-01 2.117354026695879909e+00 9.988096316199215896e-02 -1.657675872535340211e-01 -1.011367724776601751e+00 -9.545172928321606909e-01 -1.021933188019694461e+00 -9.989130845446337892e-01 8.747938025455057054e-02 -3.815558161868339848e-01 -4.526541723724863409e-01 -4.024587485163252931e-01 4.046393242677594482e-01 1.743176299690642805e+00 9.375865778216867508e-01 -1.334266977528353104e+00 1.075608422751223259e+00 -1.790012672607256550e-01 1.027182099318233767e-02 -1.662292367006025007e+00 6.994902179532007658e-01 7.912202341019641816e-01 -1.399283851025671099e+00 -8.603894633193085451e-01 -3.844438676637960128e-01 -8.680761679290170951e-01 9.934210546363231309e-01 -1.922611501115948085e-01 -1.271323353040586523e-01 -1.478448462685772347e+00 -5.800547178409664051e-01 1.340417768279634547e+00 1.356149638981892336e+00 7.327089516159253080e-01 -2.097152655162358437e-01 -1.281729993277380686e+00 -1.128930596829108568e+00 -3.712714640566151525e-01 1.817458025459025572e-01 -4.344698241960021634e-01 2.630397492412146071e-02 -1.753664098435883945e-01 -2.064964596850681566e+00 7.351384982243206467e-01 5.109946333597688017e-01 -8.047782707001841507e-01 -4.647714754865236997e-01 4.960535108323451126e-01 1.568869136445664170e+00 -7.874942734370141140e-02 2.415218300939395490e+00 -2.038922804519358034e-01 2.240063152528875279e-01 -1.247007097681164911e+00 -1.059267238757652940e+00 -8.047203714989704659e-01 -5.451063362563387527e-01 3.080084786660711518e-02 -3.321419963141412635e-01 -2.625711261755220072e+00 1.098686196544212734e+00 -2.568316133522265399e-01 -7.977277128121061933e-01 -8.372609994020063784e-01 -7.412361203418477151e-01 5.632263472279193106e-01 -1.410231190996454054e-01 -6.013869698956025855e-01 1.167256514097078091e+00 -6.323664841006161330e-01 -1.508878653323397101e+00 -4.628586995079592703e-01 -9.550074786284071804e-01 -3.517125204250690085e-01 1.298528775873600605e+00 -3.977510279545583560e-01 -1.173751009302668180e+00 9.050130969298010308e-01 9.101003553374186206e-01 -1.749464165930150417e+00
-1.743723088700022572e+00 -8.706469760085070453e-01 9.830739024200824128e-02 -7.806963375991188281e-01 -9.552973777031545377e-02 -9.863746300962007441e-01 1.396093313509833456e+00 -2.495745175794683666e-03 1.298401126940605943e+00 8.521396125926450349e-01 5.963401682021610695e-01 -9.451911771759159420e-01 -3.993348385369550613e-01 -1.116603819461218672e+00 1.149521876637519036e+00 1.150072180734539984e+00 -9.191046590233659108e-01 -3.989655016746856409e-01 -2.243667953989337271e-01 -4.411823477367136648e-01 -5.362772227396759295e-01 -1.870781562207281423e+00 6.733599701074935440e-02 -8.861760212455980223e-01 -5.408617499901887671e-01 1.261093570550960052e+00 2.567591934544345200e+00 7.579040059728698875e-01 -6.429800774974849809e-01 -3.543217697277041833e-01 1.353880501710879924e+00 -3.366177564656127469e-02 -9.422079800613687439e-01 -4.784907573526127611e-01 -8.005829688352306128e-01 3.603983329551950221e-01 1.471067573489847735e+00 1.822914687255003496e+00 9.971857284339026295e-01 1.008047570233342016e+00 -1.174155365473015467e+00 1.365254864450864414e+00 -1.139307161915509736e+00 -5.301292755083868435e-01 -2.676488748538672358e-01 -8.249739472404693519e-02 -1.602603442093166963e+00 4.288564833835273316e-01 -3.795931071912678201e-01 5.493992326983019314e-01 1.702232311526770958e-01 2.329365430392083824e-01 1.573894856695369215e+00 8.984049120700811075e-01 2.466334313772831965e+00 9.560575618989477498e-01 -1.102314485122229737e+00 5.995898320921798641e-01 -3.993161965726561013e-01 6.113220572552843235e-01 -6.093041218475836462e-01 1.725159207623189417e+00 -2.056495240847013850e+00 1.127707545806853284e+00 1.415300554491531401e-02 3.352976762751396222e-01 -1.710194625239807698e+00 -5.555178627482917353e-01 5.623639744000259455e-01 1.065003387264353618e+00 1.708486157128950689e+00 7.490493538923286287e-01 -1.229862761621521416e+00 -4.450600818453400165e-01 -1.579099792002519376e+00 1.300970857777484335e+00 -3.433594403645715554e-01 9.356022040838176679e-01 1.606804526892878338e+00 8.521850183233031784e-01 -1.327211396724035986e+00 1.171091829379823590e+00 -1.322534014268212710e+00 7.653480601827651331e-01 -6.474049012911927692e-01 4.419120767991656096e-01 4.890820467956578099e-01 -8.445059882802807838e-01 2.849625210100683592e+00 -5.724308546383953811e-01 8.221241429342822649e-01 7.421912025598083051e-01 -7.336787459025327640e-02 4.799495271780963024e-01 1.814251903063599514e-01 -1.144104740099755047e+00 8.551048531911625838e-01 -1.624287878854834277e-01 -1.115466425080231527e+00 -5.208388549107895171e-01 -2.279672370442925033e-01 7.710313425436704504e-01 1.122175173015119931e+00 7.723638550014739756e-01 -2.451397767546991679e-01 3.729876134575295654e-01 -9.033391899693320459e-01 -5.962953917189448561e-01 4.356368404573253139e-01 -9.142565569170059137e-01 1.207980655546958548e+00 -4.980257583936454346e-01 1.952068414354884096e+00 6.869615018086768776e-01 -1.122856930723001190e+00 -2.166047508114062325e-01 -5.913628184581594116e-01 -1.074817443966760155e+00 -1.424346940357514413e+00 -1.308394715755250459e+00 -4.785749038164763824e-01 1.602411367996808278e-01 2.785677114677330701e-01 -6.091531865030282988e-01 1.433898459357858979e+00 9.145716616597319160e-01 -1.249698812056882602e+00 -2.388786504813379119e-01 5.646693402944249485e-01 -6.935601233276589284e-01 -1.315731212368441039e+00 1.329314704567111427e+00 5.342901697725508381e-01 -1.309179146319589648e+00 3.827875098672604004e-01 -3.344732641706418819e-01 -3.069715722390928270e-01 -1.468004428779156489e+00 6.559252985870204222e-01 -1.281861788092324428e+00 -1.078386171034068752e+00 6.324603671616094158e-02 4.872049277681863022e-01 9.977140319124602197e-01 -1.268324175515053609e+00 1.214067517790045736e+00 -1.475022963100958151e-01 1.122697204869743004e+00 -5.062736062825414773e-01 4.757410947657875200e-01 1.897028165558564350e+00 5.864132633786272031e-01 5.063652682087338430e-01 -3.038016374732545044e-01 -2.895337681554095433e-01 1.385817081644175497e+00 9.748098608819244504e-01 1.186548254975279271e+00 1.106614519141858155e+00 -4.668465472049639908e-01 -2.852824447881974201e-01 1.444102532309535558e+00 4.819698140758936766e-01 6.032134481917815760e-01 -1.338014569298747958e+00 -2.212597913783218295e-01 -8.671863584732077967e-01 -1.695111605599227966e-01 3.272564093873969182e-01 8.929281106166844229e-01 2.495995854115690415e-01 1.354221664682425441e+00 -3.691276497851280619e-02 4.030507937168978372e-01 -6.031030404414476909e-01 -1.334197901262368813e+00 5.913139208845827888e-01 8.249965756230209779e-01 1.842256423003259425e+00 -1.451213531336229101e+00 1.313693287303666413e+00 -2.339168550601362084e-01 1.829592390383723011e-01 -6.270567251029360856e-01 -9.644129637040421699e-01 -7.954034487158567757e-02 -7.528173814649877782e-01 7.962984840455936686e-01 2.208314017389727824e-01 1.237959520547950332e+00 1.827085668512744565e+00 1.085797087650176351e+00
-9.801038310889514937e-01 1.552818439029667874e-01 2.678962401924243619e-01 9.489205300064708082e-01 1.356547880923947735e+00 -9.096736432395438054e-01 1.229961122216173264e+00 5.243244387130232553e-01 -4.105391216823384704e-01 -4.534664262038646809e-01 1.131750815085521111e+00 1.516305518267335062e+00 -2.248117196866306067e-01 -2.781612840716485846e-01 2.562793530985383317e-01 1.367613870808783050e+00 2.080993132976255211e+00 -4.847402368171827569e-01 1.017617558660934174e+00 -1.635650657102159178e+00 -4.676939667307389858e-01 7.940425656286487222e-02 -1.722154322381367064e-01 -1.466872744112488469e-01 -9.467345486490631457e-01 -9.216535184631002853e-01 2.008842799578315130e+00 1.308108440381203996e+00 -9.989500229899221928e-01 1.672461712267046874e+00 -4.128335354589250938e-01 1.736468377929257345e+00 7.146613529598122572e-01 3.461780751413112700e-01 -1.181876634236695839e-01 1.993906161972695212e+00 8.831844547250335964e-01 -4.295148777512150517e-01 -6.468480278012190832e-01 6.322422856112602796e-02 1.761056330819599003e+00 -9.404846128409078965e-01 9.621003706666428901e-01 -8.222785868056416980e-01 3.041710988624970469e-01 -2.391085626267466235e+00 9.000552417383150816e-01 -6.442576651623620476e-01 4.186651357282213937e-01 -1.708015730160955536e-01 -2.697840358402498140e+00 7.724178595618066412e-01 -1.037553087711495570e+00 -1.529301433577727742e+00 -1.071903877242840641e+00 1.296426587097458727e+00 1.968309094045409269e-01 2.497298766587245367e-01 -2.117006790881993172e+00 1.725575074374187112e+00 -1.861845882963324650e+00 5.094295287772870884e-01 -1.857925670516063388e+00 -8.620082313547063890e-01 -1.278621339740678431e-01 9.823439546843371062e-02 -3.977654721962690654e-01 -4.685711239438908882e-01 1.573654265960042098e+00 4.233812117288044408e-01 7.506183293506164533e-01 -7.168755768854903065e-01 -2.047252523840212279e-01 5.075745536873094155e-01 2.092610269997110806e-01 4.945285671918819848e-01 5.538529924737443100e-01 9.876071786856205348e-02 4.166640432805348015e-01 -1.143245882373218336e+00 1.742963357682660419e+00 -6.232049356432222131e-01 -1.473902847708917774e+00 3.044767569625461134e-01 4.879387702353262246e-01 5.557461113365775446e-02 5.266354541492492825e-01 -1.537241407285516170e-01 2.744736309257674867e-01 -1.604260334229981877e-01 4.807522980659375417e-02 1.350983648069950804e-01 8.718364785905628050e-03 -8.641046590953651574e-01 5.052891208005776125e-02 2.428268715317765558e+00 -3.436699576371393672e-01 -7.639381003497329736e-01 -1.500659479587530765e+00 -3.221305814425768355e-01 2.706861894061212137e-01 1.078507530108886003e+00 -5.938636315905176932e-01 -9.676644668688568762e-01 8.713859333504454519e-01 6.435983274098689977e-01 1.214863638120557754e+00 5.740369768607241907e-01 -3.316143725767397021e-01 -3.884851187358101532e-01 1.030294924367692211e+00 -5.407487148385720088e-01 -1.122710478032018511e-01 -3.922852167427933190e-01 -8.724874960662967749e-02 -9.510597256777250652e-02 -1.166955566747496925e-02 -1.450444158016827911e+00 1.373535056870192284e+00 4.063475516706892554e-01 -9.287608534962994433e-01 1.778872335177797748e+00 -1.214813144400697653e-01 4.375470695170443070e-01 3.622699424388273193e-01 6.829519233468251960e-01 -2.851942035629813077e-01 1.693361702694629489e+00 6.746559614322885645e-01 6.581310699349576243e-01 -4.674140023217762119e-01 -3.738180096355406823e-01 1.170053380658196279e-01 -1.358412562156187386e-01 -8.609727007409418986e-01 -7.629736013071417577e-01 2.954313298242555508e+00 -1.500601364833318518e+00 -1.054671748954990829e+00 -7.713461919497465180e-01 2.065589291390149018e+00 7.821940026742808527e-01 -7.217733521947896635e-01 2.040047700986233892e+00 -3.916439819897315489e-01 5.713631237229535031e-01 -5.727360403384177401e-01 1.183184070613424899e+00 -1.297405448130283023e+00 -1.839347804527591279e+00 2.282999696199520256e-01 9.430227598382807663e-01 -2.312511333858310869e-01 5.718267511082205656e-01 -4.349496375581767826e-01 -3.581378155245092398e-01 4.584603404125657256e-01 1.592229944139377240e+00 -4.435906903635555287e-01 -2.630592932139217854e+00 1.036523177293221659e-01 -1.020053109091226151e+00 -7.712637211588456720e-01 1.306519011500111738e+00 -2.578395283542210259e-01 -2.380537600699489664e-01 1.607229017151845796e-01 1.721146482057458460e-01 3.761024108983472281e-01 -1.521788940480412355e+00 2.150831130130728130e-01 -4.350354933724536743e-01 -3.895291470065559980e-01 7.825671670834773996e-01 -1.137027574488225640e-01 7.276611369732356449e-01 4.251490676892926146e-01 2.973466435991276718e-02 1.185368517557797707e+00 -8.315297447052760749e-01 1.182372621394616630e+00 9.816102347380326054e-02 -3.122917654807519927e-01 7.541602063292682789e-01 -5.586076042436322053e-01 1.251965068332405728e-01 2.731229979410249031e-01 8.463885922396975625e-02 -1.077456914548660771e+00 -5.828917526521673054e-01 -8.043113228689238170e-01 -2.002514477581018859e+00
1.264318094590529684e+00 -1.174334603952147393e-01 -1.455697870899776980e+00 1.984392135373902244e+00 6.469157886247033362e-01 6.515511594742419421e-02 -1.572616141918085519e+00 9.970387427820365245e-01 -4.831277264889448086e-01 6.818868884340746617e-02 2.356610365238220428e+00 -1.439195236886875451e+00 -6.538799976191746188e-02 1.185163791678229384e+00 -7.340230044189959280e-01 4.536027084287207467e-01 6.309931864117542810e-01 2.020237353936622071e+00 -8.992707942007560629e-01 -2.817860572680820352e-01 1.226392748082773210e+00 -7.927278186265396265e-01 1.779342278771749164e-01 6.932869456227001848e-03 5.724250349817884276e-01 -2.044465197859028471e+00 7.209025673604317619e-02 -1.665299173076848049e+00 -3.769438522889460019e-01 4.649458392508972193e-01 -1.252546816641709526e+00 -5.301152489392604306e-01 -6.605431091401118282e-01 -5.820757251905060992e-01 -9.352603936214505254e-01 4.495372444094389852e-01 2.979278956666688294e-01 -2.721346588939384525e-01 -1.219565407454474393e+00 1.200670963967907623e+00 -8.757486475077449484e-01 6.025854101372697391e-01 1.533384532984096937e+00 9.363501095898603133e-01 2.909909129748906587e+00 -1.226987087860845982e+00 1.234297658090821814e+00 1.070376662768460996e+00 -3.800295216749696170e-01 -1.073909211905198946e+00 -5.142684123432516019e-01 -4.752466915679888770e-01 -1.983068376134219102e-01 1.627199415080749834e+00 -8.433815310247801955e-01 9.204847329685819091e-01 -3.581156739680782519e-01 -1.720738896378261329e-01 5.124979793914552495e-01 1.128827536568723033e+00 9.320617283181815704e-01 8.752426080219882776e-01 3.196613895783381176e-01 -1.146749712759194961e-01 -2.863167446845888420e-01 -3.201935799408542893e-01 -2.671463441826420482e-01 6.236131593562114356e-02 4.781062062413874991e-01 -9.946476282676768310e-01 1.451860933481142535e+00 -4.643034953504368567e-01 3.603166541975865722e-01 -7.003892113652360196e-01 9.554116298160797438e-01 -6.639462770458278706e-01 1.259790492726847733e+00 2.454993853931630721e-01 1.284342619437444544e+00 -2.492838465206406173e-01 -9.005865512764845704e-01 2.033917606249578680e-01 5.672416849695701702e-01 -9.077121350027124100e-03 -5.257895897455857614e-01 3.922319683738545448e-01 -1.184495485632392375e+00 1.181258136439145678e+00 1.140649289305895597e-01 -1.317402098927321852e+00 -1.882637552796131430e-01 -1.162891035568780040e+00 -2.126424543607463857e-01 -4.969597003858741147e-01 5.722440375792675615e-01 -1.952224599090750745e+00 -1.042141890889286326e+00 -4.993965519092056216e-01 -4.669775166068821370e-01 2.333474499331319674e+00 1.222920139877663681e+00 6.607241499326439449e-01 1.444554946073421720e+00 -4.708004102266177826e-01 -1.544335497656477152e+00 -3.231536675166912786e-01 3.608642020386567117e-01 3.288959170229917572e-01 -1.139185517091713118e+00 6.691059153526200953e-01 -1.758606263052183927e+00 -1.114873058758418134e+00 2.015509407513286000e+00 1.911187331691509339e+00 2.512974410006861836e-01 7.536982727998428611e-02 1.222373975922892209e+00 -9.004972712358240150e-01 -1.173853643328050256e-01 7.308601601995754482e-01 5.273276870515930526e-01 1.122383765503524922e+00 6.904361087486896587e-01 8.082281279605132429e-01 2.118567637265868497e-01 1.454033748049126995e+00 -1.403199183876396194e+00 1.790588838420112738e+00 6.342396288026639350e-01 2.187498129771823230e-01 1.995136082960872859e+00 -2.710084414284301690e+00 -1.336613913522769204e-01 -2.975619951151795006e-01 4.167766046680886904e-01 -1.390635643025050827e+00 4.621703407153161525e-01 4.397626106414719294e-01 -2.083757208534305239e+00 -1.341548791675463814e+00 -4.374555610277310741e-02 3.237569329915585548e-01 1.968741049483821781e+00 -1.388250633961609193e+00 1.004672783908283185e+00 -1.888404912339364250e-01 -6.179616482344449935e-01 2.021916535254759117e-01 -8.615275840548076713e-01 -1.038255077051388753e+00 -1.238062866425315489e+00 -1.650115283760386742e+00 5.330916693443998877e-01 9.461942473043151169e-01 -2.728805671567769431e-01 -3.977724486924047453e-01 9.431732972453462649e-01 2.889549217691204763e+00 1.207249448980429962e+00 9.040596331262626961e-01 -1.311033891133664309e+00 8.145163285809060572e-01 3.870350096544151186e-01 1.229572998307524312e+00 1.776347028447058385e+00 -2.820378584892828111e-01 -3.630982419151853602e-01 -1.621809807959403660e+00 -3.720488684777442101e-01 -2.315289758085054661e+00 9.339951678297055970e-01 2.975611098212462391e+00 1.707647391281526539e-01 3.316460002557168329e-01 7.842724251075663955e-02 4.542444082891726465e-02 5.752354193577732255e-01 -1.929382202469914320e+00 1.436442746723187280e+00 2.302108585032749122e-01 -1.196590302159506347e+00 -4.491354920194020606e-01 1.082164019195678284e+00 -1.775125323775165465e-01 3.718317474773077946e-01 -1.639107072849228741e+00 -1.916460334886983530e-01 2.490132071613058440e-01 3.653001731295605486e-02 -1.761238508862672247e-01 -1.792024562186205872e+00 -8.432484684518982698e-01
-1.105718737714289412e+00 3.360039176674021189e-01 -9.779731868176225751e-01 1.253170464524113292e+00 -7.663817910623352825e-01 1.758587909914251624e+00 -6.832775747082016071e-01 1.579217304320870596e+00 2.990195676537122371e-01 8.598584928435809571e-01 7.063072186402648001e-01 -1.909166931511618648e+00 5.346310388187608398e-01 -7.853667255292271498e-01 -2.756301944542792204e-01 7.549722611228617541e-01 1.818611790752530766e+00 -3.511418751101583191e-01 -7.778176158894578585e-01 -9.320004583358850736e-01 -1.715272446146492158e-01 -2.162166658687379728e-01 -1.552473860537185724e+00 8.519801104561549598e-01 1.216897580568586656e-01 7.765837481781417972e-02 1.268968740135199891e+00 -7.422936930571187586e-02 1.500217614423979273e-01 -8.671761259970785229e-02 -2.031787698879895798e-01 -9.552820174585306967e-01 -7.868321768124586502e-01 1.625033179507054282e+00 -8.037872802368026814e-01 -1.260047472666607771e+00 1.559094040332699382e+00 -2.474404723170417153e+00 -1.456015205731177042e+00 5.436857378997218548e-01 -2.227329339220894544e-01 8.650148066662152191e-01 -8.660131298216053319e-02 7.554061421037627788e-01 -1.487986039129664428e+00 -3.395790628424503188e-01 -2.364750937670014735e-02 4.726760925900116428e-01 8.100027636946831311e-02 5.372463835829584256e-02 7.523045592203415621e-01 -1.613421890867851927e+00 -1.250856025777516090e+00 -1.526609205816427339e+00 -3.749210690618361430e-01 4.551948732651880380e-01 1.345660822138803780e+00 4.517663285094569714e-01 -7.570450121424665557e-01 1.778189736567065360e+00 -9.111413924682167931e-01 5.033301290957142848e-01 -6.280849948965219753e-02 -3.523957300383879776e-01 8.536893701180529037e-01 -5.096588876447468719e-01 -1.903259598025947297e-01 4.611651575990923790e-01 -4.106898429987888566e-01 -8.264879271889020718e-01 -4.497292983561412272e-01 5.447983284154644945e-01 1.918570160131537250e+00 -8.778109325152479991e-01 -1.257302096443630557e+00 -1.143481815568783422e-01 6.828738215802644396e-01 -9.580003667062597650e-02 8.314074305999938908e-01 -1.201534109585847609e+00 -1.138969362448907896e+00 9.576288736725898643e-01 1.330220739173606725e+00 -1.289429296256123791e-01 3.795442589408017375e-01 4.563932841435450749e-01 -8.906416255633242685e-01 5.208622502195021237e-03 1.806842241983392383e-01 6.564033106449640442e-01 -5.621402564935731316e-01 2.514919463509015518e+00 -7.920560158993735778e-01 -1.625795483362874744e-02 1.071433662008515419e+00 -1.649602247644734287e+00 9.560933550474057796e-01 7.770356180281732250e-01 -1.290188889067904965e+00 -9.813278565271231768e-01 -1.792115390274705983e-02 -1.144066625903651241e-01 -1.065953262567171489e+00 -1.540992751449868470e+00 6.228721877854322964e-01 -2.281356132659944524e+00 5.291368922347743364e-01 6.028276914264243391e-01 3.895626057771031103e-01 5.356517568371305105e-01 -1.044198752766770211e+00 -1.415945204064774865e+00 1.527184583427408260e+00 -6.041670018878702031e-01 -1.511191193052987269e-01 -6.563833270082438665e-01 1.469139890065931153e+00 -8.092639427898306037e-01 -8.806242434927978868e-01 1.115907428694102865e+00 -6.629455868915905270e-02 -4.384212129200739105e-01 -4.788067316170389887e-02 2.553501553640044608e-01 1.732585527065024555e+00 3.210599410003483478e-01 -7.712154401431622341e-01 1.095811682824678890e+00 -8.775147879802540629e-01 5.480365823278641191e-01 -1.482605867007950495e+00 -1.258796202298070765e+00 6.726733558487503206e-01 -7.085791228714723999e-01 -9.551461015477036298e-01 4.268608505252241003e-01 -1.282286069350390412e-01 1.093165263289935796e+00 3.274844446309858048e-01 -1.422873443251941039e-01 2.285584950793791842e-02 -1.611743537757549249e-01 -5.922514082894047016e-01 1.077459759969748632e+00 1.499175484792904856e+00 -1.199710504986697401e+00 -1.118110271058207594e+00 1.996014058250940026e+00 6.841145673568500563e-01 -3.683549773333010258e-01 4.668354421684335898e-01 7.982922623103217985e-01 1.239532869560953765e+00 -5.978319921916258606e-01 -8.886878109212085208e-01 3.045558655498012413e-01 1.963982320652725377e+00 4.587330097530774586e-01 5.745685944555892904e-02 1.950693235843632967e-01 -2.046394845129731188e-01 -6.048965866618361692e-02 1.142554568601791054e+00 -1.349599834158892397e+00 -1.688091043578923367e+00 -2.678044292745520027e-01 -5.552647903606410251e-01 7.571775963686629973e-01 -7.072443236360205221e-01 7.827123209016569050e-02 -6.731072974604620507e-01 7.168204082708184988e-01 -1.783811763531377270e+00 -4.424678956355105885e-01 -1.231728963143870148e+00 1.918910626071032688e+00 8.632836639782830446e-01 -6.711748683499294543e-01 1.383649306122052558e-01 -1.090145292601376159e+00 5.847709608093386580e-01 -7.184854926993002877e-01 1.763207247889650775e+00 -2.411319022375868482e-01 8.025322299655571756e-01 1.522128917621353716e+00 1.960995101010538422e+00 -1.086141862354211174e+00 2.605066259093963277e-01 1.189125518526905623e+00 -1.247308771391204774e+00 8.398221111643721093e-01
1.964320325288964275e+00 -4.404642651174805468e-01 -4.914108510038009414e-01 7.014701250121027076e-01 9.835170331194174054e-01 3.605104468017445440e-01 2.898070639855582220e-01 8.567259349174799477e-01 -7.835195121356006709e-01 -2.729766502611921664e-01 7.539115098597358455e-03 7.037600312570695404e-01 7.328634437404395463e-01 -1.294584774200999711e+00 -1.702828299753375296e-01 9.876963147408605870e-02 -3.515621772955923041e-01 -1.552184940295150417e-01 8.914418980690317351e-01 -3.798817966785788536e-01 2.512550297498593044e-01 -1.158422927874498409e+00 1.064863081798479882e+00 -1.122638350250560607e-01 -2.339495088005487389e-01 2.426344560648565629e-01 -7.973079541880682131e-01 -1.824168755302429945e+00 4.376416568956877917e-01 6.761047134068440267e-02 7.982622065434571978e-02 -1.637615042782584407e+00 -1.785795125042827003e+00 7.780549049897890201e-01 -1.692228317617364253e+00 -2.062381154885081447e+00 -3.270760294635668419e-01 1.901836274845525032e-01 -2.562506095079924995e-02 2.660775982110493709e-01 -7.427198985488949745e-01 -1.537409714098264546e+00 -8.903196639128975187e-01 -1.061565953134448737e-01 1.594708867778821260e+00 -6.020211180177457155e-01 4.624315880621352459e-01 2.295313125590902892e-01 -1.803621148000063679e+00 -9.768702788595685915e-02 -3.240369748931711258e-01 -4.908108710096474314e-01 -4.458509360336885829e-01 1.701799029802546492e+00 -2.993012014663785525e+00 4.292436224492336416e-01 2.380434078298744038e-01 5.244309525129181582e-01 -1.569291493083272426e+00 1.500480248452884746e+00 -6.762372697519019038e-01 -1.224042189831579197e+00 -4.396934162630514731e-01 4.324071792114770330e-01 1.749151679619981081e+00 8.799991135698999323e-02 3.874317840002601820e-01 4.231836836446317140e-01 -8.994244700445612750e-01 -3.192449084533334203e-01 -1.129607638298662842e+00 1.253525460292974403e+00 2.124178252930673250e-01 8.057443808767539295e-01 -2.133949604324460181e-01 1.721772349818584402e+00 -1.290386342363274874e+00 -7.254367959409409039e-01 -8.362509560621532723e-01 -2.981863731996392541e-01 1.943069527199202451e+00 1.927783479987428827e-01 -5.853075638678715276e-01 -2.379582529913583933e-01 -2.756380245975297710e-02 8.753990962574553780e-02 -1.720846399207618116e-01 1.496531338605383121e+00 9.960870232707177419e-01 3.935828211480761896e-01 -7.481242335673228272e-01 4.369545565148704597e-03 -8.567126252226163752e-01 1.156654053989374376e+00 5.174396126787521588e-01 1.372124827790675905e+00 -7.294655926092913356e-01 -5.895611079518769254e-02 -1.845300850277893367e+00 -1.220212097426180975e+00 -5.332129947301660344e-01 9.098202350985784559e-02 1.475848752625604776e+00 -5.522007742912830031e-01 8.559455763414285101e-02 4.186896950730960576e-01 -2.452337963700616519e-01 1.180466755800976708e+00 6.099429115294808801e-01 3.603224398612433488e-01 3.736301487263800070e-01 -3.959453649447417650e-02 -5.332381831125674321e-01 -1.909991181774135793e-01 -9.738836729099578093e-01 -5.335136129020502382e-01 -5.595829922707107329e-01 -1.761968257998855591e+00 -1.821879619010168705e+00 5.577483637401333683e-01 3.313300979721145283e-03 -4.829923146132865108e-01 -1.122701554339740282e+00 -3.492229236353861510e-01 1.515499056455051008e+00 1.348845470274160574e+00 -1.211414513062808895e+00 3.693250265816351297e-01 -5.994492285833659118e-01 1.422769291561098437e-01 -7.049236991040346290e-01 -2.890709779740510132e-01 4.459448466220544693e-01 3.928901682399024015e-02 -5.324834188919465028e-01 8.461647798406933818e-01 4.488004274078855049e-01 -3.316489017558538754e-01 -8.734559769331856627e-01 1.754329028145341085e-01 4.890135529932732594e-01 1.205429948135373630e+00 2.160751805700599285e-02 -8.527478660901880447e-01 -2.121768488172735001e+00 -4.519869827825546693e-01 -1.066332812885949721e+00 3.012734611502335125e-02 7.869149938926165433e-01 6.170874154304443193e-01 -5.877241549510923146e-01 2.792398689629971287e-01 -4.050173346535324015e-01 -3.702430668531430658e-01 -6.429155028347124934e-02 -6.162054666564313887e-01 -5.088711457211820832e-01 1.429370758039931077e+00 2.746238291784642849e-01 -1.016061572088152731e+00 1.236974665326377787e+00 -6.099690762559974999e-01 1.070479666877995895e+00 -1.292109749778412864e+00 4.820435122636907432e-01 4.678006012298847605e-01 -2.911959348282615045e-01 1.737205811217075180e-01 1.707435818276052397e-01 6.197114242927529437e-01 -4.743800010624510399e-01 5.177104356205287916e-02 -8.224233033293533168e-01 1.148060145797955428e-01 9.813052965920046056e-01 1.026364176583868471e+00 2.414519901066844720e-01 -1.701177192767453050e+00 -8.935734682596138678e-02 -6.087275333439371439e-01 -6.398029708097534574e-01 1.526990020642430834e-01 8.338315508904078355e-01 -1.682575075856113378e-01 -9.343168201474241208e-01 -3.894721955187280815e-01 -1.189571660864463976e+00 -1.570215817334353892e+00 -1.257432677495790463e+00 1.073140804504471912e+00 -1.308141742612086711e+00 2.651480767333093125e-01
-1.118683151860880853e+00 -5.684829947882783507e-01 8.486660586188260469e-01 -8.729430426737516679e-01 5.423835736855480150e-01 1.613222082969263615e+00 6.451201914014877969e-01 -2.251831465843800728e-01 -1.135639419951490980e+00 -1.315354005540763094e+00 1.673576392291848958e+00 4.713233021355646701e-01 7.410736105986656108e-01 -1.464079191535510249e+00 3.362301137626266812e-01 9.219963089618620211e-01 -1.023627181167602984e+00 -3.853308958957009644e-01 9.107498389719306808e-02 6.769299893528801793e-01 -1.437649969460306432e+00 1.540911565638677594e+00 -1.582131746369337177e+00 -1.490603253367134506e+00 -1.014240826737029977e+00 3.944194916285731489e-01 7.017213695671196128e-01 -7.224061670933255019e-01 -6.407259529972293421e-01 -3.574845546338396574e-01 1.241765559129743846e+00 1.467022779110548569e+00 1.092261928386731196e+00 -3.444141373248125748e-01 4.226766239857920326e-01 1.963033890882266430e-01 2.528021175259584918e-01 2.545782900949832062e+00 9.896503698225138645e-01 6.376367378240558326e-01 7.278020176078210390e-01 1.367745403043429953e+00 5.926968956217427698e-01 -1.795755408769868167e+00 1.185861175197878925e+00 1.059388390637542088e+00 -2.215371621951985670e+00 1.956743197252808431e+00 -9.308674966818164531e-01 5.162642256262327534e-01 2.913192744220916564e-01 1.637101586604534087e-01 1.130099227669859596e+00 1.635967228701544318e+00 1.250911255454441318e-01 1.723562999470408474e+00 6.898830781315463678e-01 1.125394796792616781e+00 1.393748314728691096e-01 -1.630467737004728468e+00 7.848928007756438285e-01 5.723526765437381147e-01 7.061964734179523306e-01 1.730206673017674834e+00 -1.043069798010809734e-01 -8.514711383625240826e-01 4.956298672404068073e-01 -3.200236362943222890e-01 2.801207204732724110e-01 -1.265413468419045451e-01 -9.825122582600971377e-01 -1.479723389053574922e-01 7.165564839694749111e-02 -8.483710417535048065e-02 -3.833189347999826357e-01 -1.801607565722026516e+00 -1.107346052798416247e+00 6.253341514620490704e-01 -4.808440038030381558e-01 -2.442328808137327334e-01 1.089311071084373639e+00 -1.145175234569267619e+00 2.103894403111237210e-01 1.706080092508890089e-01 -3.045740650214091502e-02 5.471185830715277199e-01 -4.416021684391365221e-01 -7.974322290000873670e-01 -4.381391353912453823e-01 -4.912064476407134173e-01 1.462307813036904658e-01 1.817008085735710043e+00 1.646489894756484773e+00 2.480168853815046537e-01 -8.796652055008455928e-01 6.152633192229119974e-01 6.184401634760997579e-01 1.036541561733756556e+00 3.621546842025137602e-02 -8.442763415467803290e-01 7.425046611711518807e-01 1.626395343995241383e-01 6.040517433844605488e-01 -1.782635182529718476e-01 5.314445500358095931e-01 6.347505212877393443e-01 -5.039528019041570328e-01 -1.349797404418140223e+00 -1.092267697799965465e+00 3.702904843272757929e-01 7.145541895037593738e-01 5.401356046196565536e-02 -3.060621810235270024e-01 7.268215794910901639e-01 1.303891289681769816e+00 1.521802523103451321e+00 1.455372103296488084e-01 2.772496226948163445e-01 8.344538780053658567e-01 -9.467656848700479744e-01 5.610276741350014307e-01 3.463857719202744212e-01 1.692661226969915278e+00 -7.900187418129872574e-02 -3.491794771223948740e-02 9.568985837942473038e-01 -7.419787341017672899e-01 1.148259727268190922e+00 5.185343097971586435e-01 -1.367818441608395386e+00 6.922559357722089801e-02 1.277205538696947196e+00 -5.418503549002685604e-01 4.765368476727904756e-02 6.839569903067133083e-01 -6.363419723642919079e-01 -1.330229919943279659e+00 7.174886750206387331e-01 1.162392161143799008e-01 -1.600573984439107145e+00 -8.184768967803686124e-01 -6.703914264696401171e-01 8.823686860438934021e-01 3.486959411016040122e-01 -2.489447375180093569e-01 6.495101632327906493e-01 -1.479938772608508368e-01 -1.229313889060490439e+00 1.463583541315243597e+00 -4.223927966263575362e-01 -2.363534989234465922e-01 -3.761856218905870047e-02 -9.341408657845374774e-01 5.446990384603377366e-01 -3.651065302922179012e-01 3.943403772585399314e-02 1.017613975409286109e+00 7.283964306758996532e-01 6.032734964305578318e-01 -8.125508617890937479e-01 8.172426978901938810e-01 2.185874274094019576e-01 -9.332982313230216986e-01 1.100571167633753768e-02 1.417023153383259571e+00 2.779693735465987858e-01 -5.910737959963308780e-02 1.424715950451159507e+00 -9.605988059774774879e-01 -6.616302501216327903e-01 2.804850381799960379e-01 1.814263803166294542e+00 1.724270790400110609e-01 -1.011775261616831012e-01 1.325425260638766645e+00 -6.283045992726995488e-01 2.789128101349211408e-01 -1.843144720561411321e+00 -1.240594847517767718e+00 -3.117066759744550192e-03 -7.303712674524539539e-01 -4.559054636848711151e-01 -6.071445469269801665e-01 -3.543941957811154730e-01 1.816747800066116358e-01 -2.229953493589321489e+00 -8.985146007489966946e-01 -2.768284215597596742e-01 -6.750396089966631541e-01 -1.002585649202023976e+00 8.581796489542997675e-01 -5.608159652349750113e-01
-8.989646458385668337e-01 -9.377249525843510403e-02 -6.751106091855259284e-02 -1.122095594106304439e+00 -6.701221925243727728e-01 -1.357057656841267557e+00 4.488837175329486728e-02 -1.267172217101047327e+00 4.739580169215387717e-01 -6.438241722787196863e-01 4.690431866308912845e-01 -5.270721945860080276e-03 -5.707374637436085640e-01 -1.580061596537789548e+00 4.830096203720645187e-01 2.013647947657585535e-01 1.172872866079899962e-02 -3.361655086164136996e-01 -2.037130859237666625e-01 1.394573840198618075e+00 8.973490316370017483e-01 -4.768939059285203785e-01 -1.351310201387065923e+00 -1.101885212268888248e+00 4.524746332071021282e-01 1.052078273667189867e+00 2.613477230757043634e-01 -1.473014211013725427e+00 1.355149479198721973e+00 1.814873552021776804e-01 1.324604901791112399e-01 9.790743469300576540e-02 -1.416315302453826197e+00 6.372208618999499752e-01 -1.854885668687830336e+00 -7.981220153369995851e-02 -1.077900318387952749e+00 -2.559219669681220832e-01 8.620013111023328012e-01 1.600772983997546639e+00 1.287300536183115129e+00 8.038115557144080991e-01 1.643916762848095514e+00 6.639557549145082005e-01 -3.919021460074167962e-01 -1.899840085044953997e-01 1.783170643941961675e+00 8.739870976051383744e-01 3.938724556112955799e-01 -9.059167053965655469e-01 -9.962709984815562581e-02 -4.540956573234293803e-01 9.145732237339294635e-01 4.654930460263485004e-01 3.879012534173600923e-01 1.018937931788749252e+00 1.734656800490191608e-01 7.580982672149361168e-01 2.882122913614151294e-01 2.991000143691425750e-01 2.257111053304718951e+00 8.341778486136287585e-01 -8.117970853718799173e-02 -1.019088278478902515e-01 6.207060159629184115e-01 -8.659445821387323772e-01 -4.046654215724467263e-01 -1.501714977847868226e+00 -1.536486962987034521e-01 9.953431912059061970e-01 3.982344997394695607e-01 -4.506269300443349612e-01 -1.768645720713539538e+00 -1.964383582669987360e+00 -2.731810107612319891e-02 -1.084925342994634834e+00 -7.455116058405616419e-01 -4.785518632008948225e-01 -5.296162513184318188e-01 2.203447764080038868e-02 -2.296671832884784603e+00 -6.227948312064476299e-01 -8.966612659891224357e-01 -1.435049767837851764e+00 6.630645824403292865e-01 -1.175590728497974524e+00 -4.880046611550809543e-01 5.035296166718091770e-01 1.448828515370220504e+00 -1.235946054453865628e+00 5.383771145832709770e-01 -9.827772117615705960e-02 3.633044688599344069e-02 -7.948745579095055636e-01 6.699011335357284436e-01 -1.128320365765715927e+00 -4.886524407410546000e-02 -1.060131124849013728e+00 -9.403132594123909671e-01 -1.183925876501158853e-01 3.972226420770502142e-01 1.410206016327529843e-01 1.024483888168578272e+00 8.774151581931337596e-01 2.690874287366848416e-01 -1.459932284506700317e-01 1.986108800100792049e+00 -1.383779350196230107e+00 7.093116647544241149e-02 -9.158286248634629478e-01 -2.183646673740886335e-01 2.016151849401109919e-01 -6.425214511120707073e-01 -8.315006120526283739e-01 7.324183700764625993e-01 4.622641311285142218e-01 -8.867858519405285023e-01 -2.280216321332646529e-03 -3.693929793143798102e-01 -1.779385737170226411e+00 -1.101169168791458430e+00 2.048809407542251937e-01 1.481349390271846866e+00 -1.245391276237725275e+00 -8.759280860813303815e-02 5.748674147777773635e-01 -2.104247156760221671e+00 -1.387340891410543398e+00 2.422061987403518302e+00 -1.495249046616576316e-01 4.153237246219622647e-01 3.764579208835499013e-01 2.003532586760992995e+00 -1.270528391799593981e+00 -3.278264257252222480e-01 -7.831446076734686901e-02 -1.839280976360371106e-02 -7.375444411380016607e-01 -5.072185185539370561e-02 5.014237835057812065e-01 4.630911778765727793e-01 -1.763066084975336123e+00 1.588602905533471610e-01 -3.272897460456991037e-01 -2.220858470728777345e-01 1.181662694137350922e+00 -5.579529908679570216e-01 -2.331637861672100520e+00 9.005703658881768492e-01 1.428902127505117248e+00 -4.929928980000297112e-01 1.048160089511545712e+00 -1.846623216665661538e+00 2.981703939705452888e-01 -4.770033620745123271e-01 8.206130641895611477e-01 -4.890155617482069839e-01 2.672340380029711859e+00 1.779579867922329028e-02 -5.979151170424367168e-01 -4.428307754737596524e-01 -9.116215571273021956e-01 -5.524960923546374802e-01 -7.669384574007106492e-01 -3.673691935370381190e-01 -2.666743450377576652e-01 2.328393421732823043e+00 2.532338658820639243e-01 1.125373951342506368e-01 -1.458627716706165423e+00 1.252699334396082831e+00 -1.254938006979701148e+00 2.012833692094532889e+00 3.882844669788997755e-02 -1.697817459585978739e+00 -9.273216599170790164e-02 1.151889404991503385e+00 -4.791032236018031437e-02 1.196955864842883743e+00 -5.941412808956337832e-01 -1.012151622148642405e+00 2.367325866806128776e+00 -1.760041212974359892e+00 1.284015528909689730e+00 1.043006993589573383e+00 2.235252184375962348e-01 4.826394848631845869e-01 2.290018457018005549e+00 -1.049366378776571906e+00 1.053273182265038466e-01 1.558642758764543501e+00 -4.074640992543389628e-01
5.689841888427951133e-01 6.656234460756802473e-01 5.796112673880513544e-01 -3.465809309158630613e-01 -1.080531204278916413e-01 -5.033648636783195629e-01 5.323788005702683596e-02 7.909663611734366606e-01 2.032941926950750045e+00 2.624218014725193115e-01 -2.055589456546111027e+00 -8.749854030791713866e-01 -2.666030887796239646e-01 2.839334307114911304e-01 1.780571824336697251e+00 -3.825051127026216080e-01 -7.564537268572925077e-01 6.167602632537531049e-01 1.324492895220031441e+00 4.362884197895277039e-01 5.716890023985127245e-01 8.167581914678798682e-01 8.370744037918107505e-01 2.254924995813275324e+00 4.399122833806324295e-01 7.770582217509199863e-01 -3.777033005864853799e-01 1.322829713375614169e+00 2.833519983781899315e-02 -7.135561444586159541e-02 -6.495321539797537236e-01 9.483193110560519390e-01 6.221772289545013379e-01 -9.259269362559754413e-01 -1.115867932823614961e+00 -7.980684158587174684e-03 -6.702541901302664362e-01 -2.715971273627367233e-01 1.283109074834443419e-01 -1.106595981775519988e-01 -1.930597457930295080e-01 9.058065075467720551e-01 -1.740181350911984337e+00 8.772626193428492147e-01 3.094552094858226132e-01 6.101289160130801692e-01 -5.329850609864342781e-01 1.902539734550507955e-01 4.877883882548890437e-02 -1.080878591542079326e+00 1.503905852112731090e+00 -7.542368391887391832e-01 4.327509097528625670e-01 1.403978596934857936e+00 1.378356446013027314e+00 8.136036234397300282e-01 -1.447104165044757140e+00 2.557089089141010296e-01 9.217430145499074801e-01 -3.576700888337870921e-01 8.820367822869989993e-01 -8.276277855091201952e-01 -3.766237537812467950e-01 1.014649852404653441e+00 8.735456887343409083e-01 -1.082272782346183515e+00 1.399299971879093274e+00 -2.403139625534554680e-02 -2.729624781009887258e-01 -1.893136096337532326e+00 -1.161913351970408348e+00 8.907760039395636875e-01 -9.862296381602818629e-01 -8.618581689426337844e-01 3.063740665943430197e-01 1.724553884083267041e+00 -1.288945984189769467e+00 1.865528252771670559e+00 -2.632062815109885157e-01 -1.059307994988508916e+00 -1.727419189131153554e-01 7.202918141252869777e-01 3.604744419414670498e-01 1.335461820435753788e+00 3.790126919019917162e-01 1.994308876216780879e+00 -7.678764136451784461e-01 -8.788942791371181507e-01 2.691161236932805845e-01 4.653617204337439084e-01 -2.788183159807338551e+00 -6.933606759693931032e-01 -1.085072508914952938e-01 -1.089723814522952194e+00 -1.136211650213822422e+00 2.098363312894215293e-01 5.324982565376451538e-01 2.509319689133601705e-01 -2.674621291914562327e-01 2.964692157255194305e-01 -5.663977416116309227e-01 4.076617634582640481e-01 -7.537076238801798667e-01 -1.725509859858836093e+00 1.137718234480240342e+00 1.147636626759342082e+00 7.284650150629637944e-01 -2.871838709397937436e-02 1.477988798813352211e+00 1.386644367325795102e+00 3.320105908046730447e-01 -2.889457697427263216e+00 -3.277891422052147674e-01 -6.006809258974303845e-01 6.869121391674251065e-01 1.321604150504108510e+00 -3.817212659607507885e-02 -1.694947929484961202e+00 9.958255169783521987e-01 1.870655916117297757e+00 3.789160162771612050e-01 3.794990704099496792e-01 -5.513029132752307326e-01 1.253773996816916370e+00 1.929499666391311374e-01 -2.336209354190366572e+00 4.730431078706291981e-01 -9.613888710869249454e-01 9.334609120072752120e-01 -6.230484013810548838e-01 2.114191046280351483e-01 -5.063100740489493573e-03 -1.228101714211086021e-01 -2.429468529223523798e-01 -3.044473043097979947e-01 1.074569984011827448e-02 6.308647297951437694e-02 4.929212048157914361e-01 -6.998457118061295334e-01 -5.418045886385731286e-02 6.943733598515967886e-02 5.075771095639061148e-01 -2.165434504685229133e-01 1.775936186812966611e+00 -2.127505879051422077e+00 4.434579376319925381e-01 -1.029275890550882977e+00 -7.150217762740055383e-01 2.510558714005736713e-01 -3.478471676196566165e-01 -4.696815171859236582e-01 -1.093545803594652144e+00 -1.416292801823977321e+00 -7.824740164265117093e-01 -3.954877348767597223e+00 1.599106920064329085e+00 4.312443941764295685e-01 9.991368409585295041e-01 -6.101298947911132364e-01 2.092427264686317567e+00 2.324421082948045392e+00 -6.237377239627436287e-01 -3.806053211468858888e-01 1.524485566507723933e+00 -3.881257575963938944e-01 9.281708796724719157e-01 4.001761072375921158e-01 1.537785978280895138e+00 4.278807384590327390e-01 -3.619725475062631204e-01 2.088783856049450938e-01 5.803812526496769930e-01 9.230660570194789694e-01 3.261592153650692549e-01 6.739551701903055969e-01 6.450420107395142821e-01 8.850732470544635522e-01 -3.951420005417034531e-01 3.607104248985949502e-01 -9.575788600496467629e-01 -1.693742579294398531e+00 -5.316064442955580338e-01 -1.502442757902040738e+00 8.460469663196055201e-01 5.776218106926409579e-01 -2.595839728758096765e+00 2.403506986648829558e-01 1.431291819073160498e+00 1.752879528136994658e-01 -2.327734199831357764e-01 -5.975635632731129965e-01 1.440934672106954917e+00
2.480004707695602217e+00 1.885555436315899946e-01 7.009709422996551753e-01 2.209761801997970898e-01 2.267167411401758703e-01 -6.622753232087340569e-01 -3.710093199192345814e-01 4.073954424128536922e-02 -1.326010249339551361e+00 1.603213373776443129e+00 -9.274475113035993701e-01 3.074754879423695630e-01 6.619323304218618365e-01 1.323634233939088078e+00 -1.435325032795413902e+00 -1.157017126028533349e+00 1.061205655291374894e+00 2.012999854659970556e+00 1.888166894126679152e+00 -6.561698294741389326e-01 3.117054869216119850e-01 4.758410743162693746e-01 1.286422196025390985e+00 -5.888195490466782145e-01 -5.327412514037666025e-01 3.247030116137264444e-01 1.341133623888956725e-02 8.772598510944991101e-01 6.727270584042041035e-01 8.065026172321440034e-01 -9.549268583359417084e-01 -4.767747055858232441e-01 8.483014097179886193e-01 -4.808316069515993774e-01 1.009425039701824928e-01 -8.847991258008990056e-02 -8.403328181173141953e-01 -5.003922544177913379e-01 1.346325133155916287e+00 3.608273593796482159e-01 8.547033064746353825e-02 9.558265072824997377e-01 1.413605845209892631e-01 1.579485730138887462e-02 -1.889855993244474508e+00 1.174322300883858493e-02 2.257102508793340789e-01 1.000919188610150057e+00 5.553549446688762006e-03 1.146236052435418262e+00 1.599926225637563482e-01 2.983238694154446424e-01 1.198505108058522062e+00 -2.263166655585896747e-01 2.280262504808031832e+00 -3.536971030140678707e-02 1.708522351908075221e+00 -6.217283910008486458e-02 1.348583549790458802e+00 -2.695272956861788138e+00 1.346999295476978942e+00 -2.917462691266939356e-01 -2.693857213317880084e-01 3.179669871658306057e-01 -2.675318755550867844e-02 1.955497155844572732e-01 -7.517211504787101317e-01 3.567755492764643210e-02 -1.782762038718445907e-01 1.362015677378659806e+00 6.387279296453629573e-01 -1.601280518448174872e-01 -2.888036437969425663e-01 1.236285994186603787e+00 1.535129920278050841e+00 9.133120624589509129e-01 6.507036468885875058e-01 2.595089159617855468e-01 -8.623493355887720813e-02 3.562340704079928200e-01 1.849363295630578052e-01 -9.562823453891462488e-01 3.119775937400175447e-01 -1.728540194139829289e-01 -7.093374314012818038e-01 -4.055100775102215560e-01 1.254460934380404069e+00 -1.331378799427924919e+00 -3.314451617085513169e-01 -3.500650254831528807e-01 8.952366606430716134e-01 3.966116013839728338e-01 5.672595999340354720e-04 -1.155206181962119105e+00 -9.954969528592437777e-01 -1.148421763360383707e+00 4.708600961485949754e-01 5.235427847852667238e-01 -9.655257887714052689e-01 1.646574749594793108e+00 7.117124808322232432e-02 -6.184056932338891643e-01 -1.090330636510880691e+00 -5.640283788006359433e-01 -8.756470099874550383e-01 9.387374601457884049e-01 1.752469057056174617e-01 -1.143017055926397046e-01 -2.693905627715693640e-01 1.838486341235263666e-01 8.421917862169946423e-01 -2.714189405524756182e-01 2.207490471782424801e-01 -1.678560506337225533e+00 4.550971767602491475e-02 -1.292663872152613358e+00 1.761419309113320342e+00 -5.124881922046781169e-01 1.179749175984235787e+00 1.464930042592749615e+00 9.990779893494035058e-01 1.968028805299122108e-01 -1.383168679637925891e+00 -1.839132015166378586e+00 -8.553902129828514500e-01 -3.319782039497802817e-01 3.156661125385677447e-01 -3.482154464766548663e-01 6.059682384209709172e-01 -6.471152765627810055e-01 -1.123084970669241400e+00 -3.795595270963524892e-01 -9.313896048878924638e-01 -2.747773673865660377e-02 7.264636842275536965e-01 6.943951470539352355e-01 -8.027550122822044720e-01 5.412657843338655184e-01 -1.164915221380654842e+00 -7.333387821664194561e-01 1.916029870171684080e-01 -4.705642752479302637e-01 -4.731833976940146014e-02 -1.769773627226959967e+00 5.479996091440215711e-01 9.686465581565902871e-01 -5.467540155083893127e-01 8.779267251128307636e-01 5.165645455230713501e-02 3.771917344868103150e-01 1.264336706394953991e+00 2.119802363767782083e+00 5.468690889911425046e-01 -6.777423271757483381e-01 2.175144448961853494e-01 -5.588622684157613651e-01 -1.706649056430659395e-01 9.490421377602681341e-01 -9.549919221240938949e-01 1.172813759982041376e-01 -1.053132710693809759e+00 -6.992394721950648817e-01 4.801665795541960186e-02 -1.122662876046802927e+00 4.805137604006017304e-01 -1.568440373220570949e+00 1.142436554960748696e+00 4.199364118686898552e-03 -1.195308154529826528e+00 -8.661250477203407128e-01 5.833008981660300907e-02 -3.820056275424403291e-01 1.156581076965510047e+00 1.003916449709455261e+00 8.730495515323057898e-01 9.559056684618253419e-01 -5.223358157964831383e-01 3.328074463154358509e-01 -7.494313710525288830e-01 8.049196851955524590e-01 1.892384789621168073e+00 1.014752579939340427e+00 -6.193778752354752726e-01 -1.190518321634753907e+00 1.085781890029424490e+00 -7.497324240269666318e-02 3.923798358271309294e-01 1.247797266650842563e+00 5.780957274472362517e-01 -4.033063067409660696e-01 1.974211794400947184e+00 2.339277759367654752e-01
-1.074487097956480008e+00 -4.676383472529844765e-01 3.950472754493786764e-01 -3.481624965129687665e-01 2.854594866905981188e-01 -6.877057153025347702e-01 2.510399581910934264e-01 -3.936885521567159429e-01 2.201088301288918747e-01 1.314489814590837469e+00 -6.721204282740591562e-01 3.848895679404938652e-02 5.201813187490655910e-01 1.707791934682798551e-01 -9.233615176755967102e-01 1.630206112261785911e+00 1.187398214515521938e-01 -1.331695677795360355e+00 -3.399981600746947441e-01 -3.321934476085584564e-01 -7.820221830720295308e-01 1.264568897886864281e-02 -1.153660602568841842e+00 -7.620135880300556996e-01 7.528226608942889531e-01 -6.582464123524287558e-01 5.679701381389796744e-01 -6.108168335752748278e-03 -2.202805861835894774e-01 -1.096247075083532918e-01 1.900698548115205000e+00 -5.225225934521640081e-01 3.317706153004298386e-01 -1.070228299429555330e-01 4.582415633603844074e-01 1.069645148539413448e-01 -1.310188718455111978e-01 -6.653719813159441054e-01 2.551723937855886470e-01 5.334542900852923264e-01 -3.947985793694472334e-01 -4.667606338198874161e-01 -3.029188694248003966e-01 1.162246531969120422e+00 1.698730722857720421e+00 -5.967495989354456576e-01 1.148573284224490232e+00 -7.371059264983272907e-01 8.848711953021719534e-01 -4.892487621760098215e-01 -4.373494620107174491e-01 -2.136777760693549799e-01 -3.684947686157635793e-01 4.763965314309819704e-02 -1.918251857386883974e-01 -4.793444854605759531e-01 -5.985862474173399006e-01 -5.053586020824742953e-01 -1.030222286369756768e+00 -3.369985186476936317e-02 6.756719543282634355e-01 -9.153858637418340605e-01 -6.350348900229453586e-02 -8.016437044754948227e-01 -6.505690302505134914e-01 -8.437741947739119119e-01 -3.435908125372164612e-01 -4.194011988041352890e-01 -1.586716405700289156e+00 -1.555920428767195718e-01 -1.592253806446258801e+00 9.896136725270158196e-01 -1.378211079612361223e+00 8.394083293697298664e-01 1.076774241020193035e+00 7.490690347436934626e-01 8.938135735456244346e-02 3.103065124855582391e-01 -6.915245161971075305e-01 1.632330243293785010e-01 1.578042716193965855e-01 1.071973269758734304e+00 -1.048605671307818316e-01 -1.144021006090701453e+00 1.693993649653355860e-01 1.493874817749698103e+00 1.184173371760682381e+00 5.209129256466246694e-02 1.081982477651212138e+00 7.097358788523294715e-01 -8.315955868335918669e-03 -4.253715855764505505e-01 -5.373419131585042141e-01 2.523858975554310380e+00 -1.353461954587849292e-01 9.909093981508633187e-01 -1.239631298742526866e+00 3.918160931800354074e-01 -5.067959518202158620e-01 -4.443521022234380585e-02 -4.305493694553788608e-01 7.907615833684215889e-02 8.443482254770653395e-01 4.271969369664928018e-01 6.559580108203219018e-01 -5.023158082569002536e-01 -1.794099631850490262e+00 1.189194200990412842e+00 6.639000315374996575e-01 -7.366748033311967259e-01 7.958113847789689832e-02 -4.429624039062985408e-01 2.056119686076618880e+00 -1.169896345573337770e+00 -2.523053392910111548e+00 -2.779722742221756304e-01 -4.052196544703636771e-01 2.980358122854144254e-01 2.344589215597853993e-01 3.319803359578878399e-01 4.369805407305846767e-01 5.299263506043921934e-02 -6.527834025841509069e-01 -3.807319800103477481e-01 -4.345906880149609519e-02 -1.899872724309963623e-01 -8.670088362812844451e-01 6.035260062294852679e-01 1.990158210767703773e-01 -8.794254841166513348e-01 4.858495748043150653e-01 1.842678573847031376e-01 -3.200145291550434701e-01 7.788214975007234919e-01 -6.961682170553872284e-01 4.208928024750625552e-01 5.393042802128610314e-01 4.738842328731798781e-01 7.771043774805668214e-01 1.919959308966017852e+00 -1.329770919088447911e+00 8.173019443983878807e-01 -4.176107414332788648e-01 -1.139863071690770530e-01 -1.873023113362759284e+00 -6.053109764983378299e-02 -4.008358685785822773e-01 4.138893952564285939e-01 1.718884548879084928e+00 2.019929221497186678e+00 1.450543460138013219e-01 1.580025941205087436e+00 -9.834744621159256794e-02 1.639683605883442974e+00 -7.456131173339639595e-01 6.219097842541597698e-01 3.511402030908390981e-01 6.775989061803059377e-01 -3.586691427160120238e-01 -9.637654737910524849e-01 -1.118679245683887213e+00 2.969912570664244057e-03 4.607950374627742263e-01 4.487805285508936204e-02 6.025246327585608297e-01 2.800562947136638892e-01 -8.388828496221129027e-01 1.627158228234692507e-03 8.268963729355974790e-01 1.089440141466155421e+00 1.439359344368251081e+00 5.755160701495790759e-02 -8.922585640019800590e-02 -1.518032372077469550e+00 -3.860112235304843931e-01 -2.195110348456445148e+00 9.642895318190113363e-01 1.969289391515892440e+00 -5.288626160170805113e-01 6.962823814740423112e-01 1.514920016934586666e-01 -1.017581223270271895e+00 -3.585486899103315084e-01 1.841194677461365892e+00 -3.779359664839906929e-01 1.053454179880012109e+00 -1.562452690765577135e+00 1.139456237887642054e+00 -4.491322849428723285e-01 -1.455905046589143881e+00 -3.729783300497905851e-01 9.045034859047001996e-01
1.144840036666912697e+00 -4.472388711353619817e-01 6.666371941618597086e-02 5.955907076215287699e-01 6.549606403246939212e-01 -8.108744480224432394e-01 2.194822015514028113e+00 -3.823307184492270028e-01 -4.927640920409996905e-01 1.261772607118089473e+00 -1.326090981402763491e+00 1.685873079268868091e+00 -2.569260540959870553e+00 1.945297470743916346e+00 7.893306369556688518e-01 6.851223854581885986e-01 -7.380667659753068488e-01 5.235896707493202795e-01 7.230542087425786413e-01 9.663668300137523426e-01 3.953046564150623499e-01 3.837273004201225968e-01 2.157611445910422865e-01 3.353799063318858020e-01 -1.119580558865534314e+00 4.210632660394004190e-01 -5.454969161849495540e-01 1.190281197979006889e+00 -2.314066938486271374e-01 8.899591341813817280e-01 8.035221753730945604e-01 4.918254455642640521e-01 -1.463932853319807048e-01 -8.454935859080989768e-01 -1.993887464939972487e+00 4.887440755215378685e-01 1.380791930889381680e+00 1.936701230076504632e-01 -2.265508287645471575e-01 1.501114472820544110e+00 1.181243365680633151e+00 -1.218709441120598536e+00 1.752826362379489578e-01 4.240375284780746323e-01 8.539919951436548695e-01 -9.823395720119630914e-01 1.395314273932978799e-01 -6.228238422631777738e-01 9.218076368833121315e-01 6.588524556721926384e-01 1.104849508866065699e+00 7.453830901271146780e-01 -1.847949305341297865e+00 -8.752426076048232251e-02 4.474001062553326080e-01 -2.239385548114246893e-01 7.674921835735897258e-01 6.780941793807471196e-01 -1.112413721428298086e+00 2.158025606313929423e-01 1.080939401682854850e+00 3.006039610780952831e-01 -1.383905648091659391e+00 3.766193939743314734e-01 1.493592035134894969e-01 -1.537450904182582567e+00 9.182072111615208199e-02 -1.462731229720082293e+00 -5.703373375565620185e-01 -2.029817582179541668e-01 1.150530553467692174e+00 -1.672907240794024586e-01 9.740089110766659841e-01 -6.424711816318016966e-02 1.079964802002473245e+00 -1.398470595146068085e+00 1.794275411932349185e+00 -2.143864513837480335e+00 2.858331152117788432e-01 -8.753224324430205483e-01 1.105244957858231153e-01 -4.221685360537776321e-01 8.294554717202061445e-02 -6.439117083485799142e-01 -1.182673055930417716e+00 -6.916756638419080394e-01 -6.099172487041104596e-01 -1.187982339478084404e+00 1.075196625356160895e+00 -3.379628249410405183e-01 -1.164746272089454804e+00 1.785966816788675304e+00 -1.228478358087929267e+00 -6.072768736235207854e-01 -1.841084472654385795e+00 2.481677848676545395e+00 -9.169751934658183501e-01 1.205781300820514129e-01 1.003551117378294943e+00 -1.468960469792027990e+00 6.855636135001015319e-01 -4.472453865777325510e-01 -2.076078995880929756e-02 -3.501707802448199014e-01 5.190426363759506057e-01 5.002759349225196495e-01 -8.375021671050719707e-01 1.029408337768462411e+00 7.755643564487227914e-01 -1.454155654451946944e+00 -6.645691842216657763e-01 2.283502813520471575e-01 -2.900388300564435973e-01 -6.718852256365287490e-01 6.547710166140561228e-01 3.772252266802294911e-03 -3.690523157623334938e-01 1.193070157751229959e-01 -2.710242441730746243e+00 -2.125903278192561530e+00 -1.870800028544532256e-01 8.689504804166001684e-01 5.960481683094049909e-01 2.921583538627843257e-01 9.571925176107619337e-02 -5.033079091038807906e-01 1.697077736722453434e+00 -2.202904454913319654e+00 6.209397873520228206e-01 3.699882356979544706e-01 -1.157732841628197201e-01 -4.161702957474656128e-01 -5.182983781505610954e-02 1.280456096344622319e+00 4.637184370338172101e-01 4.491918112597488751e-03 3.619896028152898571e-01 -4.712171005553955627e-01 9.687640486809426243e-02 1.750430840131220744e+00 -5.031360824887818328e-01 2.244765037611646391e-02 2.607611875508298871e-01 7.417277821088090750e-01 1.520225977082346525e+00 -5.139724918713252100e-01 1.472519683058418405e+00 5.985411753610188068e-01 1.193951795676334582e+00 -5.759908774448530000e-01 1.362424240441828971e+00 1.218188494700749719e-01 1.110435699182593439e+00 -1.293826473318069548e+00 5.451198152071886627e-01 1.533216261155580629e+00 4.606279419734166658e-01 6.813592625296912564e-01 1.987781416278205093e-01 -7.338198064597737380e-01 3.103675171496578788e-01 -2.037073059291916177e+00 -9.391291096029097396e-01 9.061609100448320131e-02 9.456090849719300806e-01 -1.955980743218932449e-01 1.135533642788974396e+00 -1.066724975485979998e+00 -3.370038364737651948e-01 -1.483469199409092720e+00 -2.350689841541001301e-01 -8.256226318088095706e-01 -7.967069569830762532e-01 1.778502004062560315e+00 -1.141000292357837731e+00 7.725433291072901776e-01 3.161628820759088132e-01 -1.693935187596551373e+00 -6.075921547826863556e-01 1.561113771279978080e+00 1.442403210622549725e+00 6.732617137950476227e-01 1.926921888936639904e-01 1.025720622641967811e-01 1.801858229933203770e+00 -2.067694324378246615e-02 -1.768907643503333238e-01 -8.333632381470877926e-01 1.257851770947813419e+00 2.082430545540831179e+00 -1.859023416841357190e-02 1.730694221663291898e+00
2.638220651179857823e-01 -5.555758668018935253e-01 -2.406960255485981748e-01 1.105282433289863864e+00 1.097411322581999471e+00 -1.353557696423724588e+00 -4.798856533221104170e-01 9.990756487600723768e-01 -5.908254581036984643e-01 -4.999657999146293053e-01 -1.840908911522130431e+00 -4.147517526047136971e-01 -2.336541713783946594e+00 5.141878929201882942e-01 -1.601874501421908015e+00 7.261645770492545227e-01 -1.094542277699481758e+00 7.426549565843609813e-01 5.551561127530147965e-01 5.664626026431784922e-01 1.284358032772723091e+00 -7.636894367595102595e-02 8.419400299198683824e-01 -2.147620290436378365e+00 8.669233792988291221e-01 1.008430807885708713e+00 1.522307190349359685e+00 -7.352388738471556939e-01 3.031626108555902643e-01 1.570666323838471268e+00 -1.418070729444814715e+00 -1.280115210609510834e+00 7.388553491719542787e-01 -1.722166230013659316e+00 -3.390074869334519514e-01 1.391150303182919545e+00 9.812864081095358515e-02 2.667941958625542620e-01 1.345932802263418437e-01 8.576287728383272801e-01 -5.503386781538681660e-01 -9.976668715384000297e-02 2.170307663197251213e-01 1.009395996642780818e-01 -1.502345306935103597e+00 -1.189611097106012400e-01 -8.466919699656717535e-01 9.900961565621155813e-01 -1.405716598839674703e+00 -1.146267564703949082e+00 3.716142022755182239e-01 -6.197895720512879292e-01 5.976531244410253629e-01 1.933420892158695503e+00 1.234563921175561463e+00 -1.116412331686189585e+00 -1.293564230407583171e+00 -8.151339538682488284e-01 5.223293131938570033e-01 -5.186280134630253391e-01 1.223079589914034537e+00 -1.602716752360141328e+00 -7.004850476039130580e-01 -1.529705847645613348e+00 4.230093261933943749e-01 -9.587398043349090182e-01 -4.821839842634636497e-01 1.499215903423544383e+00 7.145046633323857976e-02 -1.636999334970972997e-01 -6.737037356306161406e-01 -1.047896813232936791e-01 -3.936187452950843518e-02 -4.252784792688399373e-01 -5.021499903536845721e-01 -4.782795963814474027e-01 2.784612724423357610e-01 -3.234764088857284836e-01 2.019430002328351514e-01 -1.436571399335019983e+00 -1.406388456781578755e+00 9.326015855896196971e-01 -7.911660056284127718e-01 -4.854987541708442600e-01 -1.607840936236184515e-01 -3.121780248103401267e-01 2.362477116404667843e+00 -8.934655612669264446e-01 -9.485638802005769143e-01 -1.151905073772966803e+00 -1.307629322908434366e+00 -2.489475504894342883e+00 9.511940727352307112e-01 1.073312236060279146e+00 8.994857132086654383e-01 2.501365891985192769e-01 -1.950811977224614857e+00 6.710621498323781076e-01 -7.801713314561956603e-01 1.298585208845369987e+00 -1.799482073767067966e-02 5.486018574790639812e-01 7.892336529860465300e-01 -7.129633113785893705e-01 -9.498225393272324846e-01 4.444135362639882458e-02 1.280871395360115184e+00 -3.240002103163912017e-01 3.758767692681586614e-01 -1.774241729475259044e+00 1.595467475797344825e+00 -1.652789496889827681e-01 7.409358632623981311e-01 -5.871112016571918835e-01 1.255629039933992552e-01 7.879208320735617832e-01 -1.094320227347821639e+00 1.993882597700755710e+00 2.945236486160189293e-01 2.052112833782322732e-01 9.928032134621570526e-01 8.644442082206923450e-01 -1.327006592248389572e+00 -3.730840442781049315e-01 7.345580863675985617e-01 -1.805453995264264255e-01 -2.343803879773006749e+00 -6.768010592786724011e-01 -1.404614156385945167e-01 1.447125104375033500e+00 1.319315274691151840e-01 2.512567470811341686e+00 -5.862208288127696704e-02 -1.021925255873562977e+00 -1.255165545676613092e-01 -5.538941684604848925e-01 1.559468466160767730e-01 -1.813505340300503921e+00 7.011077066982269734e-01 -1.560378797171756982e-01 3.814374177116021669e-01 -9.896005082273873210e-01 -3.662011304206215234e-01 7.817261037350998754e-01 -6.431416203419348943e-01 2.053374762152010702e-01 6.078741002157531659e-01 -4.903698442858802631e-01 -5.103713803628868728e-01 1.535320539345672586e+00 -9.646984795072959668e-03 5.359010610335415148e-01 -1.482272186647161094e+00 -5.448111337996286441e-01 -1.047130180573860425e+00 -8.168267984071370114e-02 6.486101518510162256e-01 1.476583750192919098e+00 5.057419215435386695e-02 1.827285667960219628e+00 4.401098780792496723e-01 -6.480132577613425537e-01 -1.507195470351000877e+00 -3.137301100090026384e-01 2.724451502353738008e-01 1.273294172117926504e+00 -8.938566179923176924e-02 -4.062795429357674015e-02 -8.183051167384821634e-01 9.479744014314986922e-01 -1.019351126496799154e+00 -1.526717402047656602e+00 -2.321420100177085943e-01 9.305942100087850610e-01 -2.303785313975761917e-01 -1.569990406879324674e+00 7.655724821061310470e-01 -1.220212574136350092e+00 1.125878029545979819e+00 1.168536625972902643e+00 -2.291603369894652964e+00 1.627235754793182831e+00 4.762116865561483170e-01 -8.623824960601604861e-01 2.030688617163678433e+00 -2.683845415162184334e-01 -4.202838649045926855e-01 7.208493106253592853e-01 7.355408927050893775e-01 -3.724312159478662676e-01 -1.374719578484558946e-01 5.415707460677259277e-01
7.398904380848721207e-02 -1.704760638746820323e-01 -4.459105462028645772e-01 5.355888063619130834e-01 -1.206750355134457164e+00 7.440758148838678698e-01 6.366854500940791750e-01 -6.392753767752732408e-01 -3.757807252707332513e-01 1.757213801373349593e+00 5.262389952313325514e-01 2.160099417138776345e-01 -2.865705910002591672e-01 1.104790479309202933e+00 -1.458445938471363279e+00 6.230704847474303198e-01 -4.238273849736389209e-01 4.456662957078900145e-01 4.474371790136594251e-01 -2.014252417686153152e+00 -2.107483593324974258e+00 2.644797554540125883e-01 -7.543960261122445443e-01 -1.197006642955818823e+00 -1.773297280764608796e+00 2.506025110887328822e-01 -3.023040125214783713e-01 6.285664263446313349e-01 3.623546614253702058e-01 8.905494900048880336e-01 -1.181026510059532519e+00 2.308102462783749420e+00 -1.701810178260494633e+00 2.043611949710161593e-02 2.500382132934999002e-01 3.992904887143561114e-03 -1.408224613149235749e+00 2.834585561816513888e-01 1.937604664481354100e-01 -1.447919560718509357e+00 -5.434391800929451177e-01 -6.039163940688431209e-01 -6.557921552905732199e-01 -1.657700471732538317e+00 1.416529471625847414e+00 -5.375683324636845173e-01 6.478752107830900719e-01 -1.776413577875983307e+00 8.117095456481480120e-01 4.217050529101173256e-02 1.313992754560091014e-01 -3.198954773864696732e-01 1.011155115027633361e-01 -5.620555206192452413e-01 -2.984311137230452604e-01 -3.136135454969887770e-01 6.279376799632199191e-01 8.750855830645846156e-01 -1.180668756756828808e+00 -7.837843028452959326e-02 8.394902021527667069e-01 2.112793326310431041e+00 -8.613822486702454873e-02 -7.380598257102320980e-01 -1.494362013846038950e+00 7.545087563408061637e-01 -7.590835841235986647e-01 2.925635642492860899e-01 1.354986211848877797e+00 -6.191002042643283243e-01 -1.181414276825809351e+00 1.110482490157034714e-02 -4.730841303895823025e-01 1.519846871526629450e-01 -4.505687283113161135e-01 -1.329804073667649189e-01 -2.903168012034212375e-01 -1.980706229347754255e-01 2.179463907317293003e+00 -4.774488525022424490e-01 1.690249388588243695e+00 4.377646358142389671e-02 4.255753448836973596e-01 7.575376698932388964e-01 -1.419479377525631802e+00 -2.567633917485842576e-01 -2.005225487987130073e+00 2.218856417951335480e+00 2.105025720579280613e+00 2.239026134439688898e-01 1.243892037837652120e+00 -1.726382702312261597e-01 1.127246449037303089e+00 4.266448314450521639e-01 -5.932670916107922743e-01 8.947153353853404267e-01 1.345171818283984688e+00 -8.661958997237930724e-01 2.621493661041227607e-01 -1.790114211478515793e+00 3.126668989361613415e-01 1.660121290004317463e-01 7.934005917544151298e-01 4.768008536643070228e-01 1.039395410954854215e+00 -8.781651447513683095e-01 -6.992739155706723109e-01 -6.452910668973729780e-02 1.015582474739744612e-01 8.424729328697125319e-02 -1.380717625082646505e+00 -6.060385658780542695e-01 -1.841972232518959141e+00 4.476054873789646060e-01 -2.573360987218997309e+00 8.279041096392020238e-02 -1.058131899415624577e+00 -1.267082181877369873e+00 -4.150830829969388673e-04 -7.319516693766395798e-01 1.080520205461915406e+00 7.613275594539340441e-01 -9.066167891733434292e-01 1.313950209950541792e+00 -3.634066547904301822e-03 1.692936260957197403e+00 8.351589557751965681e-03 -2.210179699013030241e+00 -1.186738666634656658e+00 1.524716283773487779e+00 -2.545153398776286990e-01 -4.999514391990819151e-01 1.250962004083404633e-01 7.417057449035751038e-01 9.578011834297799065e-02 -1.470513692921236737e-01 1.152893467723602239e+00 -5.708392300319419244e-01 -1.599245222856052084e+00 1.944687755468514689e+00 2.681109453456019254e-01 5.294432854113441389e-02 -1.446696207366174602e-01 -3.845540878928651041e-01 6.012637202983914797e-01 1.604784005684231074e-01 1.355361214507485590e+00 -1.129589076945717752e+00 1.198696783384231024e+00 -1.208474739629933126e+00 1.649141354698034467e+00 -8.544765487674872428e-01 1.137226283485140987e+00 -8.636675689320666427e-01 1.129578913875219470e+00 1.185998391876665892e+00 -6.467665111251845733e-01 -8.439649655235509362e-01 -4.267437027664063853e-01 -1.659898299935085086e+00 7.093767312535854686e-01 -4.816561859188451256e-01 -1.056296817383832520e+00 1.143685713788632041e+00 2.132990882064480065e+00 -7.208544163029793062e-01 1.683451494074492460e+00 6.143035017437128431e-01 -1.505924721438221536e-01 2.073878816728968122e+00 -1.845843487058882904e+00 9.579364227408565524e-01 -2.135691325346169123e+00 3.188152290318688187e-02 -8.016815057879339568e-01 -1.555133911701086502e+00 -5.568264697473823688e-01 3.914655575008625932e-01 1.233029260786766335e+00 -1.370324840296109903e+00 -6.374189882734967449e-01 -2.511197698978395731e+00 -2.850072421284921109e+00 2.156092988990429671e+00 9.758830189486014106e-01 -7.054398131732873001e-01 -3.605239441347505847e-01 -4.830270942732564632e-01 -1.063106316021467990e+00 -5.738798052550061479e-01 -8.243855223072299454e-01 -5.142974910758558726e-01
-1.090432864041382510e+00 -1.336200225895516347e+00 -4.809427259377909714e-01 -6.050992782255075753e-01 1.547796544092083226e-01 1.255539644026790302e+00 -1.347994575893088909e+00 -6.046708834909979569e-01 1.941862691630805993e-01 -2.007865230901656695e+00 2.674861344488115855e-01 -1.488400336946014701e-01 -2.684500163516836402e-01 -4.119712351832057751e-01 1.814041093426978224e-01 -8.716116640555107153e-01 -1.100565435614968779e+00 -6.698548620244521024e-01 2.524074910483110612e-01 -2.065530138279330519e+00 6.725196723812824073e-01 -4.581510858858967722e-02 -3.366546584957964550e-01 1.611056412438439944e-01 -1.703022049000858518e+00 -6.851696935136386557e-01 4.025501834741324614e-01 -8.052831005709645273e-01 -4.552351958750629202e-02 -1.075851276305413329e+00 5.714171961348967210e-01 2.139308894679203821e+00 2.036057435966221796e+00 -3.468530950522398792e-01 1.877446168568870366e-01 8.632376819705669391e-01 -5.978670814778501430e-02 4.717105691972443143e-02 -8.521761430935241854e-01 -2.040415394154763806e+00 -8.256072770735116417e-02 2.535158906134855616e-01 1.598453850515936026e+00 2.730214067236951259e+00 2.562775673141120536e-01 2.963208822895099792e-01 -1.632680503366742197e+00 -1.960412055846068480e+00 -3.075666328723151710e-01 7.491714337905008847e-01 9.947983908445261203e-02 -1.227107211713535317e+00 1.550694670698805622e+00 6.345693827873737369e-01 6.031198978116397713e-01 -6.074818732731583903e-01 3.785765092884901262e-01 -5.160213063527907540e-01 -5.899679176769171418e-01 6.452059379018375562e-01 -7.749779352680770117e-01 -4.822122484484235860e-01 -8.705075108142030782e-01 2.740728356033598767e-01 1.076629530722875705e+00 -1.348287219652588298e-01 2.779424984104061358e-01 -1.109310777205061299e-01 -8.762245237607068082e-01 -2.400440133167135864e-02 -1.355702743903664853e+00 6.090616065025440395e-01 -1.011700177243504806e+00 -5.471868205690425535e-01 -2.936195526833003111e-01 -7.002466901065529381e-01 4.170848716873891138e-01 3.381866439997270879e-01 8.573832035682431574e-01 6.072227088308713716e-01 5.402110024840467428e-01 1.088438232460396948e+00 -1.206098284714163027e+00 1.921062948504591139e+00 -1.647415334423185107e-01 -6.181924883830072215e-01 6.386065577654977954e-01 -1.235781940723064354e+00 2.825645565388913982e-01 -1.544329260843941010e-01 -1.442776214664703627e+00 2.415421820848145940e-01 1.056060481344420543e+00 -9.942078549037630664e-01 -4.555872972198628523e-01 3.934960631432024014e-01 1.032674750628525401e-01 -1.013542272073446604e+00 -2.011498642864104069e-01 4.770316337964234932e-01 3.430448644605734732e-01 3.673835241621001280e-01 -1.272285602097600554e+00 1.958399147647320815e+00 -6.975051039335388170e-01 -8.518556191124027066e-01 -6.344476920688147947e-01 -3.449795783398866833e-01 -3.064323104342583370e-01 7.473639499380413387e-01 1.400073893993105667e+00 2.796734882242522535e-01 -1.796244420044360579e-01 -1.377245688083059694e+00 -3.044111814986017350e+00 1.828335687468246873e-01 7.899849435784471741e-01 2.896499929075184165e-01 -7.126902662807270694e-01 -3.684995810441703545e-01 7.766534251781309628e-01 7.293765838897506848e-01 -4.007438273402798012e-01 4.369737554560917947e-01 -1.068435443264110551e+00 9.096146326190088782e-01 -1.676208862209333850e+00 1.065111293813515658e+00 1.452660780528376661e+00 -2.007889585865845206e-01 -1.576688130893936224e-01 -1.305536144782457830e+00 9.421217384950286711e-01 9.636844345987434501e-02 -1.419440296541648827e+00 -1.814216087053865278e+00 -7.591772752150520720e-01 -5.967620141761005303e-01 3.404432126947407600e-01 1.137849881693148824e+00 -4.402872771719370526e-01 -9.232013899075143248e-01 4.661727389144051936e-01 -2.199752923004337113e+00 -5.102491648357245779e-01 -9.057663841543105443e-01 3.588130686766146660e-01 4.251215837223634719e-01 2.186931911148165819e-01 1.052855966770992024e+00 -1.255784989405422047e+00 1.042163080206228859e-01 -1.393844471897118575e+00 -3.410220050637650657e-01 -1.163656199814513403e+00 1.487966703601449059e-01 -1.386732476865353059e+00 2.734768018435259490e-02 -1.413169777366937385e+00 4.162461752212355814e-01 -1.482173764976343122e+00 4.785245116813087729e-01 5.610400599618551309e-01 -1.843383489024455590e+00 -1.624436050114581365e+00 3.755447865369719862e-01 -4.404492422573261790e-01 -7.454589626587582174e-01 -9.782905191448114657e-01 -2.837027799452160881e-01 -5.725559966968150061e-01 -2.512967288406437461e-01 -1.009063936444005050e+00 9.654815487255692386e-01 -8.218609950072888748e-02 -1.328122970536201874e+00 -4.866860692063210841e-02 -3.772278016992143268e-01 -1.394142860664239647e+00 -1.256122697691162582e+00 5.160865527231304206e-01 -3.025821737005811030e-01 7.248116042940307979e-01 -1.173252529224645263e-01 3.316931671811367277e-01 5.514277322690104288e-01 4.815288859681747802e-01 -1.130539658172281081e+00 -5.875550362456118947e-01 1.163467110983696484e+00 3.898539171449662000e-01 -3.174105466766051209e-01
3.162247616442643294e-01 -8.536809838670746942e-01 1.163234162751076495e+00 -1.469452730064430890e+00 3.093624184832838853e-01 4.308785285242336394e-01 -1.172346460628721942e+00 8.833073285903849658e-01 -8.210676801871231723e-01 9.306809141521547035e-01 -1.531483992084583523e-01 -1.136915853367717943e+00 -1.463339147797654727e+00 -1.966988838788726046e-01 4.945750546585372942e-01 -2.004445849093997867e-01 6.444456073124039674e-01 5.235517022824327515e-01 1.551621392630459839e+00 -5.089032217925062440e-01 2.953268118147231447e-01 3.612622095428324465e-01 -5.461641140731571253e-01 6.593241893434967915e-01 7.411529124280628877e-02 3.766863001638443564e-01 1.107959163920009704e+00 -9.903202386319432948e-01 6.757954837952305782e-01 -5.471393862461300106e-01 2.087022430800784256e-01 -6.948462507845792890e-01 -4.530065084532596820e-01 1.495483526688898612e+00 5.027556661791691139e-01 1.606047797872138361e+00 5.646908447060422498e-01 9.838198550945753684e-01 1.112137935225838037e+00 -1.905634474966938219e-01 -8.265945035379036465e-01 9.895343289334700421e-01 5.241629355172597871e-01 -8.750158075898937238e-01 -1.941130919734316951e+00 -4.976958949376192876e-01 1.806175293489688527e-01 -2.134010724220228195e+00 -1.794044597752913806e+00 4.044870020273332867e-01 -5.144370508754378957e-01 4.516267466279612619e-01 -1.827038101031496498e-01 2.996503912665610669e-01 1.051754997270113900e+00 6.203434410471277971e-01 6.572368552094088878e-01 -2.716966451531629967e-01 1.096608051625455937e+00 -4.256262238044564161e-01 7.142833431758162099e-01 -1.988428974808152061e+00 -4.143090609064697949e-01 2.682217899744984146e-01 -4.087666560532152854e-02 1.187953559035998197e+00 1.464730476687078620e-01 -5.132371278406056003e-01 5.496864340222752388e-01 -5.511456791132089972e-01 8.121134604835644755e-01 -8.853504249497771150e-01 1.258832690572543100e+00 -1.310405287549483822e+00 -1.408608605475047293e+00 -5.074575062927442204e-01 -1.160102589523471783e+00 4.851282912255237001e-01 -2.124562401646407639e-01 -1.078001455294322453e+00 1.263738233892406804e+00 -2.141663470934298097e+00 -4.245016389163421278e-01 5.110068889763104139e-01 -2.283762349960588356e+00 2.930121154747881151e-01 -9.197849256032951670e-01 -8.046255335562363387e-01 -1.513972844711998222e+00 -5.990296314930475541e-01 -1.571188321945163890e-01 8.486647162826829738e-02 -6.494864909906873374e-01 -5.569991458106259286e-01 -5.802087986539317122e-01 8.489511035136956263e-01 -1.432526954459418800e+00 -2.053464700235404727e+00 1.048249112485530210e+00 6.511650886527331483e-02 8.143863843821627091e-01 -1.213272346747889863e+00 3.006407586337997095e+00 6.634799105920454743e-01 2.220060043347397982e-01 -1.347310148406726915e+00 5.452896461154699281e-01 -5.844824064828586518e-01 5.347002044406652388e-01 -1.164504375212776083e-01 -1.452364156046420218e+00 -4.064874315773922553e-01 -7.341892318134929374e-01 1.330849361664193209e+00 1.189688145460884305e+00 8.963935812814971538e-01 -1.191247922420252792e+00 1.110212992247225028e+00 -1.322508310982032143e+00 4.147489070814835421e-01 -1.794861726574023875e+00 7.924431292322583475e-01 4.996753615753545263e-01 8.188157215856993743e-01 1.154345353873848179e+00 7.520140629457096049e-01 -2.991668845516429198e-01 -3.686237791046298451e-01 3.231574349236600585e-01 -8.286926526709399443e-01 -4.019004912197560175e-02 2.115757290348804220e-01 -7.559050845068270297e-01 5.125223692699689693e-01 1.267033470136361660e-02 1.694461359600599959e+00 -6.997073359244341262e-01 2.606141723044039793e-01 -1.248326265611920061e+00 -1.971704787334029318e-01 -5.862045536800720713e-01 3.910903059449041264e-01 -1.821069239767534320e-01 -5.184851486672240606e-01 -1.863144651822131459e-01 -1.222986005406214050e+00 3.944201340387703536e-01 -1.039816589551334047e+00 -1.303420986350806166e+00 -1.638711293532781221e+00 1.206135465385222150e-01 3.133807575746346274e-01 -3.750133732834803890e-01 -1.179591211051186139e+00 1.598542713632663093e+00 -1.007972210390286172e+00 2.204284322857167910e-01 4.407861964743358119e-01 -1.484475445438927510e+00 -8.734025401929497168e-01 1.060314423411837792e+00 -9.923482462013857308e-01 -1.192820961365714583e+00 1.635252103338843688e-01 -1.165425867508973479e+00 -1.429248697973518833e+00 -1.665126585444706431e-01 8.825397205114557386e-02 -1.022971498327397422e+00 7.706840133739019105e-01 -9.187258983721559025e-01 1.412853273043951086e-01 2.217108092567527181e-02 -2.690725851530630930e-01 1.095570009561665836e+00 -1.238015144303049458e-01 2.806552454123357188e-01 -1.562417603419731682e+00 -1.740494907782665690e+00 1.731828761358289004e+00 5.413698421485568790e-01 -6.326572109668364696e-01 7.830643416265022916e-01 -6.105256575033002342e-01 -5.083337812253621024e-01 -5.116796469227842259e-01 -6.816706215758053244e-02 -2.897755721480295144e-01 -5.121171673456237361e-01 -8.318187347897926243e-01 -9.922970015023299117e-01 -9.848730223985329157e-01
