-3.744725391129984371e-01 -1.308942209555757019e+00 -4.516715878351038049e-02 4.196447809426753772e-01
2.064665512800849090e+00 -1.892149143319498350e+00 2.025398454662239445e+00 -2.428156041740421947e-02
-8.605475337518326828e-01 -6.372097810550718666e-01 -4.151603797216028013e-01 -3.400926242867582938e-01
1.001598571061688370e+00 1.153559677005434825e+00 1.005356819231929322e+00 1.347286721972273726e+00
1.208551426072772772e+00 -7.582839162658188137e-01 2.770250020238131938e-01 1.131443792584794661e+00
-5.469633247309129143e-01 5.185389923834911041e-01 1.967007202359578877e-01 9.832514797195072986e-02
1.629845953653552559e-01 6.173741702826307520e-02 2.301452403411046177e-01 -3.514850079702317998e-01
-6.806425863697007639e-02 2.645908314561902230e-01 6.371962413528563240e-02 -3.654054674799426250e-01
-9.058549133609479220e-01 -4.027036764226655796e-01 -1.580070130966584191e-02 -1.837561452011743368e-01
-1.232167952838569835e+00 5.247437174516229597e-01 -1.232503447649987871e+00 -1.989067577850606450e-01
-1.305871195411286712e+00 1.707735509339639579e-01 -4.767400579087083257e-02 -9.862313998193464881e-01
-5.036984178601479067e-01 -7.064330729712769985e-01 -3.132201013399102951e-01 -6.653136373210231103e-01
3.060221710839233222e-01 6.232671394752293814e-01 9.794012330054762128e-01 3.049884544538245534e-01
2.163453503656350974e-01 4.219332565554484438e-01 1.172311425282040354e+00 8.129382807462646188e-01
9.768546951417027557e-01 -1.894433549180783105e+00 -1.262645792931799571e+00 4.188250665693239033e-02
-7.410115800421303300e-02 -5.555682922125804862e-02 -1.229578887007869575e-01 6.461046762116559594e-02
7.267185819755456189e-02 -5.284417128732958879e-01 -2.189519857501796007e+00 6.493127132712213090e-01
-2.671394776162715479e-01 -1.130656633718390092e+00 1.534080249595972745e-03 -8.243054737274900790e-01
2.913772555843571754e-01 2.605015408906001251e-01 1.302810837305039549e-01 -1.168275654789589085e-01
1.155024115513364702e+00 -6.377578713097047380e-01 6.054162872481037017e-01 5.657040074325737633e-01
2.409167787498531499e-01 1.846094056608973411e-01 -8.142346459971889772e-01 1.654657652539538171e-01
-6.585881700989857368e-01 5.472038092022329936e-01 -1.467212798001106891e-02 -1.920932541958112194e-01
2.213330803342094533e-01 -2.848976149746560993e-01 -1.167985269630911649e+00 9.401513492274841122e-01
4.420107875027035615e-01 2.109165618805431963e-01 2.123618359976613135e-01 -6.160187140609962864e-01
1.254416460447725035e+00 -9.394476794804422493e-02 4.551462910249086113e-01 -4.184038558485569936e-01
-8.387813677723094941e-01 2.035015797277330285e-01 7.868585209674648639e-02 -5.088641985274280355e-01
1.332699656679433797e+00 9.694933493668891553e-03 1.676302679559158681e+00 -5.806571764074907049e-01
-1.667167328109724900e-01 -1.232348115786247866e-01 -1.066483929359430816e+00 -7.098268727407269774e-01
-5.189883536677699638e-01 -2.914050123078872900e-01 -4.569835848785268606e-01 -4.055551782251530235e-01
9.461311085534966914e-01 5.621624741325805807e-01 9.042909047853960880e-01 5.465251767776113656e-01
-3.055798557032067264e-01 1.026736011334723919e+00 -3.939459087714143322e-04 4.340979959155205625e-01
6.345473614017921316e-02 -5.707763550240240180e-01 -5.618749766817181940e-02 -1.670073287004527340e-01
5.415188615038649123e-02 -2.682678516194915153e-01 -7.719952229947911748e-01 -1.780739906985426835e-01
-2.899268914653452267e-01 -8.038374630409972355e-01 -6.072542379593922623e-01 -6.003212466148130089e-01
4.063758453694190087e-01 -1.695590534497702639e-01 -3.167893545882602413e-01 -1.517532970519020266e-02
-1.721352089665727947e+00 3.321705836673854995e-01 6.224574251486690857e-01 1.070137192998678266e+00
6.714009621054465304e-01 4.136235770168385506e-01 7.719978442835617738e-02 3.124534656638353614e-01
-3.358218569031790612e-01 -1.322424162542276682e-01 -3.300596833316847278e-01 -2.122618122018624098e-01
-1.136667964463342173e+00 -7.384432840420401822e-01 -6.613961488948173484e-01 -1.109296687093376477e+00
1.366839854286220790e+00 4.712091523143405181e-01 -4.326619971191501546e-01 5.067484397692674225e-01
-1.036127512814644547e+00 -7.015715727185333206e-01 -6.763707048619812534e-01 -6.921993059964303141e-01
-1.197838034593698281e-01 -4.029927207282465451e-01 -2.642898121271051171e-01 -1.095342180806161275e-01
-2.620587900531530789e-01 -1.475669221889357730e-01 -7.546216012530332362e-01 -3.337572365162750909e-01
-1.037876653237761237e+00 4.405838905456069265e-01 7.006385292637277162e-01 3.259365692117053293e-01
-1.083103811674988523e-02 -4.025008316881216741e-01 1.370927387917858231e-01 2.715867697001478343e-02
-2.710921078277997998e-01 -5.342489028647310345e-01 1.825882076480588978e+00 -1.350312541143917855e+00
-1.410856014793608448e+00 -1.067650287400431219e+00 -1.094764219423804530e+00 -1.315066190738041874e+00
1.621663644280338379e-01 1.015856038208959866e+00 -1.615370478768801688e-01 -1.378804133706397650e+00
-1.308165932377033824e+00 -2.253749940485440639e+00 1.659615697093718811e+00 1.188101844413408603e+00
1.230896050718897072e+00 1.335468272851586979e+00 1.176222656400199185e+00 4.247904932256738042e-01
-4.724769413963370024e-01 -8.004606787933249076e-03 1.061580174484765493e+00 6.193941721298309444e-01
-7.500173993382682758e-01 -9.030276268060627443e-02 5.875844299851220587e-01 -4.801555705497834725e-01
2.545297808589480626e-01 -1.961039150776794915e-01 -6.315742418402624514e-01 2.690797686517256149e-01
-1.290180326819496903e+00 -4.606265201814578880e-01 -8.107267112260481134e-01 -6.992381510628304930e-01
1.235232150989696853e+00 -1.652547481372015070e-01 2.403260279499093988e-01 -2.988648613441892143e-01
-4.860919693095802629e-02 -1.852022281411674215e-02 -1.077885066250700713e-01 8.633230955856905364e-01
4.305592745876755112e-01 2.888894837127802817e-01 -8.223065604221384273e-02 2.227944660380988817e-01
-2.950958168419494672e-05 5.024386684350964360e-01 -1.517244651183022652e+00 -7.519110417990240158e-01
6.600383927400953477e-01 -1.482208486171726625e+00 1.187371719896749833e-01 4.776905141500663587e-01
4.843257812618671498e-01 -7.496566137041875688e-01 -4.142876663800537651e-02 -1.476829445694497478e-01
-8.641324191342317773e-01 4.271824180488141831e-01 -5.703139802152902282e-01 -1.037879958208918207e-01
-1.070135983636295363e+00 -4.018563894960856461e-03 4.783274430851808812e-01 -3.373094211597988945e-01
-9.023538510271807978e-01 -2.739955123921112290e-01 -9.748519726785116468e-01 -3.370774589556811973e-01
-5.858578436980979021e-01 -3.826547627060641887e-01 -7.756581164101089554e-01 -5.268314911382508958e-01
1.020893612555225038e+00 1.377993777285459576e+00 1.362340448184416353e+00 4.290215061810613295e-01
-1.508155857342421136e-01 -2.338912402824562808e-01 3.211808829191819398e-02 1.340899198328768804e-01
-8.326730979667728086e-03 -8.292119307255098326e-02 -5.169467457158376522e-01 3.498188621435837087e-01
1.098921692210347079e+00 1.303658965744080467e+00 4.545480961595042557e-01 1.247237949881351143e-01
-8.112418774661510623e-01 -8.370677114333673341e-01 -1.236007061607876656e+00 4.106695215109210095e-01
-1.749166748025680063e-01 2.216016485924504342e-01 3.422411522839589049e-01 2.615836077833181839e-01
-7.178608813636214725e-01 -3.130285207327307972e-01 -1.295167405035425601e+00 -4.427604902523223362e-01
-3.722851817489871706e-01 -1.901176531042629292e-01 8.996860936798906083e-02 -4.990047443451150339e-02
-7.483341522836736148e-01 6.302726845550933321e-01 7.123809633875656244e-01 5.929385699932244735e-01
1.021766033814165420e+00 -5.211265814243015715e-01 -3.052403788553421093e-01 1.109895121104439303e-01
2.049326019209009309e-01 1.314897736257369942e+00 -3.200897106613029841e-01 -4.056919776438237535e-01
5.517782967786255544e-01 -1.161240032842902198e-01 1.559278102496778340e-01 -1.317118205745257398e-02
2.342156488764868261e-01 1.264436487832975575e-01 6.673061848760332149e-01 6.352634306793302210e-01
5.470230217621007140e-01 1.429576738516094569e-01 3.222203370516748544e-01 2.245062592950243519e-01
-1.472791780870266631e+00 -7.453669932620707872e-01 2.003932122524636483e-01 -7.704797042513373828e-01
-2.033375465654117809e-01 -2.547407356838437553e-01 2.232833448395056264e-01 -4.722198346391555390e-02
1.336177450845123404e+00 -4.213362134849999996e-01 2.012118586222160221e+00 -8.621767129373134608e-01
-4.175566895176633375e-01 -6.408744554957098716e-01 5.969209493910700992e-01 -4.801866990090468135e-01
-5.634187289327291515e-01 9.896868616051301970e-01 1.807393399179052507e+00 1.691285725752019520e+00
4.073200206764341913e-01 5.926870437920692680e-01 -9.277836594813877458e-01 6.499428363070076653e-01
-1.108663101825510200e+00 -1.934845830423370661e-01 4.907384499750941376e-01 9.422820295698269843e-01
2.934929604705512896e-01 6.710503739615804042e-01 1.128708664824401436e-01 -8.129603938866682145e-02
1.595009404973168010e+00 1.164374826040041944e+00 -1.624021378582570507e-01 1.617592670089181006e-01
-7.729521612571790268e-01 -1.090664626965979073e-01 -6.702972076640085763e-01 6.205395271025490045e-01
-2.326653419117740984e-01 8.572665522976977703e-01 8.259328489217039326e-01 2.765671210783390288e-01
8.107202690603962369e-02 8.049658542566326958e-01 -1.920276432461990312e+00 -3.788847536597848009e-01
3.355550179133908739e-01 7.349697002325989992e-01 7.708365896819039387e-01 4.918782170277499755e-01
-4.322673609036349895e-01 4.282085688490067654e-01 1.302988535752410415e-01 -2.137055942801959207e-01
2.568947398416133177e-01 2.744872369974474258e-01 4.900336235695074497e-03 2.060633004715842487e-01
1.732532758803211559e+00 1.780507465021978319e+00 2.493976092837195679e+00 1.799328579448428167e-01
3.185715735592098419e-01 9.056184680401662135e-01 1.172387110110188146e+00 1.926709986621847781e+00
-2.079495721930834651e-01 -3.499025463827165061e-01 -2.985894828413679369e-01 -3.531091251230136230e-01
5.968012183259786552e-01 -5.701314689420150517e-01 1.658502638105182392e+00 4.960930131365158258e-01
-1.885281785720688830e-01 -8.866953634459977529e-01 -1.198720623159923226e+00 1.155029374687640775e+00
6.159783209067298121e-02 -6.586174826898956169e-01 -1.530049990174036367e-01 3.278463892494892229e-01
-5.709158613851803565e-01 -8.957667083290584698e-01 -2.832019412839732464e-01 -2.226181597303734591e-02
5.199304860171261033e-01 8.223891885782573796e-01 -1.771236956854739530e-01 8.229253600883990050e-01
-6.451256169803289975e-01 7.895801206787290971e-02 2.745099615741662946e-01 -9.852274045419057158e-01
-5.371341166550570589e-01 -1.437483422922916532e+00 -4.256408436015439722e-01 1.354413022203829475e-01
-4.760453385196293241e-01 -3.224406831334066803e-01 8.230307783890626616e-02 1.373791924771227899e-02
1.831508144031384955e+00 8.007660641825171677e-01 9.253573623351609712e-01 1.493807265985482413e+00
-4.317652858353686063e-01 8.439825435747644322e-01 7.626147116875181542e-01 -1.095666551519110410e+00
4.953767611538516524e-01 9.824490012433599873e-01 9.339863492235180864e-01 9.670744712914578489e-01
3.442078384291487603e-01 4.495522676690869718e-02 3.662686923955944113e-02 -1.957744782103518766e-01
-2.621498104373835014e-01 -1.888189466617548884e-01 -3.321215607609781517e-01 -1.712746131232269764e-01
-3.654162541585497803e-01 -3.429527937115865455e-01 2.670609203799406139e-01 -5.748391956197707736e-02
7.631714109318504802e-02 2.394719611270330617e-01 3.552341839345762309e-01 7.600674063530500346e-01
-3.862327420780499732e-01 2.532083309347354927e-01 -1.844270754693495828e-01 3.618618485198887291e-01
-6.839000446360401497e-01 -6.738594181262375082e-01 -6.971476558349657404e-01 1.578356175850741464e-02
5.392875341128974265e-01 4.622857574194080832e-01 -6.936970192525729328e-02 9.556485611245789658e-01
5.944846032527035806e-01 8.773510945186085985e-02 -6.886567783127460762e-01 -3.821043171020703788e-01
-2.204104791403383445e-01 -1.448359331909805092e-01 1.234922385722602156e-01 2.955274405025598017e-01
-2.209711607209885187e-01 -7.786208738089570591e-01 -8.832313445866079027e-01 4.600294426089120425e-01
-5.689672577983915236e-01 1.015561938173826784e+00 -8.599788044128938713e-01 -1.418193471258400340e+00
9.006119830167141904e-01 4.255223080743350539e-01 -1.429589355075107093e-01 -2.338388019920674132e-01
-3.140190234602400765e-01 4.134364600972201265e-01 -1.067354811643160713e-02 -1.214209801256896482e+00
-6.004932010462653569e-01 1.047168025370755207e-01 -1.415378417616145468e+00 -2.240847127693884389e+00
-1.247074175354137893e+00 -3.659684969367019702e-01 -4.386318757705598426e-01 -1.478486787980217709e+00
-8.095691421564257806e-02 -2.092637602269972474e-01 1.526158453453739516e-01 1.188151470240953744e-01
1.086030777267030123e+00 1.679594083873742205e+00 1.515994142460626470e+00 1.637043613762871219e+00
-2.264998839359671362e-02 -1.298570589843484335e-01 -2.185065931368567471e-01 1.840426379039582783e-01
-2.563684222617340080e-01 3.531096528059570194e-01 3.511531286984475031e-01 9.193344100303554312e-01
-1.178036880450705093e+00 -7.840983487625966530e-01 4.280408710658575172e-02 2.393398040467393795e-01
3.449915000212976368e-01 -1.735171981343898049e-03 -5.996226705400040657e-01 -1.920345886338488794e+00
-7.571430835651185021e-01 -1.282604654318943160e-02 -3.726467140085085172e-01 -1.305393178085814565e+00
-3.280824434455765215e-01 4.483898714313701572e-01 -1.899940152645611002e+00 5.482998935577535482e-01
7.344914728398942438e-01 6.611272976672697421e-01 8.103353600225172704e-01 7.017912878017110723e-01
-1.124458360732436768e+00 1.444886289466606355e+00 1.708205741735634720e-01 -4.228640649356906756e-01
-5.129135993080331801e-02 6.788120371704709465e-03 -4.808993853934274143e-01 -2.519195101299107176e+00
1.014114176141246215e+00 8.375627865610770773e-01 -2.264894751879012111e-03 9.791562475832000789e-01
1.702361665741099483e-01 2.789218740744990876e-01 -1.753113236968491251e-01 -1.819706284112561745e+00
-1.798095247844465616e-01 2.565166990577916750e-01 -4.862304170693300120e-01 1.104749618112911946e+00
7.012762436036569236e-01 1.074413481495475997e+00 2.724360919291957117e-01 -7.703304332188001258e-01
1.145254865986093801e-01 2.050624113600708343e-01 -6.291648897817687658e-01 2.715238290504363161e-01
8.633366827651069997e-01 -9.003512237481745006e-02 7.233048036363904920e-01 -1.139052312909240472e+00
7.293681292387266257e-02 6.112144085066396615e-01 -2.574486760065319846e-02 9.083594528029315107e-01
1.556126843981757157e-01 -3.840593052802206420e-01 1.296659709954348094e-01 8.334170331101521390e-01
1.296299713887075211e-01 4.436350695870412975e-01 9.776573497569839011e-02 -3.521299478979129094e-01
5.320381563754045251e-01 6.160024757152909869e-01 7.814698143615649295e-01 3.433892906621996421e-02
-6.382741138954058924e-01 6.629484875381115305e-01 -2.671029653320468322e-02 1.717548095607631872e-02
3.357887860486779563e-01 -1.100478488759455642e+00 -9.662921424384283142e-01 1.332646021021928640e+00
2.348491390647353239e+00 6.174154126760649126e-03 -1.336693799587522324e+00 -1.907978640782745261e+00
7.969961203268882688e-01 8.460688380145496845e-01 8.059782888638326037e-01 9.573987209896221984e-01
2.556266492098800747e+00 2.234712057057185675e+00 1.771873414998204055e+00 -6.149566774423873561e-01
9.199482504268906569e-01 5.960982847800535556e-01 1.178408658064415748e+00 -5.028581725088985266e-01
2.460281990191180435e-01 2.385174516531247679e-01 -1.364121105762515773e-01 -1.439030880167699589e-01
3.366034562740843339e-01 4.592723057575148204e-01 -1.644655507824443808e+00 1.238090290364895152e+00
-7.592456667338185472e-01 1.234628596047631227e-01 9.433642537442068488e-01 6.682207297802291723e-01
-2.034015940569266601e+00 -1.353162606798115064e+00 1.516733148254143071e+00 -2.751268768829608358e-01
2.849255657060410091e-02 -2.341814507362103281e-01 3.685086364877521170e-01 -8.666888294431766004e-01
6.696461199464462388e-02 -1.138862476771771659e+00 -7.517180204431105350e-01 -7.856066463548297962e-01
-9.844772851941663294e-01 -1.478183765018682649e+00 7.930114228999438630e-01 -6.978028562956644087e-01
-9.764013247294854869e-01 -9.989870510049565500e-01 7.009723450274926160e-01 8.227174045877784225e-01
7.896632579317293121e-01 1.295073430480660370e+00 -1.034382778938765846e+00 -4.966239171017678977e-01
3.508568556010845940e-01 -1.350151921364425855e-01 -2.237763610418577465e-01 -1.492556508742695964e+00
1.320825273259912613e+00 1.552429283710851315e+00 -8.382912686734147467e-01 1.973071268322734995e-01
5.051029427636788416e-01 1.626151972637875087e-01 1.549062422796235516e+00 3.274317181579958214e-01
-1.080347828703329904e+00 1.284925092621490350e+00 -1.982093422568072805e-01 8.682157795468676831e-01
-3.754096706079667611e-01 5.153294775017876889e-02 -2.493539463191146166e-01 -7.163755667150786266e-01
-9.567523217879815300e-01 7.098270774563811836e-01 -1.912612265202741302e+00 1.461698812640448986e-01
1.375640789449599777e-01 -1.231218076818136442e+00 -4.823674767094499050e-01 6.027805417211936634e-01
1.001194467759788514e-01 -8.794177831864348205e-01 -3.699143087608746522e-02 1.061209518649229855e-01
9.918471941632974742e-01 7.388880321287740749e-01 1.019340771253110400e+00 -7.374211840917938021e-01
8.660092563784036468e-01 8.226975281833093234e-01 1.850512730116725679e-01 -1.801860499493706858e+00
7.725459701789796352e-01 6.433692067343008691e-01 4.070706640313883073e-01 -3.252183959191977669e-01
1.100345428140909049e-01 -4.457825552583587481e-01 -2.238115513978223559e-01 -6.907585772526690926e-01
-1.105528708234413626e+00 -7.299226491182116972e-01 2.358133230992663087e-01 -8.856891386581602355e-01
-8.713598535317435001e-02 8.242766711530608026e-01 -4.052094427924785719e-02 1.429220216840960400e-01
-4.176688338001065537e-01 -6.123750255821539534e-01 -3.752788341160518404e-01 -1.011015329526351592e-01
-2.133066553388411613e-01 -5.266846022969200458e-01 -1.256669988921009784e-01 -5.033429211241624568e-01
1.016165427172743829e+00 -1.697743999884362628e-03 1.815392218951832115e+00 6.039642565983392997e-01
-9.857424964092058317e-02 -1.169896975325326549e+00 -5.947527968222137140e-01 -5.939070102748157387e-01
-8.716977200651531144e-01 9.597447121975185569e-01 3.051159246843301864e-01 -1.055757268725628917e+00
1.449992962408202191e+00 -5.781065595477105079e-01 -5.131240869080604394e-01 1.627382434664649269e+00
-1.141880173333046367e+00 -1.089214630749327783e-01 2.631316014300184136e+00 -9.227170498771911644e-01
-1.166343211014302800e-01 2.737205966579259186e-01 3.384369123244537064e-02 1.029955224863520202e+00
-1.078895064830527467e-01 2.397283776787657583e-01 -1.114697290714151245e+00 -4.739969338523380427e-01
4.023845027481369185e-01 3.580465239172427316e-01 4.405516927858518783e-01 3.137452183183672694e-01
-9.716181569957815789e-01 6.279660907624448063e-01 -1.043732859473702534e+00 -7.010690563206170012e-01
-1.009149090397116311e+00 -5.504956827507409001e-01 1.866116135986147298e-02 -4.901633506456887779e-01
1.439878380820887482e+00 2.796137504047961908e+00 -2.064311189683838865e+00 -1.916476055738606910e+00
2.257531618993803835e-01 -8.176155098451528547e-01 2.737787731822923232e-01 -2.033803759688898039e-01
3.531672731409403188e-01 -1.175020516358141087e+00 5.697277746291613543e-01 6.131904852260220418e-01
1.173397428960267774e+00 8.032697012473359877e-01 9.932175957746330885e-01 4.676918007544147993e-01
1.234989842295105555e-01 -7.532019243050663837e-01 7.765366693522038899e-01 -1.536420889179564542e+00
-2.199862865847879156e-02 3.393070823485457715e-02 4.433965109509481195e-01 2.560610205110441240e-01
-9.125160142863724122e-01 -5.387294032989776993e-02 -1.446449532490535983e+00 3.092039499511129996e-01
-1.379710024758102005e+00 -1.515409712185318725e+00 -2.151762645499712481e-02 2.623352502589156865e-01
