1.329253583415911377e+00 -5.756849967461896700e-01 1.433577277703497188e+00 -7.223282825089287762e-01 -1.707496315804870324e-01 -6.520704373930666931e-01 -2.242011459957604473e-03 -6.840678389863515951e-01 -1.006414774272063273e+00 1.095478768074876763e+00 7.226196799696248396e-01 2.695771402241381454e-01 -1.715672494325342523e+00 -1.095632912757652955e+00 3.605133217929075151e-01 -6.455351234503453606e-01 1.313133358451009092e-01 -2.631896497533918189e-01 7.475496646347400409e-01 -4.882592410532934357e-01 -6.756130941553624147e-01 1.263105010546679563e-01 -8.060427440970556467e-02 -9.837595418930877855e-01 1.055558835216726665e+00 -2.996149087665120336e-01 -1.004231045648782850e+00 -3.748139411240977159e-01 -6.169823864606434338e-02 3.348805585010234065e+00 1.259347457517477009e+00 8.389678571576093535e-01 3.963331430388160326e-02 3.000487566971855369e+00 -3.583798469010472387e-01 4.102522796479794454e-01 -1.285071647697861419e+00 -1.057512017546251432e-01 -3.383872661948130189e-01 -1.331402412138624758e+00 2.057695310700711488e-01 -2.599590710572166619e-01 9.447131158043559074e-01 8.224956977750648435e-02 -7.388753394766331972e-01 -6.305916357865258837e-01 2.146094087604764056e+00 -8.555418193412432926e-01 7.122906506277555394e-01 -1.492282249410219752e-01 -5.572140686209922089e-01 -3.414283272945192738e-01 1.358074254576728146e+00 1.073524189730323375e+00 -1.338247299743576368e+00 7.591702198284370207e-01 6.040625966229500321e-01 2.299001413749867384e-01 -2.018523366369017413e+00 -3.369745057075362316e-01 4.501166479823065503e-01 -1.378167874408725124e+00 1.226894290400318610e+00 6.942667645206339333e-02 1.263312616617416895e+00 -6.837752319566024750e-02 -5.205296169468212053e-01 -1.274777665764172063e+00 -6.598698901795155836e-01 -7.632611480790137959e-01 5.036578007833929921e-02 3.311793600487872857e-01 5.265018402439732847e-01 -8.025105084315274917e-01 4.063052980358740074e-01 -3.130379873152139975e-02 -6.405814402032681265e-01 1.733098034784543939e+00 -1.698025148398183415e-01 -1.191946441893555919e+00 7.328408983887062522e-01 -1.128165632094943804e+00 -1.889758899076539045e+00 -1.648683566845220438e-01 -7.226499563037409590e-01 5.004684839182149680e-01 6.421333202935827211e-01 2.163434464968871929e+00 2.823661119987217472e-01 -5.944654721214848170e-01 3.106123272344078409e-02 1.906363332913041664e-01 7.371070439950961894e-01 1.181448064449155400e+00 4.670482154865890356e-01 -6.086367387731447254e-01 7.658120838920779994e-01 -5.667374901647463659e-02 -1.159414486730842020e+00 -3.432981256899430011e-01 1.476677321361032247e+00 -4.332024964963865354e-01 -9.647682725210299237e-01 -6.243001797243927786e-01 -1.796155296630935483e-01 5.984298595560419987e-01 1.059982708884571023e+00 1.323278802897762119e-01 -8.064990873767141633e-01 -1.115862335022406393e+00 -1.786967610696198250e+00 -1.997986359880638885e+00 -2.358078698753604541e-01 6.569005217149210818e-01 -1.791494805001517532e-01 -6.835232784330991240e-01 1.097557940154803457e+00 -3.957263439623600609e-01 7.020354291713321038e-01 1.243617525398239554e+00 -1.859519816863652641e+00 -8.243135504478885656e-01 1.449775160761080928e-01 1.746042864211340584e+00 -1.010785309977769941e+00 5.222441803006336869e-01 -1.243736754352704754e-01 3.096854498743928374e-02 -2.442685708597131189e+00 -2.028917297079269932e+00 1.012502054005656849e+00 -1.558936449058442975e+00 7.927984686256063229e-01 -1.172451740396248665e+00 1.703673342962188864e+00 -1.257645395358327756e+00 8.534646614732555037e-01 2.454074466491067141e-01 -1.373714757555619947e-01 6.438270114605788852e-02 -1.968773484563692833e+00 -3.155722644613876970e-01 -1.440726410371441890e+00 5.925669739240149170e-01 1.341406898693495497e+00 -1.287845039302797367e+00 -4.569012278115132109e-01 -3.103910148799307045e-01 -1.069923387251306313e+00 6.933747731533257408e-01 -1.998320572139503870e+00 -5.314877022606905033e-02 -1.216689526812834377e+00 3.948480662212715542e-01 3.322537755596708386e-01 4.783315330204362392e-01 -1.219893288102352757e+00 3.082088497024671470e-01 -3.035374879778650614e-01 1.865090696787820912e+00 3.392599824904025119e-01 1.185454010925018231e+00 1.645369354988165611e+00 -1.103138697870727380e+00 -1.478032406651586195e+00 -2.909727054721900075e-01 -1.740630001739200905e+00 -1.011515941524883111e+00 -5.402687362038638419e-01 9.960514138320413213e-01 -2.497677820176671393e-01 1.873293170260719176e+00 -4.648391375879200038e-01 6.147753177041888062e-01 -1.051247953545868086e+00 -3.694451225338519773e-01 5.881757513140419835e-01 2.175077654779024261e+00 2.066889005132803714e+00 2.028495053651242219e-01 1.493543887961059635e+00 8.231906746723925694e-02 6.761197510050439563e-01 -5.761529902432735994e-01 -1.229148550832218412e+00 1.374459029081574801e+00 -1.706757336538855530e+00 8.633563191991722174e-02 -8.891796884587109817e-01 -2.557183119078154099e-01 2.837551580767926351e-01 -7.989834246468908718e-01
1.057214433129559428e+00 7.141141015722958230e-01 -1.338530159356428939e+00 -7.797775491713756502e-01 2.303970209209364572e+00 -4.104680002228947577e-01 -6.254800155625781510e-01 4.840727017578367319e-01 1.435631999642790479e-01 -3.457212672186986135e-01 5.024981831584748870e-02 3.677509098298038515e-01 -8.999751371306911052e-01 4.809462834475136117e-01 -2.685202717659036509e-01 -1.707131873538970945e-01 8.229825907453274247e-01 -4.592566358073027488e-01 3.413713925956330941e-01 -1.590870322925404645e+00 1.373228396525361772e+00 5.609270437770926820e-01 1.759245147317069602e+00 -1.295780565974829157e+00 8.355571623427088257e-02 2.347065809377386902e-01 -1.782360218971356547e+00 1.389351861981090952e+00 9.235903224766379704e-01 -1.116906683429811808e+00 5.671892700937376519e-01 2.200220749747001103e-01 4.825757032529851553e-01 2.168613818862192011e-01 -9.210790266657006287e-01 9.388960974496042555e-02 2.000285465690776032e+00 4.770122525346101039e-01 1.729485822365572245e+00 -1.136681585067515599e+00 -1.193826003947209058e+00 3.656430857626982722e-01 -3.818307758555672948e-01 -4.203426338557550435e-02 -5.801651094785534868e-01 1.789483889070918154e+00 1.891888760069184716e+00 5.612445472296124782e-01 1.864021260929779877e-01 -2.360253336412192204e-02 1.043193704002392218e-02 5.240577301262334675e-01 7.632338789034169846e-01 -8.331149707912798297e-01 -3.304982272667870813e+00 8.967184480914780487e-01 -3.525850758512918265e-02 -1.994827261428891774e+00 -4.600279328577513982e-01 -3.369244213510016323e-02 -4.476403374771283916e-01 7.168742775565767333e-01 -5.613796101363364155e-01 -1.775515176295557052e-01 -3.181416142042080564e-01 -2.896434601303500056e+00 2.688706321856878523e-01 -3.583614907858844734e-01 2.227076519185681724e-01 -3.122339800210531813e-01 1.960026931079183465e-01 1.079487607847431363e+00 -7.131078801494723507e-01 -6.304847212233305465e-01 -2.597395626855140693e-01 -1.982313885804138698e+00 -1.175766565615105064e+00 -4.985445740012080518e-01 4.485237449895277395e-01 -2.806779251027366473e-01 -8.654385851743089386e-01 -2.984913087656151931e-01 6.409096368988673742e-01 -1.499085046405250310e+00 7.932904501617390469e-01 -8.697159634880392565e-01 6.693443696217459271e-01 -1.168294397761750369e+00 -1.044561063143506274e+00 -5.732935623801221903e-01 -5.165849219823077237e-02 -1.439075236968580425e-02 -5.822954536888597099e-01 -1.433627407665058806e+00 -2.575120059396979189e-01 -2.575856888437594305e-01 -4.452179618565371005e-02 -7.388810443408398709e-02 1.090471486493106851e-01 1.040667106700311928e+00 -8.703350649611536483e-01 3.773217458454724005e-01 1.209371327274704894e-01 -5.305794329493242201e-02 -1.168089253415677681e-01 3.503554237642675928e-01 -1.204610085140444875e+00 -3.498687370730892976e-01 7.683576120671053999e-02 -1.453421259019018086e+00 1.125337273003174376e-01 -1.993971095471200883e-01 1.111652210967358334e+00 -1.508546982665347203e-01 6.529885865666665290e-02 1.100207614121631927e+00 6.545389023434312614e-01 -8.194447251564502821e-01 7.565708890537001796e-01 6.569188989895595743e-01 2.634107234758451543e-01 -3.547417866532194819e-01 1.667261912203812813e+00 -1.330135577776389855e-01 -1.136211734257827510e+00 -3.331668287037857223e-01 3.808270701447959497e-03 -6.780324169182044836e-02 2.979791979114528311e-01 -2.991626351393772421e-01 1.139722842275239928e-01 5.331091756435984985e-01 -4.281863699723227334e-01 -2.121040511653113025e+00 -1.803562523324255679e-02 -1.451779567407705807e-01 -1.311806425805829068e+00 2.232698152233009381e+00 6.337113756723123936e-01 2.951469777952523965e-01 2.102700486178095129e+00 -3.075841188157579786e-01 -1.070847074215927508e+00 -5.631262037716644464e-01 7.997495286550029281e-01 3.798505160945658155e+00 5.231596804302969250e-01 1.985626229847014423e+00 5.954767422204116922e-01 -1.280094932048765788e+00 -1.806232200761271223e+00 -1.176137218197639694e-01 1.330804195761800812e-01 -7.735854064678534536e-01 -2.537318302694576144e-01 6.853121418241123752e-01 -7.175014104564415574e-01 1.459771784151889795e+00 5.769671000279078532e-01 -4.893907605418293949e-01 8.726198415306393175e-01 -9.640156495990742647e-01 -1.478659959536662072e+00 8.156277935880837937e-01 -1.328377485936610147e-01 1.017449383992606204e+00 2.769335635815649566e-01 1.234324516518934045e+00 -6.018091046776999908e-01 1.439288062168032178e+00 -1.742781399559829858e-01 1.548893075607901126e+00 -3.350828731293493123e-01 4.516225495242108534e-02 1.360951442937970324e+00 6.051640648258619359e-01 -3.614726600390686384e-01 -1.007184249197208836e-01 7.207466407002421915e-01 2.479219368787686228e+00 -1.339960602282349367e+00 1.582738014158878784e-02 -1.122987844998616591e+00 1.422466423006751635e+00 4.148018184046506351e-02 -3.329261540246323259e-01 1.462043980168327151e+00 6.390481920309798447e-01 8.488797138370238193e-03 -4.365079806421302555e-01 -3.988339621106609667e-01 8.314113988375806397e-01
-8.927392777498047161e-02 -1.113151628240405255e+00 -1.801387406518935863e-01 -1.136425188421772869e+00 -8.402545503191852783e-01 -3.893619949305418548e-01 2.336589519725299713e+00 -7.349334251739744195e-01 -7.244927532318866659e-01 2.058870822373135290e-01 5.480909426677998963e-01 4.257657669064783268e-01 1.962450906999277711e+00 4.619181331628807174e-01 4.421625568513534721e-01 -1.767086651002341524e+00 3.628160184713334901e-01 -2.051880502650205162e+00 -3.823189947024945301e-01 -1.024185159880247609e+00 8.382407721608450268e-01 -7.726734481378931818e-01 2.018348421943120918e+00 -4.606914851561373925e-01 1.062526118478032355e+00 -1.232666319885030726e+00 1.669431579187942161e+00 5.519188661798389850e-01 5.095397654658907483e-01 3.099067065670182974e-01 -1.520726213922286130e+00 2.223250889289729582e+00 -6.833958633304649810e-01 -1.628486013590575654e+00 -1.205070256677440055e+00 2.037255843362513908e-03 -4.656202232739879432e-01 2.249833243919228565e+00 4.418646731150214224e-01 1.352809784003102145e+00 -1.511670763822010155e+00 -2.094794166560245141e-01 3.691042937201877705e-01 -2.886467416773304873e+00 8.636257134304841099e-01 2.071132227852432173e-01 -5.861842333678368711e-01 1.134436998708473754e-01 1.106054042834208939e+00 6.367983058696633503e-01 7.901722764838579049e-01 -9.988170497038505458e-01 5.585442044156285757e-01 9.067831758575597423e-01 1.049103204231259800e-01 -1.560294101472414763e-01 -5.687626532875013075e-01 7.625480999204669041e-01 1.833486471111426541e-01 1.601529078197529321e+00 1.497932953008153656e-01 1.281034458080123839e+00 -2.141904648584509463e+00 -7.774200952631030725e-01 -9.682440294029787120e-01 -4.967157412791434745e-01 1.143868039286770166e+00 2.336484394603797199e+00 6.450291348303999195e-01 -9.931804703234053955e-01 -1.804665343696964241e-01 -2.299760628874300827e-01 -2.244324184751731899e+00 -4.057878907080857411e-01 2.127350482606793214e-01 -6.769449205924685797e-01 6.696906246104722404e-01 1.526900148176569161e+00 -2.658226270614648667e-01 1.018567626469909060e+00 -1.988087355869086581e+00 -3.841572210128110232e-01 9.847021613958811814e-02 -5.045986889026560229e-01 -2.325436296788121915e+00 8.460017114493046941e-01 2.815895027822573615e-01 8.878597125752923924e-01 -2.584400876620819298e-01 6.815499093690648991e-01 5.149112155348525288e-01 9.337260681136662077e-01 -1.713514659096569526e+00 2.576720744878560510e+00 6.710540091790204720e-01 -2.268993855980402374e-01 -1.572323624810092468e-01 1.453512767306111453e+00 6.304222387471181133e-01 3.783165939719221327e-01 -5.266061707078454335e-01 -1.529773062104821113e+00 1.199089468110646983e+00 -5.497681033159063785e-02 1.115157560724868047e+00 -7.963869044218011561e-01 7.623149882547451961e-01 5.258273367334456196e-03 2.764344803962926367e+00 8.985232008156236738e-02 -1.116802874508671772e+00 -2.707649627712869211e-01 -3.918949917147206974e-01 -2.449351721764988776e-01 4.930540277987691677e-01 -1.420193906059595834e+00 4.022268075272670274e-01 1.453437982336528433e-01 -9.254825644645968685e-01 -2.419931945124972117e+00 2.175603219941624644e+00 -2.044757051777962575e-01 -1.226979137369395456e+00 -2.315730877433066770e-01 1.076684397601897908e-02 1.619949110764818401e-01 -6.679690423482934625e-01 -1.381966535071978530e+00 7.878325098958106620e-01 1.513701493830875711e+00 -1.348323715673686474e+00 -2.155878193607992710e+00 -5.037353153147995366e-01 8.274052865841529103e-01 1.936253432603051716e-01 -9.002369072819291773e-01 -4.408614254038654146e-01 -5.666284932962963872e-01 6.386461877261710718e-02 -7.632944507491432606e-01 -1.248853755797023068e-01 1.579553338425533582e+00 -2.113401237423703449e+00 -6.438453577213544277e-01 1.138766396971432115e+00 -1.887420679919520894e-01 -1.873984615336230730e+00 1.065332988006887804e+00 -4.409572688076244251e-01 -1.426845190071949432e+00 4.178810054241484107e-01 2.003428813173076861e+00 -2.219604941842278745e+00 1.255727976017559921e+00 -7.178508191853890663e-01 -7.173485068020020172e-01 1.121556185199638955e+00 -2.547649625687338215e+00 -1.749293279889551911e-01 1.057864122802436802e+00 1.282932746183305328e+00 -1.571206867544015784e-01 -8.491407980278053991e-01 4.713631585823200298e-01 9.529289178655248049e-02 1.818263300330328125e+00 2.075014227972362957e-01 -4.757839361539257794e-01 -1.615242646436853002e+00 -4.940446997070032653e-01 -4.998023940605841875e-01 -5.641752801229817926e-01 -1.566502389981328403e+00 -4.900234020205160301e-01 1.049942814282285974e+00 6.329278474041447056e-02 -1.595127886460557365e+00 1.629646293507901023e+00 -1.922825103443797312e+00 2.349397427453616238e+00 1.229773168996939198e-01 9.043582609262611482e-01 -1.690409128703916908e+00 1.953705097347816722e+00 5.457419484377491470e-01 1.208151536966422634e+00 -8.698643443955327292e-01 -8.418119384499151980e-01 1.304431382246945992e+00 2.649368205408147436e-01 -1.196981719484632833e+00 4.189057734966559199e-01
-2.100830691144334850e+00 -6.215302388060846006e-01 -7.243523875306657756e-01 -1.076818897067131769e-01 1.013724957150974992e+00 -2.599566266492905897e-01 -1.636116385145517604e+00 2.342961739967452939e-01 -2.232338822623168628e+00 -1.016210847080482260e+00 9.812451215000428384e-01 1.073868562225622908e-01 -2.332933070302232736e-01 -2.950023040904168337e-01 -1.206879389313200379e+00 -1.303161731369983478e+00 -1.224297574706190161e-02 9.614511141557864349e-01 9.190156460758972523e-01 4.521900306824238047e-01 4.909674839178031491e-01 -7.271116888533778189e-02 6.308635662350370321e-01 -5.907878214796854488e-01 -3.743865322538877244e-02 6.559394681036255781e-01 -2.021760260299807932e+00 6.428885911979469459e-01 -7.149384976229407052e-01 -3.306362915422883519e-01 2.962349349005090060e-01 -8.071281335988746974e-01 1.833011275262190543e+00 -2.895808790729099136e-01 -1.332368483849582397e+00 -9.297005388035545215e-01 -1.042129540902098084e+00 -4.426007661873546661e-01 -1.016631449491487871e+00 -8.054604278336732204e-01 -1.937186161145745489e+00 -1.129862590784018961e+00 -1.623393672609659832e+00 4.462171302912523729e-01 -2.181526505438762253e-01 -1.080707092902621458e+00 -1.199434305394020628e+00 -3.636480230060241681e-01 1.085214442145204350e+00 1.966405874039102997e-01 -2.672792353206817628e-01 4.745809389661654887e-01 2.483549162752017037e-01 1.416455609185978126e+00 1.078095905727317894e-01 -1.935336366584159862e+00 -1.745899567649014550e+00 -6.447563930015253186e-01 5.519124194676456874e-01 -3.925277691584894146e-01 1.654155314058445569e-01 8.140934038584487498e-01 -1.629887167927037694e+00 1.561676610209651317e-01 -8.169183064274501138e-01 7.256197842588956171e-01 -2.449747035190247557e-01 5.592823721605543197e-01 -1.579779732320303776e+00 -1.976459920443547125e+00 -2.341626391047718914e-01 -8.042698292171717167e-01 -5.293762416031644324e-01 -1.028967875798641129e+00 -1.885440951060369352e+00 -6.293618546820152204e-01 2.777671978271046282e-01 -2.178018029602204753e-01 -8.617928403374570667e-01 -1.563930659971668469e+00 6.066241254467299449e-01 -3.363183786752186877e-01 2.312705025734506370e-01 -5.278899543309822917e-01 1.032019005592873073e+00 1.508480019142136586e+00 -1.027706477038490718e+00 -5.410068140485563282e-01 1.984603479733971776e-01 2.083502427721175831e-01 -1.017157050623844206e-01 6.960493097087507852e-01 -1.452334235726087552e+00 2.690817867434375787e-01 -5.064203317014992489e-01 8.710586854499140219e-02 1.162689107992641580e+00 2.729884219687455649e-01 2.031950378606085739e+00 -3.029359679949639172e-01 -3.680325434804403439e-01 5.821202684813149286e-01 -1.295011980179973765e+00 -5.357356505008610270e-01 -6.467897487222367126e-01 -3.526816591433676318e-01 -1.477810277123278448e-01 -1.514705726875095859e+00 1.050773330526624250e-01 -7.672852998249014567e-01 4.242951581902923430e-01 1.280453438322501081e-01 -1.000480063655312390e+00 -5.584691607991632001e-01 -1.307038089612831078e+00 3.699164679428825209e-01 -1.755286101042963010e+00 1.139178876450700040e+00 -1.333160821495790849e+00 -7.167599746092259139e-01 6.026373283408360537e-01 -5.927018340652440154e-02 -1.066143261392025421e+00 -8.708489151184846122e-01 -1.150477807160539490e+00 -1.519282561410534083e+00 4.305788639300612841e-01 -1.044588712469687097e+00 -3.468127154984119720e-01 5.283786013652290725e-01 1.512675160559593834e+00 7.289590263299238204e-01 -1.161838294930758742e-01 -3.314804849342186110e-01 -1.753863775186605967e+00 7.227636342003541658e-01 7.844753771698695921e-01 -9.449682873602315292e-01 1.635062414902851202e+00 9.339650376710617596e-01 4.884213587824234870e-01 2.199815218175205089e+00 -6.249219056540766815e-01 -5.765231815073562638e-01 -1.145845853473264064e+00 -3.602264627582326684e-01 6.829874418528150137e-01 1.868004589073158028e+00 1.637362879420913853e-01 1.316799664772298151e+00 -6.372523053497943790e-01 -4.000400479609499405e-01 1.042339214751941467e+00 -9.525942243797475006e-01 -3.458436478820373083e-01 -1.278377422966963328e+00 1.542591019084184056e+00 8.663496711877351208e-02 -3.756072024624681482e-01 -2.853692772615633588e-01 4.173429277853051844e-01 -1.095812937710704815e-01 1.037857098435992942e+00 -1.332925949365163287e+00 1.877206129603988805e+00 -1.086160836753639503e+00 -6.276042116730161657e-01 -1.450049158268337912e+00 4.595199618587441637e-01 1.349929372069474054e+00 1.343610657030304800e+00 -1.205477534490558389e+00 -9.594097071159048973e-01 4.376524786629509486e-03 -7.664489897926183293e-01 -3.254515208677348226e-01 -2.501535479730717104e-01 -1.643619276316147682e+00 -5.823423891204855263e-01 1.326423853131990960e+00 7.178600014052350931e-01 6.660908272677518172e-01 -1.026744959180129424e+00 -4.739411977706560197e-01 -9.557151711602256405e-01 -5.368277663362421848e-01 -1.178132704383091402e-02 -2.890638443551993397e+00 -1.214566269571111697e-02 -1.141118866324494219e+00 7.274117472060234735e-02 -8.949855178918076914e-01
2.963401081890315591e-01 3.245264480460113288e-01 -1.276514538080778083e+00 -1.323299290165457442e+00 -1.828779326102397684e+00 -6.219988094835056103e-01 4.301218368087633692e-01 1.437323562751926298e+00 -7.346762162914293182e-01 -1.275296383994616534e+00 1.421832071854553625e+00 8.782546127937764791e-01 -5.169763313091358947e-01 3.933149211908514298e-01 3.033078604358635522e-01 8.781757933475610178e-01 -3.519368707629808024e-01 4.343564367485017730e-01 -1.199664250888731631e+00 -4.166429336054720545e-01 1.126330853240438135e+00 1.608361733902662072e-02 -2.702117385403320915e-01 -2.041159197410636672e+00 4.127230113152682289e-01 6.521148592252029585e-01 1.309653594939869548e+00 -5.300365567915031884e-01 4.590964123724263768e-01 -3.669040327405537760e-01 -1.258860215540828831e+00 1.363141340029474957e+00 9.595074603783504408e-01 1.901620997521803025e+00 -6.761898035809955632e-01 -2.982120311451758599e-01 -2.448848263562973960e-03 -2.865827101209672101e+00 -1.720206194331580729e+00 -1.674468745802779601e+00 -8.923596266513862396e-01 -1.105544546534681816e+00 3.341882249542885708e-01 8.085682927195295688e-01 -2.104104304732719866e-01 6.694876333044923467e-01 1.709935510558302729e+00 -8.634422428081083289e-01 1.080396235820659578e+00 1.172745998333194040e+00 1.318312578076133113e+00 1.796354799327944285e+00 -1.321764961079471501e+00 3.681129849467310033e-02 -6.728845288896185828e-01 -5.643703340139167857e-01 -8.730512819213332998e-01 -6.713989396875678084e-01 1.144945441499287675e+00 -1.628234139196141683e+00 5.981023193526044390e-02 -2.428884507281989513e-01 5.627530591284537476e-01 -2.955263652885151138e-01 -1.371602416893282550e+00 -7.578851612250713243e-01 -1.092794965335962543e-01 -7.914458775363806264e-01 7.507294758051509254e-01 -4.084398001127167888e+00 -1.520703741562753342e+00 -1.665272518707845206e+00 2.478014914069869068e+00 1.042620398309292498e-02 -7.257700636370715275e-01 -8.087051546735156415e-02 1.166507120924242580e+00 -2.196025302258092893e+00 -7.417592640048334407e-02 2.698515857814309804e+00 1.549841648114089199e-01 -8.572624404384094898e-01 9.834701712408460139e-01 -4.081504664503360913e-01 -3.683181911200402170e-01 6.851932009755944408e-01 -4.733123617513871895e-01 1.887542518567377758e-01 -1.339619744608044893e-02 -1.438891140773364885e+00 -7.827152303014400792e-01 3.016873574957383286e-01 4.717063472415611303e-01 2.652827813096277354e-01 6.933367651526548547e-01 -9.397381184551678590e-01 -9.974389915340060586e-01 2.279741096528798139e-01 -1.160949040663345144e+00 1.076496211368147327e+00 1.640135632916791320e+00 1.039985934482663632e+00 4.483426045227913992e-01 -5.153219298622881972e-01 4.443767047310320240e-01 9.639361819772874762e-01 -1.178127619183986230e+00 9.815052659883256592e-01 6.403306348500069634e-01 2.030217760719960907e-01 -3.921545308152070697e-01 8.075426501331526286e-01 -2.758210880198470605e-01 5.101976578054653322e-01 2.591339014167550192e-01 2.064350715584995832e+00 8.907735996538456158e-01 -4.779375304684398418e-01 1.627514101964342430e-01 7.545545314077006793e-01 -3.957344907257682731e-01 -7.288081198859395204e-01 -1.020307787059210103e+00 -6.933741294722045589e-01 -2.519039826051290842e-01 8.008584788086543782e-02 1.445915507119159005e-01 -2.680118344493580551e-01 -4.146072487283229413e-01 2.418515082696235108e-01 2.754325043948289697e-01 8.500168732790148729e-01 -1.694286979887643374e-01 -6.765998704325612012e-01 -1.384820555123631447e+00 -9.074830932626065660e-01 8.178622193231793736e-01 -8.093540153748493005e-01 -7.437754497298346701e-01 -8.507904225103692930e-01 1.893179983092099894e+00 7.448489074365282070e-01 -1.365521887817157110e-01 3.175959070499134174e-01 1.627499772005653322e-01 8.453049546450179530e-02 -2.954920699359035452e-01 8.206030784734785755e-01 -3.559640736364992342e-01 5.456741888609514257e-01 1.018712292010845122e+00 3.839213966886790286e-01 8.716250878997071627e-01 -1.248922320117243467e+00 3.725514775315682536e-01 -6.351222115425300130e-01 1.752170906655251326e+00 -1.644919989950932138e+00 1.540151858779971850e+00 1.500131142730221967e+00 -1.437219135965840111e-01 7.977632424437832714e-01 -5.168413873994189833e-01 -5.018615292177871501e-01 -8.582499108467118998e-02 -2.021621989539306163e+00 -1.042053944111793973e+00 7.032876107328493998e-01 -4.284082248037113239e-01 2.562607816297279406e+00 -7.210182007516018343e-01 1.202751657854398692e-01 -8.956429784663892668e-02 -1.794675646795885093e+00 1.215564590619601981e+00 -6.529070153611057359e-01 -2.696356898463184493e+00 -1.299214019147989507e+00 1.580479575657894875e-01 -1.037262601171665688e+00 -1.344877978813294295e+00 1.629626635073514462e+00 -3.430331805902213649e-01 -4.561010061364815238e-01 -1.958076351044833352e+00 2.656969220739006654e-01 -1.068950819615042958e-01 -7.372541013302130741e-01 -7.836598055191998924e-01 -1.199086854501007382e+00 -1.761189572100389511e-01 5.176860767865939517e-01
-1.362748236089613485e+00 2.756260968074558115e-01 -5.186522750987178076e-01 -1.588051339699824371e+00 8.752722818586251563e-01 -3.817952020667865209e-01 -2.893204613715658069e-01 -1.621589873858482189e-01 3.898511514724638527e-01 5.157392937658371312e-02 -1.505316016423997816e+00 -5.160574134413565828e-01 -1.127825374421644877e+00 -2.141836062509228533e+00 -6.878285127217450556e-01 -6.502422977178005103e-01 -8.878288599868131570e-01 -1.578600289765749176e+00 -1.499049961172494762e-02 1.591393402600914664e-01 -1.403115084615941532e-01 -1.385792688995858724e+00 -3.768914230242295105e-01 -5.714988642312834877e-01 -3.476326560780806235e-02 -9.742214245546767515e-01 1.993814802855133905e+00 9.599789794481699001e-01 1.572534233245065638e-01 -2.349025845378766020e-01 1.043301382540109401e+00 -5.328679517580487968e-01 -3.998769641556681465e-01 -4.761350746039425541e-01 2.094448629928188588e+00 8.262614946186939147e-01 9.088580226283660135e-01 2.437391162264445632e-01 -1.027147883373889181e+00 1.361080282183156021e+00 -9.425505292321491035e-01 1.209632684850223683e+00 -8.231402864133702257e-01 2.176717780439650696e+00 1.609755761392054341e-01 2.739336631176051418e-01 1.262085254394031741e+00 -1.300218702308797158e-01 3.337004453289790229e-01 1.401856635255409378e+00 6.351458063687905053e-02 -1.623142789190651358e-01 -1.079324974459834996e+00 -6.001865853641892290e-01 -1.527356452953282928e-01 9.628092888400681115e-01 1.562676451698715718e-01 1.095058460175996062e+00 1.598123161570889628e-01 5.522247622034869297e-01 -2.535274963922969693e+00 1.158626594525567821e+00 4.117335281129796409e-01 -6.797710532806343631e-01 -2.635206467730521473e-01 7.370118464112475065e-01 -5.192679243201501205e-01 1.289949500213546374e+00 -1.535796967742209251e-01 -7.867076415325073846e-01 1.906511695889015479e-01 -1.440840043019131711e+00 1.371720896144372981e+00 6.382201509048834875e-01 -6.138434040586202567e-01 -7.383266227174096752e-01 1.006844681485369986e+00 -1.164596123945981221e+00 -1.070417775208416966e+00 -3.278888163801746969e-01 1.592539513293743936e-01 4.189283315107145134e-01 -5.514403349971707113e-01 1.252771976120580444e+00 5.378400932719101801e-01 -1.049066895891127116e+00 -2.233714614911006813e-01 -3.677924533968917470e-02 -1.024859084946447174e+00 -1.089777651444115980e+00 1.200964521607635616e-01 -2.771383490665567884e+00 6.794185699785557087e-02 1.318086217968202911e-01 -1.295435559992184071e-01 -2.135888262940381921e+00 8.998202674461320827e-01 6.895345891407147487e-01 1.385275126519063926e+00 1.774240630200339286e+00 2.031670726544190508e-01 1.460765762087853359e-01 -1.357940403546605612e+00 2.655006515337292594e-01 -7.943694488231998196e-01 -7.146398872411278136e-01 1.999738289937938798e-02 -2.567480453293117915e+00 5.793505313956510694e-01 -1.642804354512116927e+00 1.575541597162894769e+00 -2.719819032917856691e-02 -9.052298274805171685e-01 -8.871153704264368722e-02 2.032362475450092187e+00 -1.446165018324891749e+00 6.503757416072258879e-01 5.262382791498197987e-01 7.854425838339270660e-01 -6.204559709835834047e-01 -1.858084525836261713e+00 1.249032696464283387e-01 6.105784483727365597e-01 -4.680712020206648227e-01 -3.620065245110768437e-01 1.301009988812219520e-01 -1.136799972272916209e-01 -1.235229080077603125e+00 -4.953299596826393758e-01 -4.073153748590805368e-01 1.237129744433090178e-01 1.574903318213124015e+00 -7.056531022810760279e-01 -9.953822126545642801e-01 1.175502732929689209e+00 2.256459223329054520e-01 -1.316197822973019793e+00 -4.044482632770943220e-01 3.295345155445651986e-01 -1.330015955848544262e+00 8.191348754030282064e-01 -7.541773244678445787e-01 9.198796580051156191e-01 -4.219621018916197563e-01 2.660041452741127577e-01 4.824459625646428940e-01 -5.922006218356734575e-01 7.693619743685572443e-01 1.647381236266179938e+00 1.244071611591371251e+00 -1.393689323678597658e+00 -7.406302211729822726e-01 6.399137487477009056e-01 -4.448490586746083886e-01 -1.278971348589219126e+00 1.278019305996380695e+00 -9.869471714673956342e-01 1.974211507442619751e-01 1.717450421313951425e+00 7.640059942879718902e-01 2.443312207080033382e-01 -9.846612182262710622e-01 -2.641955804529164675e-01 -2.360789160805070730e-01 2.163990829594499843e+00 1.328271402128642087e-01 -1.001704276810572392e+00 1.652740125744466271e+00 -8.880515480666335559e-01 6.463155554815278592e-01 2.409534971562496075e+00 -1.206444593261653958e-01 5.867665126782048990e-01 -8.496344089121593557e-01 -4.929155006862618316e-01 7.023587510303449521e-01 -9.168376189766775930e-01 1.424327364913096527e+00 -2.942490632050871052e-02 -1.103640165142007884e-01 -6.281793216617128639e-01 -1.879033121328645084e+00 1.059954111278719857e+00 4.294101687984447357e-01 -3.383353953877758780e-02 -1.888452973816195091e-01 4.093171461482666418e-01 -1.026811549628591669e+00 8.624970579305518692e-01 5.090389955525879140e-01 -7.699410312655774469e-01 7.601627814556629614e-01
2.006060024239627371e+00 -1.213429528764895959e+00 8.331370863749247846e-01 -8.697607944430383320e-01 -1.320561994292649144e-01 -1.467719654928975492e+00 -1.255424869351363104e-01 4.027915246541264871e-01 1.407989694248937163e+00 -5.445295839074151267e-01 -1.367759761561724074e+00 -1.448027271146734796e+00 1.390352274954667622e-01 1.429432720572660021e+00 -8.733554889246304409e-01 9.239118585151434582e-02 -2.590417339665979091e-01 6.883356257164761072e-01 -3.325710094142068640e-01 1.798945419205579821e-01 -2.409553106515275114e-02 -1.384701526011655970e+00 -4.455591391800931556e-01 -6.372709895438606609e-02 -4.431077746570707410e-01 3.012495901557605271e-01 -8.585885483476993763e-01 4.517883886212271660e-01 1.102711575332778748e+00 3.392589922970257188e-01 5.629182651059756459e-01 3.720392775780312911e-01 4.341614582858828730e-01 -1.504975391586192701e-01 6.227870305944422924e-01 1.384745250805101066e-02 -2.635826327316915130e+00 1.852001920463818507e+00 -5.106577986018843163e-01 -1.565639956600611171e+00 7.544367593568470642e-01 3.407316354174639850e-01 4.334395049105645437e-01 -9.742622379090465357e-02 -5.586753972024042225e-01 -2.897364634976232756e-01 -1.601545427652498077e+00 -1.044223059670935649e+00 1.570450336131326230e+00 1.125319060189547971e+00 7.217318978529331241e-01 -6.517951476012779910e-01 1.213259872359282676e+00 -9.787260460775720761e-01 -7.696991383234812467e-01 -5.339706786932532090e-01 1.013084061404248892e+00 -8.612367534178217987e-01 -6.880526081860945629e-04 -7.449055579107934089e-02 -8.218537311979097482e-02 -7.822435250089314618e-01 4.344088910375299983e-01 7.159322870504772895e-01 -7.743239376204349433e-01 5.282590345803811482e-02 -5.091213198563940834e-01 6.423841682227235950e-01 2.173624627201894977e-01 5.133253566059735595e-01 -1.335246742415702181e+00 -5.293646368530513513e-02 -4.461175995574458431e-01 -1.220013989856003400e+00 6.850514607285316249e-01 1.111371941834623955e+00 3.817334210961659258e-01 -1.009059472995688989e+00 6.151144821443867150e-02 5.191459176287304550e-02 -5.860424774212157351e-01 9.924031574700894476e-01 5.198662885557220337e-01 -1.283609677628855694e+00 -1.410511279896254078e-01 -8.691452985271737042e-01 9.436789829568685839e-01 5.118045257436258932e-01 -2.446238331783176789e-01 -8.655106912780146100e-01 9.777767322627949342e-01 1.197120346153856207e+00 2.473843259004373518e+00 5.908286922592866919e-01 2.054360517492457017e-01 -1.366204745569696177e+00 2.885881972110877935e+00 1.475354197578204074e+00 1.367158523918548640e+00 4.122653696332995721e-01 -1.857351928822375542e-01 2.177269728048741859e-01 -1.009255336319593743e+00 2.806442469294180841e-01 2.941572036573700255e-01 -1.207265930120279718e+00 7.777656344398335975e-01 7.466034384680549918e-01 4.143497282537172283e-02 -1.136233526275862493e+00 1.091829443686009427e+00 -5.055398860792350568e-01 -2.120422247160022255e+00 2.293065198034303642e-01 5.691858737309313937e-02 6.058506332108188897e-01 -3.158473060884575689e-01 4.760645866204070709e-01 1.048823109542645238e+00 -9.517004708207101038e-02 -2.599365665966076322e-01 -7.741158504930716333e-01 -7.251333590143425045e-01 1.463227890789253471e-01 1.627077884845298694e+00 1.197808133074229398e+00 -3.153800594200484309e-01 -7.097207224860804797e-02 -1.207254515875393786e+00 -3.988214441687227829e-01 8.040358288261181263e-01 1.101317306227150850e+00 7.818101893984948925e-01 1.142661161512985996e-01 -1.576065382674886328e-01 -3.201395638163808677e-01 -1.422508806499440892e+00 -2.323810454566429318e+00 8.370077346016815412e-01 1.260033021651542295e+00 -1.387311439315074280e+00 9.927006582755235620e-01 -2.054284904963756819e-01 8.190937183510951791e-02 -1.636159336750902638e+00 1.556596141219760143e-01 1.786878489770964862e+00 -1.035825828421882422e+00 2.175724401064663471e+00 -2.826514241025879781e-01 -5.620612306904780864e-01 8.253671474733389468e-01 -1.753751889237125328e+00 -6.924333476430574175e-01 -3.048886921326336541e+00 -1.398186447054114545e+00 -8.379552750250700566e-01 5.191497360608086087e-01 -2.468121216619169889e-01 -2.466289634426529265e+00 -2.461238526713669938e-01 9.745205414404637390e-01 1.498275910439325620e-01 -6.547682462154925664e-01 -9.149390846615351736e-01 -5.805197444046049648e-01 2.669189242661647032e+00 -9.812334315523530970e-01 -8.457516964908921853e-02 -5.973853783842980603e-01 -4.031542473705298502e-01 1.282865667109617247e+00 9.844818083239346984e-02 8.867733450921954086e-01 3.467738503931003247e-01 -2.536122839914930482e-01 -1.519851873898941719e+00 -4.450975540287000626e-02 -5.163092690516682959e-01 -3.606749012390344511e-01 -1.605734405494123829e+00 -1.006406573772627322e+00 -9.590870454166650072e-01 9.227164243936949450e-01 9.804923779128604799e-01 6.720264250970197084e-01 -3.878614930609215472e-01 8.281422838402298092e-01 -6.494551122397314302e-02 2.895940290976917741e-01 -1.407527385275156195e+00 -9.892812344490888865e-01
2.699808269601440269e-01 1.578735103626508485e+00 -7.317824720398351523e-01 7.293404523023623402e-03 -1.165954857726445998e-01 -2.084795008436602703e+00 1.993583056456390001e-01 -1.351225410849057118e+00 1.394901973315309629e+00 -1.145599998715799983e-01 -1.483372084842762506e+00 -2.106854600506586461e+00 -7.327965439446251228e-01 -1.736452490769440082e+00 -1.389392359956706402e+00 8.519125514576132430e-01 2.315675875473372641e-02 -1.532395097077424273e+00 5.619547035812377800e-01 1.474671593318781948e+00 -1.832261589763278797e+00 2.433325607324137441e-01 2.375613504101277695e-01 1.326515868439686496e+00 -6.191922113579289011e-01 -1.322985158658374738e+00 -2.990417936083437089e-01 6.245341262809266381e-01 -3.528634850994462613e-01 7.843991064245239286e-01 -5.057392147708801300e-01 -5.586642345178856051e-01 1.493416732278665671e-01 9.169808783933270924e-01 2.211779670093105832e+00 -3.183634234455055556e-01 -8.299160829793685856e-01 -2.896119203826884037e-01 -1.868946670346600225e+00 -8.551832480856731422e-01 1.198929796178650031e+00 7.927316482299555656e-01 -5.031522033551132367e-01 -4.617363005327617120e-01 7.209234652179552505e-02 -1.489815758628638465e+00 9.304174869400987369e-01 3.131013926642289835e-02 1.827604347530697559e+00 -7.323401472459358796e-01 1.347585570685780443e+00 -2.374012670090567823e-01 -7.492638417473734824e-01 -1.931816571365575053e+00 4.696556691854529564e-02 -8.604807479939449166e-01 -5.751180755703395597e-01 -1.732048262163759622e+00 2.881871250518694416e-01 1.756393400320678033e+00 -6.924247369054553625e-01 4.662880170322231121e-01 -4.854787501481711010e-01 -1.327414786564444116e+00 1.879070889709366088e-01 -3.125867301627949235e-02 6.483509349717537784e-01 -1.052958663176139842e+00 -1.743784022358358665e-01 -1.422427228026835966e+00 1.613071776751449304e+00 -7.121782683186442808e-01 1.203431942095411600e+00 1.547619967145053288e-01 -1.349249317872060372e+00 -1.690049067080697354e+00 -4.120768429189466953e-01 7.579553279875265170e-01 4.604175906442650734e-01 2.005457403867105803e-01 -1.952046236227849771e-02 -2.006823072352469595e+00 -4.746641905501559622e-01 -4.038929630540983862e-01 7.483234359215922699e-03 -7.192347396275550198e-02 4.080063264602908912e-01 -1.386627863281460815e+00 1.987315046344864555e+00 1.135679431710725940e+00 -9.541667840368218689e-01 -1.561104044812046343e+00 5.549498673790626002e-01 1.688996992779474349e+00 7.674219125702576028e-01 1.267608524732560582e+00 -1.650681044361940852e+00 1.438289883464088481e+00 -6.561997147478342285e-01 -1.310490852476113188e+00 1.596997828498042615e+00 3.958528911649760174e-01 -6.653515206401326987e-01 -1.612108429112928398e-01 -7.524644533455621120e-02 1.158313991401685117e+00 7.766277294934607056e-01 1.711818406033551954e+00 -7.789348107892103412e-01 -3.230814962824326564e-01 8.828330089498754862e-01 -1.172525599244307326e+00 -3.551587757147737223e-01 -1.348054190812829845e+00 -1.202583597801323290e+00 -1.184649344190247922e+00 -7.877108127780942104e-02 -1.067863651091597754e+00 -5.919123632232442533e-01 -1.076436741956369181e+00 1.308743850917206242e+00 1.323760525708965741e+00 -3.053157966338775786e+00 -3.982297061052689213e-01 -4.560874705230178461e-01 -5.581517093482712272e-03 -1.439318432446365259e+00 8.788052843432034855e-01 3.532864974073057218e-01 6.880830488359129804e-01 -2.062526265404667214e+00 -1.076363779233625861e-01 -1.702580574100442945e-01 2.625341993717407105e-02 -1.114569811224741747e+00 -1.616748252001463382e-01 -2.992594642345530742e-01 3.127555067321951543e-01 1.965845397466633226e+00 -1.064110518628699875e+00 -1.291331053264448192e+00 -1.436662811013697860e+00 1.070172118949714868e+00 3.094196252155167470e-01 1.218664126893982846e+00 7.497045791999921160e-01 -1.452506410521241242e-02 -1.015072865193789919e+00 6.034195843495541167e-01 5.231659994765354149e-01 1.547414982664684802e+00 -3.131511181836363344e-01 -1.120186528984372432e+00 -1.318073741799274667e-01 7.006011888691017209e-01 7.595457797297217040e-01 -1.036918975203053428e+00 -5.243002922424333523e-01 -3.447326373915221009e-01 -6.960346734955227266e-01 -8.669965031866100347e-01 -3.973533943158229220e-02 -1.541607812061792683e-02 -5.897936743222222944e-01 7.283262887967217880e-01 4.441096822501317543e-01 1.320868550941633190e-01 -1.560508590119941585e+00 -6.626526861005044289e-01 -6.182174121391670329e-01 1.197080305859723248e+00 5.720165104084427021e-01 -1.633366317669196377e+00 -1.282968840343869266e+00 3.438045153998050413e-02 1.112655477299920592e-01 -7.375539838468391229e-01 2.583780394189486573e-01 1.221068304909606494e+00 4.208790690135176260e-01 5.952935149052190900e-01 1.714167902392103704e+00 -1.754184302244089777e-01 -2.052446252229487011e-01 -1.303042127768669900e+00 7.023420641063481407e-01 -3.766192147082682018e-01 1.475277888715649688e+00 -2.150317295239069504e-01 1.001489209066287245e+00 1.018208771351086117e+00 1.211332329670929742e+00
5.523446068645975204e-01 -5.689953887548986344e-01 5.336878921226552164e-01 -1.208712220422853756e+00 7.503084910582022982e-01 4.529982468679491503e-02 9.974577945604374829e-01 -3.292341522349019611e-02 -2.283978613873621777e-01 -2.185652850945410050e-02 4.584952240886180364e-01 -9.688136227099058972e-02 1.170490359792532714e-01 -1.611772482903012005e+00 2.527504143385429725e+00 1.226722264277523511e+00 1.633362933660617244e+00 8.306796420993847740e-02 1.416124673201149209e+00 2.830922673505639198e-01 -1.102568158742171622e+00 -1.076110620000939738e-01 -2.863310218170804222e-01 -5.059921206779219860e-01 1.034253932650422980e+00 1.400140287816858120e-01 -5.109560508256412170e-01 -1.725305817344812587e+00 4.804868301105058026e-01 -1.312451978888704129e+00 4.792328490609670255e-01 1.968080546550846077e-01 1.390363971009855426e+00 -2.615369323661768330e+00 2.316616372258066547e-02 1.225087642536310861e+00 1.071631620663567597e-01 -3.546832249932671544e-01 2.172218766740542095e-01 8.482534826371036507e-01 1.595790043322020235e+00 1.209240420017783091e+00 -1.062532190530183218e-01 4.391271143328641102e-01 -7.658899968966383920e-01 -5.006967291228654471e-01 -1.110704488620101404e+00 1.604340333816265118e-01 1.261982815355343346e-01 -4.334155161279560492e-02 3.333151135629469630e-01 -6.799213629451142937e-01 4.243519829787666398e-01 3.142720947924777519e-01 1.797149553853749637e+00 -1.425166766369994953e+00 7.498783300641026495e-01 -6.157776705068059853e-01 1.187108822666649743e+00 1.518637015678344193e+00 1.382799975637543755e+00 -5.011761729125306930e-01 -2.459246594026605892e-01 1.958683593142311330e-01 -6.373531236728909866e-01 4.624016003388756735e-01 -1.877910889613058631e-01 -2.546674381365590656e-02 3.231260196846632571e-01 1.507206727513003441e+00 5.965751659514094696e-01 2.600877134601105589e-01 -1.581711015577943469e+00 1.762484322405268033e-01 -4.613610201091430940e-01 -2.000078437080122784e-01 4.151531112038332472e-01 -6.850982292754901337e-01 -9.508561538112914047e-01 5.508112775028556340e-01 5.349673213428546292e-01 1.313415127317034692e+00 5.115993371899546505e-01 -1.519908403083395587e+00 -2.395869969196599003e-01 -3.563707629034697510e-01 7.552021527532453149e-01 2.647769481738289077e-01 -1.454538871819480050e+00 -3.622194383293546316e-02 -6.955581941237432009e-01 -3.617238379703564821e-02 8.274795269959436816e-02 2.887591811249912155e-01 -6.440602894344491514e-01 -1.439023971828928605e+00 -2.340978446241352984e-01 -2.391060964305468772e+00 3.641828963538578101e-01 -2.628468028185820149e+00 9.187152978582940888e-01 2.288582341472953363e+00 -1.075643644059679271e+00 1.452812582630724769e+00 -1.207171426688057991e+00 2.272968510847426238e-01 -1.613235082496488060e+00 7.452602836993688085e-01 7.829876913508851954e-01 1.991805437642516496e+00 -1.070085420292999689e+00 6.087131244545309627e-01 -2.461602379138401464e-01 -1.717607952095830726e+00 2.711992276396342216e-01 2.481976378839619024e-01 7.485352522858824686e-01 -1.595494169489588276e-01 2.338394840302585320e-01 1.176044368602763068e+00 5.526803372877829856e-01 1.845349176014375647e+00 1.039457872152479867e+00 4.905054391800922065e-01 1.570085214250921846e+00 -2.524621600595994830e-01 1.581235000019811654e-01 1.806660749172404490e+00 -1.432532551347754257e+00 1.237940438013438893e+00 1.836643736839622676e-01 -1.023510101182983911e+00 -3.505814223707558880e-02 1.127129143219506080e+00 -2.828956321907301064e-01 7.146625707727926047e-01 -6.926980312096786552e-01 4.894654066089029754e-01 8.029899545856775678e-01 -3.678977552699165265e-01 1.079675833765148640e+00 1.829378751134383307e+00 5.793682792016210392e-01 -3.685530712991575558e-02 -2.788687151197789538e-01 3.569730467708107646e-01 -1.389616220017810155e+00 9.943005604251233809e-01 -5.329049958861602487e-01 1.779792222748260100e+00 -1.293420850825880652e+00 -6.475155698991232889e-01 1.007305338923143029e-01 -8.700034577031598992e-01 -9.340448495419140240e-01 -1.484812165785468277e-02 1.290190308224720805e+00 -7.649980964779610204e-01 -1.915082316698761000e-01 -6.683700548088813975e-02 -8.530644036334611435e-01 8.749006540936599130e-01 5.133109416256897983e-01 1.077179659712444115e+00 -2.296356210737758863e-01 -8.403359762119071430e-01 1.731216526991770088e+00 -1.772074166356735481e-01 1.349588816199568608e+00 -6.285918061920872102e-01 -3.474671790777150715e-01 1.051416310599219278e-01 1.268407196840960705e+00 6.446688844954614472e-01 -8.791601140740570863e-02 1.163717693510000206e+00 2.436865889008595354e-01 2.611650769323768384e-01 8.819648417363760984e-02 1.887675799680465838e+00 3.228509682692483618e-01 4.005351869801147546e-01 3.236629876905717795e-01 -9.672445942475381697e-01 6.732164613137973097e-01 -1.304318984989320862e+00 -1.679975385843837654e-01 1.980141232129017659e-01 -5.346345224004858121e-01 9.387588444405811083e-01 -1.215210899044907311e+00 2.570015551381660490e+00
6.668886223432614058e-01 -8.761543389231027934e-01 1.152123790872310094e+00 -1.289724274130672921e+00 1.430444945369398813e+00 9.474980911400560091e-01 -6.276917949408065134e-01 9.662018690689400113e-02 1.157170601425976164e+00 -1.020125572063209640e-01 -2.584862997206903712e-01 8.163147603798273089e-01 -1.027163796983111554e+00 2.469999571187362353e-01 -9.029003918116595973e-02 -5.967511018201612089e-02 6.970860000046492921e-02 -2.829884956963902853e-01 6.432333614607073091e-01 -5.636694306644470798e-01 1.198161653368121637e-01 8.197595617338741814e-02 1.865963966276151575e+00 -1.082004379234007940e+00 6.833101428803780575e-01 1.431078887791420673e+00 8.837741322032228730e-01 -4.709185597351853714e-01 -2.153685829562390075e-01 -7.831506874030367271e-01 -9.647544648637824682e-01 -7.802036918606144456e-01 5.000143855017100680e-01 1.042190413733661947e+00 -1.579485822727149769e+00 1.763811089379013208e-01 -1.510550818098829851e+00 -2.991086093103828558e-01 1.675076988234678987e+00 8.540120224883365196e-01 5.558872338651188461e-01 -3.567159819587026881e-01 -6.981580186492801487e-03 3.086583342717479431e-02 -2.697883469261476083e-02 4.564484435482113467e-01 1.506965428195287671e-01 -1.567589438205994279e+00 -8.468434081275397762e-01 1.756649011653841908e-01 -1.256963067707896675e+00 4.537405721945611536e-02 -7.201765610268202611e-01 -7.960656863887062284e-01 4.893281864951955495e-01 -8.102748167447312300e-01 -1.206545845418395935e+00 7.303804271733858045e-01 8.354471665711757922e-01 -5.310552952909795010e-01 6.519864752289965260e-02 9.618101821176557875e-01 -1.600365316662022419e+00 -3.076855158104702115e-01 1.235442809535156616e+00 -8.672614759163811693e-02 1.213005439163503230e+00 -9.260009412738510193e-01 2.650220750048549179e-01 -1.180999854451844300e+00 1.881935848436699088e-01 1.373148035448246373e+00 -1.907483948327912682e-01 8.762039291689235343e-01 3.269955915877198471e-02 -3.362284659471476145e-01 -5.786389120636392658e-01 4.439062541475071733e-01 -1.857909602086215362e+00 -5.192163493547523323e-02 1.649917268183602959e+00 -6.399973327325993999e-01 1.495700324766956912e+00 -4.878173330371554650e-01 5.668791188301255390e-01 -2.207608517010903881e-01 -3.571983304597724229e-02 -3.848250483679749312e-01 -2.010431633000903384e-01 8.937754851922449228e-01 1.283443111798324487e+00 7.266930593543809991e-01 2.064083592685276580e-01 -5.088693313201565482e-01 -5.798442764854273568e-01 -4.364064169187498732e-01 -1.097088819738276655e+00 3.923522124343402639e-01 1.507089299922842240e+00 2.977275978279572133e-01 -3.157808134150493218e-01 1.751479300028939423e-01 -6.666050401892981148e-01 -5.283465209365978410e-01 -1.143943893488480468e+00 1.019054592207590537e-01 -1.327263864691812456e+00 -3.947477809297277734e-02 -5.800558766371796127e-01 1.517645465538186578e+00 -9.773025126842919269e-04 -2.860058297112570008e-02 -6.223141421212574631e-01 7.450938664365837349e-02 -7.039782954902584766e-01 6.513711989695092353e-01 -4.640038453105189142e-01 8.413970041859278881e-01 -1.738841537518327041e+00 -5.981996204088373403e-01 -3.315025898254397863e-01 -4.451844732555865769e-01 -4.160136351676193556e-01 -3.505428885341385081e-01 -6.816701830705589266e-04 1.046267555602412164e-01 8.655252462534566149e-01 1.691977335356411594e+00 -3.877192998318080841e-01 -1.048262513840763965e+00 -4.619640117073253172e-01 4.967210557067038290e-01 5.105613819692363942e-01 1.841767694469072236e-02 1.050362662365562194e+00 3.972284766700486247e-01 1.242468490825327843e+00 1.541935255793491499e-01 1.794156831426256885e-02 -4.066573361843860424e-01 -7.806600375748058429e-01 -1.319441083352980160e+00 -9.403936741875694727e-01 5.862578844679021406e-02 1.099835689201657196e+00 6.662970918998303294e-01 7.051954861658880080e-01 -9.462893006912357352e-01 -1.861498205716628496e+00 3.224686525590006458e-01 5.840879878944164050e-01 -7.701962298831063203e-01 1.422922498624804799e+00 -9.657338389820563362e-01 6.168856273813067004e-01 1.062434567059260093e+00 2.945019251290165174e-01 -4.666238183060677502e-01 -1.698399242169829737e+00 -1.143014456907932352e+00 -9.156792950253509478e-01 -8.131596367410960369e-01 -6.041930707140367174e-01 -5.363437299835483590e-02 2.389940340041817879e-01 1.187964300140680551e+00 1.015119156876534312e+00 1.960438207331477445e+00 -1.341569975594793518e-01 1.405100024283979954e+00 9.111617070582349598e-01 -1.095100262305040983e+00 8.193639600337263018e-02 -1.334794621333198039e+00 -1.800179024274946304e-01 3.737909461713789794e-01 3.313804067866557013e-01 -1.078573602210472160e+00 2.854993093215865349e-02 2.503318460334184037e-01 -9.257267745671466930e-01 4.583792412208430589e-01 1.101347079576991961e+00 4.019270843877938426e-01 2.715524871252946726e-01 -8.232251256098445102e-01 4.526029215758244906e-01 -1.112203220790419556e+00 1.033004881711259149e+00 -5.368508875549869996e-01 1.556260711423768650e-01 6.722522476564907201e-01
-8.665360445415309920e-01 -1.322513525279545687e+00 -1.748754205678916929e+00 1.462792711444270477e+00 -1.053394564227784436e+00 -2.660034592753889870e-01 -1.705989158071411049e+00 -7.673450660454480543e-01 9.335262674853856968e-01 5.491285650494294179e-01 -2.382360531381863211e+00 1.016401297587135488e+00 -7.099753839927532839e-01 -2.356896215205742107e-01 3.265503232766108432e+00 3.973676564602669492e-01 -1.554392787777055362e+00 1.630675742139205964e+00 1.038121168435841568e-01 -1.053342183137846860e-01 1.072162744225387598e+00 -8.597131020425643477e-01 1.964133665410875210e-02 7.157230500270587159e-01 -3.223943258673424017e-01 -2.101007584768032899e-01 -1.406569723928328131e+00 -8.305699586999166772e-01 5.773918454553361723e-01 -9.202574287936314823e-01 1.096213323102289916e+00 -4.738290938938850005e-01 -2.944738101601835911e+00 -6.909095332832826397e-01 1.942009505260135493e-01 -6.562759501856930688e-01 6.132548445136366544e-01 -2.244948988864513828e-01 9.689217774229806901e-01 -5.595089746984253098e-01 4.956817855966180186e-01 -1.059858962983372566e+00 1.256226009218576189e+00 -3.065191713946965879e-01 1.744812003078631601e+00 1.171577598639309548e+00 3.592525558049181611e-01 -1.065452694212329465e+00 7.729386290775915880e-01 5.221290606999482442e-01 -9.891531099068684441e-01 1.811717085576801223e+00 3.765566145170997636e-01 6.421985143801461904e-01 1.287198298888127423e+00 -1.703338549197761287e+00 -9.121949869759561347e-01 1.093873316535502793e+00 1.264296046846111743e+00 -1.075923665162797027e+00 -6.091422950707813255e-01 8.212785390526901041e-01 -6.650016488571333095e-01 -1.493958606124490052e+00 -2.180445042791676058e-01 -3.982679456019586617e-01 -4.007566507686163848e-01 6.207924169679663873e-01 -5.168569753139797829e-01 -6.997437589027170057e-01 3.867177839705311371e-01 -1.102290104754638289e+00 1.396714400856084781e+00 1.208595868387428440e-01 5.334369591922979437e-01 -3.027216186873308845e-01 -1.929142206231733825e+00 5.945646394411547436e-02 1.130219813185294464e-01 -8.938391250162029955e-01 2.577102004874731289e+00 1.531597090496388536e-01 -2.206897492314469300e+00 6.501640163772864911e-01 -3.214340124640917007e-01 -3.361492107609435204e-02 -3.213189255430263791e-01 1.938086423257153079e+00 -1.755031892510667380e+00 -5.501707192994990253e-02 -1.157755767799933722e+00 -1.171860756180839847e+00 8.210707201179031633e-01 5.867492462415904025e-02 -5.560701259464230217e-01 -4.759791873807587836e-01 1.657437107015047317e-02 7.430632449183787180e-01 -5.071295545275392724e-01 -5.420929641273526389e-01 -4.673268949161109576e-01 1.203166640125360454e+00 -6.862278288793928205e-01 9.431995152134611260e-01 -1.736977099585386153e+00 -3.641730105961377695e-01 -4.184418049360438124e-02 1.528719223718023379e+00 -1.399091309555956952e+00 -1.698756276523565756e+00 -2.342981539566669213e-01 -2.662683769785250537e-02 6.971873453570572032e-02 -2.379216738172273138e-01 -5.497456625520074081e-01 1.329966081429674873e-01 -3.604305856095598171e-01 6.427522354705061947e-01 -1.039729293870708782e+00 -1.363910129273074312e-01 9.049923976969662665e-01 2.915549808518138053e-01 9.697240253418839551e-01 -1.592243456295288073e+00 1.849786181782269168e-01 -5.996831696247518773e-01 -4.323461683158585922e-01 -2.513001625339174316e-02 -9.200287436988108247e-01 5.515155236460854704e-01 -1.253047143417292952e-01 -8.184774456116793440e-01 1.956607931712683601e-01 3.760655613820543253e-01 4.784603674653863936e-01 -6.626881800140252965e-01 -7.754706567549242424e-02 1.541243979065473946e+00 8.024144570959307332e-01 1.027939381234160982e-01 -4.464405324647505724e-01 1.091128073662157583e+00 -3.733161890433241425e-01 2.284334759482482477e-02 1.087923827029946056e+00 -4.367752162413753303e-01 -4.811143058482724721e-01 -6.320169049590641519e-01 7.678527048778227213e-03 -3.967587775014137508e-01 3.911823851939423280e-01 6.475128642027427883e-01 1.365541327125548432e-01 -8.133413833902436441e-02 -2.007962567283831490e+00 4.215219693544728363e-01 -6.004143447783467646e-01 1.651217021401305995e+00 8.583377553429738516e-01 7.624554158955307304e-02 -8.537357953765853935e-01 -2.712149513481783569e-01 -1.237408522850801940e-01 -9.555184294457896854e-02 -1.254102591174967696e+00 8.261201743559650756e-01 -3.226805341000305027e-01 -6.547933534039157566e-01 -1.072042681081416982e+00 7.078032984812062667e-01 -1.414036991938360854e+00 1.773500403549758131e-01 -1.245999138148387475e+00 -8.512341824667901680e-01 5.883171741272046340e-01 9.949984956416723092e-01 -5.449358001585342670e-01 -1.183159177803921436e+00 8.619908885656298869e-01 5.918256647117708935e-01 1.037111738842948716e+00 -3.389068410675951104e-01 4.039845984383189093e-01 6.863372826870183241e-01 2.328423453976095736e+00 2.368079857510803632e-01 5.948054470115886616e-01 -1.378599590527544105e+00 2.410295428377123295e-01 -8.235232260652868286e-01 -8.302875173337720405e-01 -6.714602995899843219e-02
5.420049845091640117e-01 -8.118948101531200390e-01 2.257764539485237254e+00 8.808172195816523775e-01 7.774129566831265992e-01 -1.447526921130265709e+00 3.398869517041648858e-01 1.059379882213349555e+00 -5.512527015500867655e-01 -9.094025183516130095e-01 5.861903745320640874e-02 -2.420568535601010929e+00 -6.701079047901601360e-01 -8.787210008882211376e-01 1.034063856302829709e+00 -1.280799582574562612e+00 -1.207167379090125225e-01 1.295764690096790739e+00 5.470855776849296026e-01 -1.481476688354162574e+00 5.721549181058847022e-01 2.220434546461768077e-01 5.528902593914387653e-01 -3.852016420122806543e-03 -1.381778658233631552e+00 -1.403918698679606836e+00 -7.268638545876803247e-01 -6.420437156380491839e-01 -2.130340669291917344e+00 -4.137354915317401627e-01 -2.005978450881434672e+00 -8.459100097254299566e-01 5.525301639767722373e-01 4.394269870375740461e-01 -2.293652237689995099e-01 1.701241211968795020e-01 2.836454272342612271e-01 -4.803657724597750756e-01 2.682130830671452526e-01 -5.699145561977596308e-02 2.155658004377759285e-01 1.142214711648035230e+00 -1.260807594756963468e+00 -2.895190964915482223e-01 -5.269870732839015970e-01 3.359165700215967498e-01 2.129752842492216747e+00 -1.746842196418988691e-01 -2.157831225177925472e+00 4.634331757581569011e-01 3.714272731059886090e-01 6.061562001050679882e-01 -6.335232081667157011e-01 4.359176501462874165e-01 1.579337526544080772e+00 1.895811908522889722e-01 1.115790356397610372e+00 -9.713339734216674959e-01 -1.152281012900810531e+00 1.857832567264337875e+00 -1.440130778411427670e+00 3.118726487190311425e-01 -4.468565652818769496e-01 2.711486695918783330e-01 1.347825982283202162e+00 7.079278842127874061e-01 -4.165708171020717221e-01 -2.078342186470255371e+00 -6.994254175595634448e-01 -7.832793506134643202e-01 -5.174004222253657526e-01 2.300667485209849372e-01 -8.450164944623698993e-02 -5.333089054429726028e-01 -1.589976066696507484e+00 -4.332765509582848229e-01 1.333483314122741570e+00 -7.410888394135064505e-01 -5.196800871748026296e-01 -6.414181712531601409e-01 7.511427163098761683e-01 1.053518359750229144e-01 -1.402818635758901866e+00 -4.612418064520250605e-01 1.473683414314946871e-01 -6.518110220130084453e-01 1.535568839569346755e+00 -6.469484542790289172e-01 3.329894139102678730e-01 -3.739958473433185882e-02 -6.458824557127583743e-01 5.247393026352460410e-01 2.106562024843100511e-01 1.038088906510636233e+00 -3.640011223148149622e-01 -5.921877625098126430e-01 -1.339597395088566678e+00 -2.305831712698088953e+00 9.257380608311496228e-01 5.680172575058733964e-01 -1.236465270201090982e+00 -3.574878891056477818e-03 -9.876792161249912105e-01 -1.309523304139272870e+00 1.379764866817782654e+00 6.791816165591082477e-01 1.495128466777095211e+00 1.775956639735133846e+00 1.832443582819255345e+00 -1.135114515092260599e-02 8.593471435986138607e-01 7.006062775072101623e-01 5.569764763250469874e-01 2.945752163188396500e-01 1.571094615486743062e-01 4.339942771010477651e-01 -7.861162258456644292e-01 -1.168240884371567700e+00 2.286233549099601081e+00 -5.289311688923347132e-01 2.186883578256080818e-01 1.108212101418538653e+00 6.113643995945461374e-01 -1.550469989326737352e-01 9.249192370812597819e-02 -8.429974373857106462e-01 3.935312705256495125e-01 -1.320467069798630488e+00 -6.799885110996624071e-01 -1.177475139542011551e+00 2.114891647168385125e-01 1.567305090407957291e+00 -2.302641450488657482e-01 -9.581365816824851667e-01 8.211776817774614212e-01 6.515008748666811789e-01 -1.742872746767409192e-02 8.885425497382262172e-01 1.548453808156772249e+00 6.313118360722874689e-01 8.868818487822076602e-01 6.517233273920464143e-01 1.175136422324769780e+00 -7.942491022594239114e-01 5.176550113257740726e-01 1.343833759257615279e+00 1.237632950280982413e+00 5.627758689558249872e-01 2.705464712762417623e-01 1.461808317887394459e-01 -7.990085481944013690e-01 -1.085936426604488858e+00 -1.054980682755221499e+00 -1.631735729171103877e+00 1.873587710396126482e+00 -1.505239823546123956e+00 -1.994750297666773309e-01 3.171353871758872400e-01 -2.701548038290090048e+00 -1.948369368491903231e+00 7.498945861082646769e-02 2.421361866172972721e-01 -1.005802149737336393e+00 -1.003417614849418493e+00 1.614526049991467094e+00 3.018430444283207170e-01 -1.211634844309841919e+00 7.642222932678465197e-01 4.607647483880323441e-02 -6.565874822798303811e-02 -1.043931377848994826e-02 1.246525903088492593e-01 -1.214110280557006982e+00 -1.284608464692708285e+00 -1.118962421523117978e+00 -3.106567325618219133e-01 1.143012502799772623e+00 7.194009759024630468e-02 -3.163418349419587772e-01 -2.785677327073901588e-01 -4.422807018714946525e-01 1.729475505061215612e+00 -8.876143456999394665e-01 -7.123976395332943801e-01 1.164364751315390745e+00 -4.616558595206251558e-01 2.273766607403681500e-02 -5.019203822842706053e-01 9.640681827779536972e-01 2.683481442239666337e-01 -1.431474554265756538e+00 -4.244714370337348552e-01
6.886205067795551082e-01 6.955370686186227447e-01 -6.138052481452971332e-01 -7.404061435404603320e-02 -7.121204477980886960e-01 -2.005418638363499984e+00 -1.285184952199082353e+00 5.719883519422617191e-01 1.810486935986774570e+00 4.814560009282704556e-01 -5.508270572216626970e-01 5.525163324669852827e-01 -1.005755956109927851e+00 1.013065809859854172e+00 -1.049436200926532781e+00 3.663612821800789621e-01 2.181847998216125628e+00 5.199512577886499232e-01 -4.311470349134019497e-01 -2.131365064808689314e-01 -6.033320894280771451e-01 -3.253445835945885656e-01 8.063668794997373712e-02 2.318546580703503945e+00 -7.864048303212105573e-01 -3.623612561471977744e-01 7.144297209791474756e-01 -1.400973678800355310e-02 -7.936221075014052717e-01 2.840574098761500244e-01 1.223222659296869519e-01 -1.453053637372946794e+00 7.467313213981429110e-01 8.782396228565847451e-01 1.546779803780717055e-01 3.158951935990333415e-01 1.029888947064302590e-01 -8.693454449033638509e-01 1.458714795588772761e-01 1.427858233035622648e+00 -1.200479085814339097e-02 -2.173920251465287778e-01 -9.313001983268307526e-01 -3.482024688852748961e-01 -1.176378510823252510e+00 -4.155097512333361109e-02 2.228547577237068311e-01 -1.219871523289401294e+00 1.229120138429926623e+00 1.339040871927723364e+00 -8.304490122736589708e-01 -1.215875267169123530e+00 3.846743412809895402e-01 -1.728396798772914522e+00 6.489656997237419622e-01 1.912922803679320827e-01 8.292044983198398889e-01 -3.592075268382362574e-01 -2.782796259278341733e-01 -1.567337733812941503e+00 -8.147696181391815909e-03 1.214206641099703665e+00 2.052727350873274403e+00 6.767517977448748168e-01 -1.036195468290668664e+00 -5.731817175060356373e-01 9.115796030179587062e-01 7.436314543440201152e-01 -2.060445568802492300e+00 1.449132254940016518e-01 -1.009660871922108847e-03 -1.211141328435070275e+00 -7.297690059958840125e-01 -6.490666604643690052e-01 -1.475589629411687476e+00 5.892067035546153519e-01 -1.291383542635417880e+00 -2.404623667515381591e+00 1.179936960681011060e+00 6.604301007384596467e-01 -1.809159440741147096e+00 9.524895814964777774e-01 5.404656907500987595e-02 -1.248295091112559874e+00 -2.444894592906191821e+00 1.208994542570711733e-01 -1.917722432186184101e+00 7.779597313222456068e-01 -1.093294512008305741e+00 2.941771662119270769e-01 -9.396923446153091497e-01 4.697392044517875037e-02 7.655106542798937319e-01 6.893476284629249107e-02 6.809375816134726200e-01 1.052282326234995624e+00 -1.292102460743830505e+00 -5.584267079240348153e-01 1.939157511060408456e+00 -7.721272706557352761e-01 6.405460065695778304e-02 -1.241803648633333479e+00 -8.320188313951637493e-01 5.932649483194699647e-01 -2.046048283287310310e-01 -1.503163050485708974e+00 -5.527971012987780153e-01 -2.911212797475274394e-01 -9.771888573406480871e-01 1.878908287928666487e+00 3.422428338447598972e-01 5.884018740721658203e-01 -1.017404472660284886e+00 3.212865258842994565e-01 1.644185798202101534e+00 1.304006782724163926e+00 -4.853964211063104828e-01 -3.389371786650152013e-02 -1.630275553855392801e+00 1.777670562497411511e-01 -2.116779652052978300e-01 6.145034129783671917e-01 -1.243472465369670710e+00 -1.971901637429386511e+00 -5.233240502016084372e-01 1.174306152443106210e+00 1.164560788328189433e+00 -3.515624142052296563e-01 -2.071595440919552500e-01 4.040000545901097362e-01 3.041585504375511340e-01 -7.940489190253176011e-01 5.558917056832377579e-01 7.613630079702439213e-01 -2.582520387666870781e-02 1.008442863199655370e+00 1.070094101603886960e+00 3.849476012465274932e-01 -2.733736870704856492e-01 1.627932974294717061e+00 7.193870983722655543e-01 1.870623591684032583e+00 -7.750972406221183775e-01 1.462759792820354621e+00 2.048072389060599519e-01 -1.105518316112657828e+00 -7.852786053910517650e-01 1.056402869752500889e-01 -4.012987898624594679e-02 -1.540651447696362031e-01 7.414589287323284372e-01 -1.535902716204299967e+00 -1.276652132733394174e+00 6.731725492689989432e-01 -1.235926357878834425e+00 -4.237468639875031085e-01 2.839559121458216234e-02 1.543489600201737755e+00 1.337447395124975236e+00 9.626512585516590059e-01 -2.651555738155991992e+00 -3.936768643045706617e-01 -2.912025643602432212e-01 5.227200860412428707e-01 -1.588986625662340613e+00 -5.308247282316091997e-01 -3.713137303446483739e-01 -9.444327175113411688e-01 -1.923008906858182931e-01 -8.698073639361127984e-01 -1.877936091198967317e+00 2.944937182908780593e-01 7.762623703316098300e-01 1.058392247120726548e+00 1.468101231100248094e-01 7.701302077835662230e-01 -3.741603473329678797e-01 7.472141442686657253e-01 2.943416745756650243e+00 6.789296941589009204e-01 5.783554420457936995e-01 2.572879825034595780e-01 1.066453772733655603e+00 1.556037641884820077e+00 -5.351963751981212436e-01 -5.505954133999138023e-01 -7.051479536482618826e-01 -5.041760458880701901e-01 -1.847169713791231016e-01 6.654541840832920441e-01 1.088500183777126651e+00 -5.785111538841087864e-01
1.882965265739331706e-01 1.184086520971890710e+00 -6.352301011859798896e-01 1.265658894490380992e-01 4.010614503680773324e-01 -1.371850372708226296e+00 -3.750924918270844288e-01 5.912258343457513776e-01 -1.340097278741727793e+00 -1.332496348831418119e-02 -2.710441732825922267e-01 8.010475229834974897e-02 -7.113645315079452081e-01 -1.274521714527758476e-01 5.553064429041250083e-01 6.376162891416117251e-01 -7.586336919067196982e-01 1.175082845442005919e+00 5.708305393717819642e-01 1.579197605197134036e-01 -5.497425142218623773e-01 -1.134593412715933392e+00 -1.210830433149880508e-01 -4.366041716964570996e-01 -4.668490983436099917e-01 -9.636593755929695471e-01 1.220269715398420329e+00 1.425030614110620153e+00 2.484721709998451711e-01 -8.269620413719080965e-01 -1.242758379495813248e+00 1.006749505761518781e+00 1.827059829055227569e-01 -9.338062350395626154e-01 -1.098283268459573803e+00 4.511300024685583332e-01 -2.456164266108907146e+00 -7.461988011947631172e-01 -9.277153038277701214e-01 -3.302820196309746437e-01 -1.365141287281690818e+00 1.256345380081290930e+00 5.246396326274375133e-01 -9.347892269447065638e-01 -1.293971744800380019e+00 1.678841109420793565e+00 -6.468984502185050056e-01 -6.715189792319091744e-01 -5.452596159082422345e-01 -1.382659381165681767e+00 1.821013844961835021e-02 -1.088733012066627204e+00 3.924842530871126001e-01 -2.053950033977354206e+00 7.549363619582690754e-01 -1.132440393703083581e+00 -2.252190941475048780e-01 2.013895408901985817e+00 -1.766629865648000397e+00 -5.589132364351688809e-01 -7.078335709644949514e-01 6.161182548570329764e-01 2.385276566625663119e-01 -1.536691251428900618e+00 -1.566402482802510043e+00 -4.792677230572042757e-01 1.379987313833569984e-01 -1.592829081507100231e+00 -3.012090647919163366e-01 -1.419982813428591006e+00 6.885014132589841740e-01 7.935701408259843159e-02 -5.988751620764237726e-01 4.353094821882994570e-01 1.587498683923672937e-01 -1.402518652045892100e+00 -2.224073252714763083e+00 4.742776354498051128e-01 6.560175077782467445e-01 2.730800372915091478e-01 2.014317076992425681e-01 -8.475607509728968481e-01 -3.016461563905977750e-01 9.989015703594709972e-02 1.568639833138513184e-01 1.869283100181806212e+00 8.777132891357440903e-01 -1.934684585136728252e+00 -1.933574039883448892e+00 1.604016959766669359e+00 -6.770703397575160709e-01 -1.528502657700707701e-01 -1.837000549117176362e+00 5.459707569124113702e-01 1.065156234366009480e+00 -1.969041189853240947e+00 7.801450855093049475e-01 -9.562370238001780542e-01 -1.538987467974435308e+00 3.946491686050297987e-01 1.783210944471345094e-01 -9.041494133926033516e-01 -1.416056299304627730e+00 5.852991042220871964e-01 -1.204671050623522088e+00 6.668745700220102268e-01 1.525868926195165787e-01 6.998026819262669340e-01 1.116185317954942358e+00 9.878279703027623704e-01 -3.819455579887507946e-01 -2.170933764278369094e-01 2.248011728146636634e-01 -2.032907627181414156e+00 -1.882219702543544981e+00 2.823725401299116977e-01 -3.062140304908265720e-01 -1.134291868458639774e-01 -1.131935180233315241e-01 7.327722645265847268e-01 1.040279071793516613e-01 7.127804350754204932e-02 -2.655271005854581978e-01 1.354097910343891042e+00 8.032521065820855677e-01 -2.416690209592018412e-01 -6.225286317005176429e-01 1.106931338764246098e+00 2.059093495918269401e-01 1.346768443145394567e+00 -6.468875265377264233e-03 5.033510625063932764e-01 7.049499185822236669e-01 -1.386806204861077640e+00 1.002772182368746989e+00 9.090239594098828424e-02 -6.217838006173125320e-01 6.838325268900673215e-02 -4.879199173719412919e-01 4.836661324036222731e-01 2.033464906211576995e-01 -2.836244977190331418e-01 -3.443222192984340957e-01 4.571058415974957878e-01 -1.219380577579164848e+00 3.313023488535626004e+00 -1.477048862838754584e+00 -6.357171382088038225e-01 -2.286036371723162638e-02 2.185605180234007072e-01 -2.806634003534832500e-01 -1.270131617306095473e+00 -8.085120933943041877e-01 1.139794394494767077e-01 1.565258194599279673e-01 -9.774011013376611157e-01 4.946161672988437785e-01 -2.733211931019395635e+00 8.074671983886951843e-01 9.439714146172520359e-02 7.307064186015813645e-01 -6.087141630435006778e-01 -1.288699121955854565e+00 9.264981735809487695e-01 2.111344691533314222e-01 5.887137941441128453e-01 -1.323733320581055306e+00 -2.337198393836164567e-01 2.657379676165994020e-01 6.692796641603108165e-01 -2.276729588777993918e+00 1.366758741688355983e+00 -1.269030948752537080e+00 -1.106164361988111633e+00 -1.037194168487130641e+00 1.045403924485411418e+00 4.503408265657836140e-01 1.312570024677194525e+00 -2.795434049607055660e-01 -2.028824709605411059e+00 -1.048506913519690886e-01 5.791502800447957400e-01 6.982335079281943857e-01 1.832478925253648638e+00 -2.266981888722122918e+00 -7.700650555423239618e-01 -1.527126714857846568e-01 1.140209657245123909e+00 -1.687505502224602161e-01 -2.805519106029626952e-01 5.129165264914874456e-01 1.652441279489615500e+00
1.356320116153373334e+00 2.136522167636877023e-01 3.256044100794717733e-01 1.145007584144149687e-01 1.519589287904815178e+00 9.304486282579377265e-01 3.456756483348313869e-01 -1.869750963665837595e+00 -4.739229562602171875e-01 6.809437337051816863e-01 7.708847963456337826e-01 2.287452250707228962e-01 1.572803595508354135e+00 6.466098963912484399e-01 3.337493963478826431e-01 6.393613594826197399e-01 1.348355385889079550e-01 2.279672638743502344e-01 7.086936845720330780e-01 6.818228383281269567e-01 1.758767008045604707e-01 2.194135716638618769e-02 7.471877667029134251e-01 1.095443091469237240e+00 1.072452104064798517e+00 1.798980764330843085e+00 -3.162887775830846571e-01 -3.971598151488509587e-01 9.400364111393010313e-01 -1.736352316708257737e+00 5.238492099832662285e-01 -1.069294817658897750e-01 -1.517505327125731496e+00 3.211608146963725319e-01 9.914543785328322478e-01 -2.894799647680508514e-02 3.529004628216091399e-01 -2.670073946357066852e+00 -3.730425165269986576e-01 -1.171472445145277597e+00 -4.919460246566401129e-01 1.999858419297650680e-01 -1.259656696688759236e+00 3.421204461338528957e-01 -2.230742968119519554e-01 -7.440705697302506527e-01 6.113943332388589447e-01 3.664810400317451977e-01 1.115518331582235900e+00 -2.230580301118293196e+00 -1.068592359029180566e-01 3.605294468703539312e-01 -4.248554524414233091e-01 2.170196715215884364e-01 9.665193753376872046e-03 -3.710069484223807446e-01 9.157117569014259217e-01 4.509265471132054004e-01 -9.700120252672783661e-01 -2.220678277716261195e-01 -5.076256647953630158e-02 1.108084919495565084e-02 -4.537460544056751699e-01 -4.747297977010802028e-01 -4.194927172559052321e-03 -2.194339228543896181e-01 6.247536814374501368e-01 -4.410421890074098794e-01 -5.363587332939511176e-01 2.788311480942932685e-01 8.422792926565244587e-01 -5.141975804384770754e-01 -3.563536787522678662e-01 -7.609236926793172540e-01 3.948158460521241642e-01 -3.060756711655434170e+00 -1.483911859367827768e+00 -9.479987525111781554e-01 -2.535519900001531823e+00 5.192117401535574217e-01 -3.427169870159850973e+00 3.054994845984835838e-01 2.174378128508760999e-01 4.066301968169914738e-01 -4.229527624045539280e-01 5.576776398807337110e-01 1.493687039476611078e+00 3.392440491229041788e-01 6.275334277695522323e-01 4.726169127290514860e-01 -4.904047994987398851e-01 2.615538416031690794e-01 -1.466035091307762717e-01 1.579372598827291752e+00 -1.248546992663312372e+00 -6.179613294348913488e-01 -9.397102293749074464e-01 2.808248440387334233e-01 1.078956535036268205e+00 5.230845677526387849e-01 -7.762481994662068230e-01 -8.209478340403439933e-01 2.832773316321476192e-02 -7.249918115133217045e-01 1.171810108589304011e+00 8.304129987073469721e-01 -1.989058203192657914e-01 -2.356438004789569884e+00 6.726620998542762742e-01 -2.141765077909498327e+00 -1.327006819216520306e+00 -1.204755341329537405e-01 -8.603696443690156404e-01 -1.487678181683140144e+00 -2.137714857337403018e-01 2.834965928210899100e-01 -1.167114523602760467e+00 -1.381077382723523650e+00 3.748208899297478247e-01 2.367556864253693161e-01 -6.450416013573684326e-02 -1.209774206546568198e+00 4.492253790731899343e-01 -6.398640892616803688e-01 9.420616186902441846e-01 6.046856900066733820e-01 -6.142920393106733323e-01 -7.175006987336479680e-01 -1.539764106349301720e-01 -3.486729333624143945e-01 -2.945645189753106408e+00 2.209948020653796696e+00 2.148939258314544465e-01 -9.324697901529872823e-02 -5.493313657573921371e-02 2.428193040634858968e-01 7.774657579261469442e-02 -1.615770230344886205e+00 -5.953533402537223296e-01 7.481426156871293642e-01 9.207992234533257658e-01 -1.448800305514248876e+00 1.303879796490011955e+00 -4.986308280581580044e-01 8.662423483013886871e-01 2.313227427013116178e-01 2.564394515132452645e-01 -2.422084863770609608e+00 -6.844972728823900399e-01 -1.837208106366619687e+00 -1.287960227457982942e-01 -2.484233178663200481e-01 4.505777145722200672e-01 4.528974741897656142e-01 5.586575925854101454e-01 6.554829444101105684e-01 -8.538072084739194434e-01 -1.185110831364255990e+00 -8.870663326529677484e-01 1.703203019849156563e-01 -4.290502752099496497e-01 -1.036860728436610035e+00 3.053704111458862558e-01 -2.442625812134391783e+00 -2.193263742001878014e-01 3.260194992667401204e-01 1.788990273707224965e+00 -1.696464705887856361e+00 1.777311522165899049e+00 -1.728511674460764536e-01 -1.477795215536858331e+00 -1.507554882734118973e+00 5.659244083479839267e-03 -7.403856011677861781e-01 1.898690177035465609e+00 7.688242750292946237e-01 -2.574642595865690442e-01 7.616656638004152269e-01 -1.195854657330243515e-01 1.032096977949422678e+00 1.642609452248946056e+00 8.452762951916037437e-02 5.501854997373428757e-01 -1.650682819811261304e+00 -2.682362886627350229e-01 -9.889237455702336588e-01 9.281816130749693805e-01 1.835715937299797762e+00 9.572447620840282001e-01 1.109824386702988219e+00 -5.073090898732027787e-01 -1.854071841514704388e+00
7.774167667220803768e-01 -8.210368606933046154e-01 -1.773643053141950657e-02 1.494203464439215034e+00 4.601580918680332477e-01 -1.766561015906057186e+00 -6.599895248132306991e-01 -9.669014025062181439e-01 9.393826136789381609e-01 8.303716843203197140e-01 9.853490246520838491e-01 -5.229669560968907005e-01 7.949669053878662961e-01 -6.512922975809196102e-02 -1.045402109041281280e+00 1.759574133359212755e+00 1.241672478571856780e-01 -6.110331270002868909e-01 -2.381235550116405086e+00 8.679214140036703995e-01 -3.393939403829076551e-01 -5.215582695143639036e-01 -2.335851859431016531e-01 1.888031263136316307e+00 -1.425542152788958350e-01 -7.637392592866666385e-01 -4.254433613222250998e-01 1.629990879683619609e-01 -2.372430982089639429e+00 1.059320330148249445e+00 -3.359209986082196120e-01 -8.257892580046883868e-01 -4.933368594070081103e-02 -1.589264200773230273e+00 5.227180680746161823e-01 -3.222450275160313460e-01 -7.998047912840738904e-01 2.537584320962181852e-02 -4.389974183846139244e-01 -3.764718331662723072e-01 1.570917791997954893e+00 -4.903386846814322131e-01 -2.725655977348002246e+00 1.278351913736137879e+00 -1.869050975582063068e-01 2.046607438494910003e+00 4.194635362903787468e-01 -1.423648511580080767e+00 -1.462342272879289196e+00 1.101369937207992589e+00 -3.304027079854852944e-02 9.245636686161078088e-02 -1.247948103948388399e+00 -6.597680965556687038e-01 7.470168529329682672e-01 -8.556607545420877869e-01 -3.557941497296250588e-02 3.900120390075602073e-01 9.780115112938940758e-01 -2.242812758597910960e+00 4.717222532138559132e-01 2.087329586265017911e-01 -9.691080963058515962e-01 -6.183024073733355275e-01 2.348814667340732298e-01 -6.074144072869939182e-01 6.855136985377983938e-02 -8.938942792497734935e-01 1.462783885083740465e+00 -1.729686338333499718e+00 1.161296297482662665e-02 -2.017452069386251434e+00 5.298389914320578153e-01 2.893721859428631249e-01 9.936114259453417974e-01 2.577707909597343416e+00 -7.168913190913298594e-01 2.152362171391362544e+00 5.145429103716026020e-01 2.241992985096370017e+00 9.277859448250498631e-02 -1.000666712366491823e-01 1.212472048283664172e+00 2.452491372425237223e-02 -1.193688729130140347e+00 -9.374487397532385580e-02 4.777006465021219062e-01 1.383705647917261139e+00 3.192933613468358356e-01 -1.213723400473882164e+00 5.032490659623627405e-01 -2.421553734183006679e+00 9.952980372576120116e-01 -6.678850376883130879e-01 -3.517474708844182674e-01 -1.216622886235131373e+00 1.405582391259990294e+00 -1.884170116895021174e-01 -6.332684758654633095e-01 7.269275443941953796e-01 1.212299614152578808e-01 1.122788353241008646e-01 6.054607739831812108e-01 1.244739543920998726e+00 2.781658260449211273e+00 -8.574436830379740249e-01 -7.492743011721371138e-01 2.518481941708785588e-01 1.225838145592810235e+00 6.386093208736091584e-03 6.201368733495660202e-01 -1.368271549602440684e+00 -8.763632656617232897e-01 -9.545014756483229945e-01 -2.664126533130504182e-01 8.554230103650750650e-01 2.551467007615111915e-01 1.568051614825813012e+00 1.201635972818229758e+00 -1.182229618296199769e+00 1.569178605050349562e+00 9.995064945941821433e-02 8.139340227355081892e-01 4.579213817818347798e-01 -6.164181225413450926e-01 1.041835516277970441e+00 -2.992093404517983668e-01 -3.467510158833432277e-01 8.148973041980440701e-01 1.746752866361407364e+00 -1.843550149782966774e-01 -2.897556434134404557e-01 -2.602161948862546925e-01 -7.489535064617972582e-01 -7.307105376928401119e-01 -1.351319651741284211e+00 -1.389959526838630222e+00 -8.406657626675031469e-01 -1.416221015197275390e+00 1.763476694556856406e-01 -5.471142368661703337e-01 1.151705711747804894e+00 1.540417363516532356e+00 -2.027783688390428218e-01 4.622419449480292264e-01 -1.735036969246502581e-01 7.179694405003839153e-01 6.183313898799500663e-01 -1.357595351971442321e+00 -1.704500849058193657e-01 -1.535385449751173470e-01 4.952613491062562989e-01 7.414206582330689077e-01 1.195057787297101548e+00 -1.086114674904495425e+00 -8.383421594980594582e-01 -3.781863687771274685e-01 6.320653804036647783e-01 -1.621369288590505942e-01 1.409276547493279796e+00 4.736494295664425702e-01 9.774436791282131720e-01 1.002700413652786171e+00 -6.338012499587286630e-01 3.192950138110784986e-01 -3.266577615897333087e-01 -6.552086152172689193e-01 -1.610766295146858873e+00 4.034473110638236437e-01 4.492329997125190516e-02 -8.488379928131543073e-01 -6.471618109429218002e-01 -1.066466164477772649e+00 -2.062468909739512968e-01 -2.548493744002824912e-01 5.780401369761217767e-01 -8.577763766746669960e-01 -2.202141852197017968e+00 -8.275963914009241140e-01 -4.793673734025735156e-01 2.062215467167660687e+00 -1.961160544941915829e+00 1.142068386050901080e-01 -6.217523569569779474e-01 -1.869364839996387806e+00 6.932045083360044435e-01 2.076781191493906054e-01 -1.658268981268626208e+00 1.675786397599235755e+00 -6.439741798342620838e-01 1.046109387303157723e+00 2.181339700138676674e-01
9.565902397138084101e-01 2.047828094440012625e-01 -4.827619103828000302e-01 -8.683288656000338612e-01 -2.219150323868500085e-01 -7.803163809339322965e-01 -1.228476339178366850e+00 -3.748564080199109916e-01 2.920448823381350048e-02 6.632338193606795995e-02 1.906587975739815644e+00 -3.653332930980689452e-01 6.215115931100615443e-01 -1.016954311849203485e+00 -7.183901430940978772e-01 2.301812911853875210e-01 -7.003242487013886519e-01 -1.054994711204947588e+00 -2.033500536469786457e+00 1.380560010683093086e+00 9.312284212942540940e-01 4.646969261262158257e-01 -3.155167905620359647e-01 4.031647950550737436e-01 -4.680753065642014876e-01 1.594117384291148909e+00 4.909363751718926472e-01 7.346112674623814787e-01 -7.187485998575955382e-01 1.258782581936977563e+00 1.204629855730007248e+00 -1.576152230928147713e+00 1.180198227455467652e+00 -1.846818027206049928e+00 -5.983393505912300014e-01 1.247545009488940204e+00 -5.248793799323081544e-01 -2.730382979072348837e-01 1.155631450946715821e-01 8.329771828943032252e-01 -9.322624346654206917e-01 8.816726148436614396e-01 -1.754092419590101093e+00 -1.598298647608287562e-02 -5.671934439969734676e-01 8.641701138137558580e-01 6.206524223459639750e-02 -2.679916440954874593e-02 -3.680120611225426441e-01 -1.173543204895867165e+00 5.810097838970791351e-01 -1.064999504264176222e+00 1.969957322436335811e+00 -1.425911321981114879e-02 7.835005606849090309e-01 -1.201755740049231580e+00 -9.770471060339280811e-01 -3.457282846693885414e-01 -1.056883691953005577e-01 6.390712825595644409e-02 -1.582218032546691688e+00 1.731165220718259734e+00 -9.132180311583338872e-01 -6.427912973191243218e-01 1.343589622409502526e+00 5.038039601536195011e-01 4.879151787486614711e-01 1.223532852664285020e+00 -2.573430834291702829e-01 3.735150891308301052e-02 1.084302937354017615e+00 -1.074288383420494819e+00 -1.020395557360830763e+00 -3.994875253374621793e-01 -3.976709465217278389e-02 1.361894617074561387e+00 5.507670396945461011e-01 1.547615979170853251e-01 -1.056088547230200847e+00 -1.029172321933662371e+00 4.405817950500837687e-01 -2.696042316207519218e-01 -1.899543233701806999e+00 1.644936587004196982e+00 -6.604958050461144925e-01 -5.501086084665016696e-01 -1.061898864022684075e+00 -3.277304889924732567e-01 2.144655906978625293e+00 -8.202058443561772716e-01 4.550380491247622561e-01 3.801167072559314408e-01 -8.260551698143611121e-01 1.261159111328107763e+00 1.718601285346566865e+00 4.156502287477061852e-01 -1.002034700769441455e+00 -7.326919139242118462e-01 7.770210334816478603e-01 7.351331341050948431e-02 3.163796047982963544e-01 3.263092600756155592e-01 -6.741096737268194028e-01 7.949073232766649122e-01 -1.778603484538941126e+00 2.820963123269702999e-01 2.321362727727628084e+00 -5.423572823794148290e-01 -1.109400795597515810e+00 -1.989538450789146706e-02 -6.369747281775126613e-01 -5.298839859665889218e-01 -3.814983811115228995e-01 6.834909091452755214e-02 -4.422182460523354508e-01 -1.087686908954741266e-01 3.045616560878679907e-02 -1.899738592330427078e+00 6.773050461211166384e-01 6.068346271768031430e-01 1.086719305668343433e-01 1.987829347028668980e-01 -4.823766940509993106e-01 -1.328391119650610630e+00 -2.521486244596827381e-02 -6.964116066452249454e-01 4.201891203525641161e-01 1.482089751486797891e+00 -1.414204120093693229e+00 1.965954010992829959e+00 -3.846542953296309131e-01 -3.263798254654909914e-01 -3.792302512664356140e-01 1.060165556280053961e-01 -6.630561903912848276e-01 -7.312371106551512900e-01 -9.120466468008756600e-01 1.017007197946126817e+00 7.204780328138460366e-01 -1.072385487899913059e+00 8.332092906519038555e-01 2.520445116000644137e-01 -1.256064293365735551e+00 -6.908072136906059368e-01 -1.345348081073300728e+00 6.808363908750382221e-01 1.554114491740920423e+00 -7.002469456432368344e-02 -3.002663473383805348e-01 6.853390305993096732e-01 3.484614612890621910e-01 5.692650555861653583e-01 -1.872734454469209275e-01 -1.673457220457118255e-01 -4.860465783524657302e-01 8.173439685884555106e-02 -4.156033132821280174e-01 1.677817461477332017e+00 7.844003292519665660e-01 -2.860223506755152911e+00 -1.579379570820099499e+00 -1.507789268503745950e+00 -1.747200158941679959e-01 7.900164139890392123e-01 -7.922015240168168715e-01 1.739401979503848172e-01 3.870012305652886231e-01 -3.751787473520450944e-01 -4.306457380701864679e-01 -3.531333239363966814e-01 7.378795400650924874e-01 -1.140920481461766695e-01 -1.418207309937556504e+00 -5.076998587562373544e-01 -1.405850523078770037e-02 8.582312285262111429e-01 9.174139762800981313e-01 -5.523577065134423897e-02 9.984706683871630295e-02 5.549377769400427596e-01 1.996517439680573214e-01 6.186844272283753554e-01 -2.201110869039085149e-01 -2.350034839858871349e-01 -4.609779910951595783e-01 2.623004443380910766e-01 1.111868693261630764e-01 -1.376772334325889746e+00 -1.109763547646698489e+00 7.890528010249734381e-01 -7.105763301045451286e-01 -3.148759851265957588e-01
6.015988236021481139e-01 2.532488214517585323e-01 -8.222588385269626876e-01 8.089673973654675221e-01 1.288201628348050409e+00 8.288454708354312528e-01 -4.233666662563794619e-02 1.316524656869405119e+00 6.094882262362349978e-01 6.374312256058173309e-01 1.490624446527505809e+00 1.489978709559856562e-01 -7.894635959911177059e-01 3.352285183613200603e-01 3.014235236533636897e+00 -2.577008001700077156e+00 1.113198417058782086e+00 8.241450904048452930e-01 -7.787323929646855492e-01 -5.087176170308207457e-01 -1.461646468435171320e+00 1.116579773860335134e+00 -7.003537488078503959e-01 1.005279837235060869e+00 -1.987865809533067241e+00 4.494486737096509144e-02 -8.001124765698415242e-01 -1.470454284268487288e-01 -4.455916243811293143e-01 1.330819905669811565e+00 7.417338047660513300e-01 -2.073407268347691734e-01 -1.950147059745618305e+00 -2.698108792497938557e-01 -8.109772060275645122e-01 -6.655834629850202466e-01 1.210469599209492042e+00 1.252303092567351284e+00 1.198069791602050405e+00 -1.143610376378162430e+00 -1.709216822529631807e+00 -1.373965603535803215e+00 2.109784690495596138e+00 -1.947287008924998217e-02 1.663381012357283417e+00 -6.583341252030104895e-01 1.865352411753473105e-01 -1.038834278798276056e+00 6.133522203930487082e-01 -1.470273249550226202e+00 -5.153109719990469628e-01 -7.530279442506087051e-01 6.992342926920260826e-01 -1.415069596562096021e-01 -1.217730644246077354e+00 -4.424137720407917418e-01 2.552999116489454989e-01 -1.675564989003288874e+00 -8.336254002680476560e-01 2.461943680932604239e-01 -5.919899778493076248e-01 3.812938920201659476e-01 2.618799331367980265e-01 -1.969830898836291588e+00 -8.636259371513543837e-02 -6.577252282556307339e-01 5.523186199325507140e-01 -1.467648976873871414e+00 -2.431625472485519968e+00 -4.566380706091094921e-01 -8.708127904516268503e-01 -2.234968382044706658e-01 9.936443471053992837e-01 -1.751475298210813936e-01 1.955717634978232922e-01 -1.640963693126425149e-01 1.170394090660754616e+00 -1.858018598741324245e+00 9.288248945143210422e-01 -1.590678583645538158e+00 -1.019046414279975554e+00 4.698995046231428385e-01 1.433062313394749543e+00 -1.025932455860466275e-01 5.864592854554970813e-01 1.122543372897405467e+00 1.790444423571701249e-01 1.765922396098332126e+00 -5.274266620388350368e-01 -1.986313030534136437e-01 4.127240722257845551e-01 1.236572186530207063e+00 9.712162072489214371e-01 -7.767921656872688319e-01 6.323834731977253654e-01 4.375050223700266416e-01 -4.054584470718211597e-01 -8.368346287464398792e-01 1.106818302661188413e+00 -1.546130463264189681e+00 -1.361553479444554071e+00 -7.959022812071416819e-01 -4.812113348311728434e-01 4.315454536307318234e-01 5.314585303322040266e-01 -2.198175295290710207e-01 -1.012044148132017929e+00 -6.606387328794401936e-01 -2.429222810335574523e-01 -4.611626902457295896e-01 4.786557885823098935e-01 1.051318469815642143e+00 -7.579799154623483304e-01 -5.914243006100167177e-01 2.312869421261414260e+00 -1.354238224072520813e+00 -2.761533658271101213e-02 -2.966181980293260481e-02 -1.034331827140168691e+00 1.441634623588837094e+00 8.682478602478216345e-01 1.027265252840505516e+00 -1.442320685112607803e+00 1.324624678577605241e+00 5.197489137149120531e-01 1.459655963815314816e+00 5.955971578491687790e-01 2.230609007609389224e-02 -1.061756055378275887e+00 -1.816211876811238135e-01 -3.242400840541760365e-01 -1.293547585029844793e+00 -2.975400782427333746e-01 -5.347104988639755918e-01 -6.677035454271759152e-01 -6.271225753108745637e-01 1.535316299440664389e+00 -1.627686525978200738e+00 -3.587908523297849706e-01 -7.965412542389077588e-01 1.023635677170463137e-01 4.662340588357918314e-01 -5.079986989980327383e-01 -2.486362566552120443e-02 -1.668506568379385158e+00 7.867293492996378923e-01 1.087061491301439364e+00 -1.205766706885605943e+00 -9.991204060671160514e-01 -8.003142595267896953e-01 6.619343734861526940e-01 1.087314857586562988e+00 -1.478509866318445942e+00 2.158969030506005637e+00 3.019902381717898265e-01 2.200400325443566674e-01 6.946598225817202099e-02 1.359934318538742248e+00 1.721378224839037019e+00 4.352749810156648635e-01 -1.139054504720155458e+00 -3.811661106879709049e-01 -6.824546425849354891e-01 -5.832764177104935444e-01 7.040119605506246492e-01 -2.575342021460481912e-02 9.680051848732053321e-02 -1.315096892922400951e+00 -7.723850105959541024e-01 -2.232842555728610234e-01 5.036005061838210173e-01 1.232872826704044522e+00 -1.933025465985934721e+00 8.938218289355377433e-01 -1.189289775738978205e+00 -1.364924527201003823e-01 -1.553318608014406133e+00 1.030789922644650636e+00 8.978290017408074863e-01 2.560543940005761243e+00 2.132092201355114902e+00 -7.059565666428410102e-01 6.492743919197395686e-01 2.385158198870598045e-01 -4.244658999799736931e-01 7.853931976514719748e-01 -1.256119935080298289e+00 5.024655679642000064e-03 -7.808116238839201140e-01 -3.851277237962452693e-02 -1.510106060907629555e+00 -3.618841151600192263e-01
1.108954793361578706e-01 -2.636329724986556378e-01 -1.314420535703286763e+00 1.429208839841397349e+00 1.062823292713790425e-02 -2.660908797092380040e-01 -6.208163362457137791e-02 -3.262295197102731970e-01 3.517770352634464470e-01 -4.338759487049703711e-01 -9.739403024945956222e-01 -1.655436325762371208e+00 -1.342207798409470243e+00 1.375234835669819911e-01 -6.042237716159871708e-01 1.571613051431698937e-01 -1.513653298453044582e-01 -1.366795051609377976e-01 1.916332879779724940e-01 -1.122447838788895647e+00 1.526288392130523919e+00 2.222033895326326114e+00 -1.405246608997305247e+00 -1.228936532029410333e+00 9.254961154394057976e-01 1.186933337309039160e+00 -8.979819235529475918e-01 9.360174760084224443e-01 1.183046193449941219e+00 -1.290832216878162519e+00 2.999977969214673301e-01 1.340876819115351948e-01 -4.365991319568658935e-01 5.319391894356779726e-01 -5.377176677059825050e-01 -7.549337798169930558e-01 -9.034983881793073879e-01 1.401230994074580474e-02 -1.397317406256060046e+00 1.202471790781456940e-01 -5.303982171194426831e-01 -1.007156644341848928e+00 -1.166752308914724923e+00 -4.507603585591917206e-01 -1.561408512084830856e-02 1.128302770901736363e+00 7.868657150327169614e-01 3.783161925740202158e-01 -4.020070911891944210e-01 3.150446824701585991e-01 1.881049654761318690e-02 -6.735394640782829123e-01 1.043264379682194987e-01 5.247396223830207429e-01 1.224861140576400942e+00 9.293454122225450198e-02 4.079941723612883764e-01 -1.978621853764828353e+00 -1.367462313218812175e+00 1.015992088478001598e+00 -2.407439151261836774e-01 -1.224926383293084786e+00 7.878079228168095582e-01 2.385911756055864585e-01 3.071274723204913126e-01 -3.717620367631077529e-03 -1.399839713424134269e+00 3.060853446128791178e-01 2.179652839410567144e-01 1.001646204980346649e-01 -1.408224047231707132e+00 5.137638079050216300e-01 2.080823627255071084e+00 -5.213310548894009022e-01 6.018784251729171197e-01 8.431743724683821162e-01 -2.582693226875263370e-01 7.148080204280682359e-01 3.362959158616754540e-01 -1.492339896699060642e+00 3.243183280312810224e-01 7.098337265365636251e-01 -1.220608908302438289e+00 -6.589135800256742392e-01 -1.007498812928464549e+00 -2.199834095026207970e-01 3.399465060728985577e-01 1.560916035597601503e-01 1.164899109987898029e+00 -3.876405816526125592e-01 3.446113541479837727e-01 7.921586247840494144e-01 -1.475270945458878824e+00 -8.695320095912022484e-01 -7.076490836110029825e-01 3.483488578681859793e-01 -6.690551168937102222e-01 5.139476384809723575e-01 8.829157432621295709e-02 -2.697801906429052043e-01 2.051424889025791620e-01 1.017304286745471575e+00 -1.596377265821515845e+00 -9.697187428597437986e-01 1.472284694558454232e+00 2.224776327755582928e-01 2.074661419574330978e-01 3.820946903684815932e-01 2.681083020201392442e-01 -4.072742328527143019e-01 3.965497910235399326e-01 -8.091591191975698871e-01 2.087561656006886313e-01 -5.567939161872009768e-01 6.234771832899331789e-01 -1.835136622819230068e-01 2.987695397652950779e-01 1.656065919723406221e+00 -1.901550165661382241e+00 1.272450211847904189e-01 -5.522323451476043310e-01 -3.849543140166858946e-01 1.672286490154979433e-01 2.314105036511867608e-01 -1.352354960445466769e+00 -1.423832537071336057e+00 5.453694159659922686e-02 -7.846312990992551084e-01 -5.026635075441510114e-01 5.535525773516635217e-01 -1.506442108794890267e+00 -4.297907233335843680e-01 -2.067951328864823801e-01 3.977068806723233485e-01 -7.315284943708065812e-01 -5.244544581229837465e-01 2.921211134894601824e-01 -8.886517019740423073e-01 -3.290222824897293119e-01 3.810072651480199135e-01 -5.387559768792280802e-03 -7.564015955807755764e-01 5.652981663636053034e-01 9.482886662992850990e-01 8.675966165537285502e-01 5.956743691987401723e-01 -5.023285701694346628e-01 -9.996891454356259255e-01 3.028728261908925634e-01 1.088753588706155906e+00 1.795830521974801364e-01 -1.051618427605345740e+00 1.955198980246745766e+00 1.097643270971533774e-01 -1.765311142107916786e-01 -1.585983155928600841e+00 -1.556585465448968808e+00 -1.709784232675804594e+00 1.234266220228923183e+00 -3.223086344923334345e-01 1.376898273783112581e+00 -2.418580434184853523e-01 -1.577320025203589882e-01 -9.715612932567030402e-01 -4.160797857683002920e-01 -1.240404750992901928e+00 3.852406465772011401e-01 5.235941131889703115e-01 -2.606396446629671626e+00 -4.435118818674964603e-01 1.945210810836664139e+00 -6.022102620770490855e-01 -5.028517799223805040e-01 -2.834565713068534221e-01 -6.069239871147639187e-01 2.389894371575563004e-01 -7.953347540832376161e-01 5.952045103086622824e-01 -7.054114956526233993e-01 -1.813352597686714029e-01 3.363384085013916835e-01 -1.657246728203764785e-01 1.124380468651883014e+00 -1.138855366238948064e-01 -9.743562405255514758e-01 2.815747765651324674e-01 -1.452753768997208761e+00 -1.365146535532047789e+00 1.971592682436543176e-01 4.115114342682895665e-01 2.101337547337783218e-01 1.454480405672537113e+00
-6.575895037470842475e-01 2.757094417511483098e-01 -4.005442346139128085e-01 -3.560792901848749969e-01 5.653364561977229918e-01 5.725225384295566933e-01 1.312886295709891071e-01 -1.114897844172461294e+00 7.055697120200935535e-01 -4.494521575095978272e-01 -1.829232916251074093e+00 -3.066206035871567592e-01 5.113091914119303194e-01 3.124726492269087538e-02 3.062617801845975429e-01 -4.142044187760673957e-01 8.006327945792739154e-02 -5.879800953492791971e-01 1.218648969927352388e+00 -1.003789473954375344e+00 -4.897147667859248488e-01 2.029516246258858125e-01 8.822400359828900251e-01 -1.631128715306643828e+00 -7.542458806535162763e-01 -9.559381087593246118e-01 8.033835071016999230e-01 -8.910915268152406199e-01 1.834054216598931086e+00 -7.256385487535264023e-01 8.318285183914846392e-01 7.449308962894914954e-01 1.369748272611996276e+00 1.428321088777946724e+00 2.521657721813614500e-02 6.161266483368080943e-02 6.843039292861838874e-01 -2.110167349271494519e-01 1.491913751428633583e+00 5.219605676156729990e-01 -2.836212787331766627e-01 5.132750723428308737e-01 -2.396542940634655006e-01 -2.922496384259196667e-01 9.434367576254101273e-01 -1.842620475668163282e-01 7.120900783641794796e-01 -7.295835852645353448e-02 1.258762079266052825e-01 1.592515546110358837e+00 3.252690650865632249e-01 -5.152313978498318341e-03 2.223442742677911033e-01 -5.870788046809363170e-01 6.085198450337379050e-01 1.503970623328478640e+00 -2.170149545187106399e-01 1.608690923628108005e-01 -1.054655476376259671e+00 1.329434803417511413e+00 -7.104464692038802154e-01 3.027428383412373858e-01 2.160287055341002793e-01 3.746758291207089031e-01 1.396698944298696787e+00 5.539897868206811182e-02 -6.938201572685814833e-01 1.453415227754992767e+00 1.042053009653857609e+00 -1.746168419179844611e-01 -1.948763956632681427e-01 2.732561623336534143e-02 2.215504251912995271e-01 6.924434049762788757e-01 -8.899848912069524554e-01 4.337463608276447280e-01 5.573031891309546820e-02 -5.874298752011541946e-02 1.115398774974768470e+00 -2.671277983375737117e-02 -1.849237744619625756e+00 -9.818651487748395468e-01 1.055261492730026118e+00 -1.300720672431335379e+00 -1.290118392583452733e+00 -1.240360833919738948e+00 1.549656476871936750e+00 -3.160338345877413552e-02 2.897363446145365673e-01 -4.102629895089275891e-01 -1.713351969857694224e+00 -2.170039819113605883e+00 -1.555681112669794197e-01 8.461323021446699455e-01 -8.587769313950305294e-01 -1.044303412875536630e+00 -2.282144569944815959e+00 1.556624512574453778e-01 2.975827462267423007e-01 7.588765838034855493e-02 5.003721031010559539e-01 -5.259276538575190507e-01 1.493977707173885783e+00 -9.554242887555977060e-01 1.383313959936498250e-01 -1.201213715838706175e+00 1.072377530271129364e+00 3.682122037187869346e-01 -1.035724326973828546e+00 -1.389839798129443693e+00 -2.042751783717678737e+00 -1.009199312150685257e+00 3.917176831607911414e-01 5.195114685378579011e-01 1.344578955759897276e+00 -3.633122032603042784e-01 1.157205257120502928e+00 -4.483406199118076252e-01 -4.215621034742672579e-01 -1.561888963421410814e+00 1.698423618679616220e+00 6.137779079208867117e-01 -1.028152959458951354e+00 2.477283010695091603e-01 -4.984042744846286510e-01 8.220118361072294988e-01 -1.170012308777175880e+00 -2.073405371016574517e+00 -2.892073235589107116e-01 -1.254987664813438153e+00 1.265916341889870456e+00 5.477793998606044629e-02 -8.565878980998517522e-02 -1.533753363356612942e+00 -6.358996862086112589e-01 4.763100350416539230e-01 -9.053798553081117140e-01 1.048112241129106836e+00 8.141416072643011814e-01 -9.340225837330781711e-02 -7.408820198066039531e-01 -4.953934849613418900e-01 -2.290825298740014393e+00 -1.578581228226797695e+00 -1.272355844983190432e+00 -2.642776106182615603e+00 1.122763960999878297e+00 -1.193578609264534629e+00 4.128301965540630003e-01 -2.886338402950742663e-02 1.097365461005570975e+00 -9.937474595189282889e-01 -8.793943756573467663e-02 -6.521152255509732321e-01 4.629584585559582549e-02 -1.054480838776541196e+00 -1.143553433368736938e-01 -1.116188282794417175e+00 9.561251130662596909e-01 1.028666918502807670e+00 1.740731471891490578e+00 -3.389221844272281015e-01 5.329876028818003597e-01 2.046061831965714450e+00 -7.309198373895290368e-01 3.011800149884134581e-01 1.295463689556776987e-01 -7.416702234762960755e-01 -3.960783743907523302e-01 -1.627623150363630422e-01 1.081376962428356681e+00 9.781056651399953061e-01 -9.001491139656359053e-02 -1.374520957688233569e+00 -1.502169759392651516e+00 -2.295962941601516760e-01 3.122604291244649444e-01 -1.770758946731069816e+00 1.253989227270789542e+00 9.160654194394356464e-01 -1.088445098910897496e-01 -1.400550920794010334e+00 -1.263315225207013892e+00 6.292119977464827318e-01 -1.648839020680347600e+00 -7.262300044873152283e-01 9.008676014423965678e-03 1.296738250282446270e+00 -1.663503781322451358e+00 -1.436871286303704531e+00 -9.465894383853871163e-01 -4.604908648324230747e-01
