-1.400992112908174603e+00 9.541050042206494775e-01 -1.598611380133942994e+00 1.160599470361601826e+00 -2.650956750996868116e+00 -1.999219365238923130e-01 -1.015863391655493331e+00 -1.132483868735232102e+00 -1.465281997964872351e-01 6.567806364339910941e-01 1.256247875749702869e+00 -1.163442204880798636e+00 -3.302033452874902908e-01 5.311317929459579146e-01 5.302307770944465481e-01 -2.927191147778777647e-01 -2.344641215142934110e-01 -1.008250680611706862e+00 8.787289721120059571e-01 -1.788412686364415416e+00 2.205400588659258143e-01 2.617333855207882864e-01 -9.339190345292390782e-01 2.846898275687072655e+00 3.722657400077385437e-01 1.526541538842751233e+00 1.031371945661079703e+00 5.238238102468073532e-01 -7.059785553060230479e-01 -9.705384126194855909e-01 -9.400412908016976266e-01 -1.203227145656966313e+00 -5.676615009203553885e-01 1.720207827334695183e-01 1.399129523730067992e-01 1.566477381268200686e+00 3.726776540114172254e-01 -3.406821341689820204e-01 -1.232422800328228721e-02 2.261143639884324874e-01 -1.356342667094703192e+00 -9.139069582543235537e-01 5.139224441629952622e-01 1.170097413851105328e+00 2.619734409333461800e-01 7.118336618852409980e-01 -3.958532291957722049e-01 5.709273587855184795e-01 -1.185620144281863908e+00 5.708984882858332277e-01 -6.856275749284329590e-02 3.108330153711792998e-01 2.158683977074724036e-01 9.508384298588667960e-01 1.129006515308985437e+00 2.324746510324589011e-01 -6.436610892409601048e-01 2.229049386064724025e+00 -2.277904381714922905e-02 1.426776590717842241e+00 1.472348263313724592e+00 1.181807596568353880e+00 1.782351207060984155e+00 -1.130601757234649174e+00 -2.731257871014214356e+00 1.539433236895221269e-01 -1.122971894824301264e+00 -5.121046104968202117e-01 9.151592678521405233e-01 1.088429286841461785e+00 8.361746237041033369e-01 -1.608381770262797827e+00 -1.338201088221711910e+00 8.668713894294675926e-02 2.623142477706770781e-01 1.936854814287467530e-01 9.122531754896526790e-01 4.216470257798545784e-01 -1.962267159964915242e-01 1.039359103053918654e+00 -1.196651737885016553e+00 -5.148100385051666006e-01 -4.629863276052285648e-01 8.986743201251660984e-02 5.291897639275660037e-01 -1.309261398764289375e+00 -2.718372558994358590e-01 -1.094333011372585068e-01 7.008780827016918014e-02 -1.663666141554386080e+00 -1.099135852015481474e+00 -1.490173788047058023e+00 -5.134066691724143983e-01 7.516232370557830444e-01 -5.035006140350597320e-02 -4.895796065221695859e-01 1.266681958300255317e+00 2.013693957192441264e+00 9.212468221521602496e-01 -1.228902117899615537e-01 -8.443074561416822332e-01 1.081006961169513669e+00 2.390191592867105252e-02 1.306073720144006911e+00 -1.259259193324803183e+00 7.674902346412025844e-01 -1.115281678141792465e+00 1.574140990190382894e+00 -1.399603102114576281e+00 -4.525388464977385672e-01 -8.984200062728910918e-01 -1.210668180226813107e+00 -1.173186127884923158e+00 3.443358909537293511e-01 1.860017741233115363e+00 8.964045284300139471e-01 -3.892913356157803317e-01 7.040611835466619173e-01 -1.242832770289095334e+00 -2.330926085909585388e-01 -3.749997303280141470e-01 -7.318112412981725434e-01 -5.651654924930424873e-01 1.677630151893535482e-01 -1.198620396558854218e+00 -1.319243724909950899e+00 -2.742773155683498887e-01 1.664147249974820553e-01 -9.577233556080119170e-01 -9.510429066740727633e-02 6.134099016387086767e-01 1.436210959453003477e+00 5.372166264245480383e-01 1.057149914428834547e+00 -7.711945821530049594e-01 1.071835827248269535e+00 1.350755409526178896e+00 7.817518997397812086e-01 1.389526121464127462e-01 -1.391634589400312816e+00 3.656475964947533130e-01 1.131545740808915568e+00 1.059763588804315759e+00 -1.492688681297231479e-01 6.375442045488320941e-01 -2.752602571935554021e-01 1.137430349575639710e+00 5.974055546165050190e-01 -1.292757481781204587e-01 -9.837646981220056208e-01 2.126146198594381698e+00 8.344309215236496435e-02 8.137795501499774098e-02 -9.562773687433454572e-01 9.241076542757651335e-01 1.405141486752947921e+00 5.533593247630232970e-01 9.875963640815020872e-01 8.566750395768731041e-02 7.313885897408874959e-01 8.384780981983501746e-01 5.848223069677991326e-01 4.994513073495339683e-01 -1.172278547497870527e+00 -1.077463498096057126e+00 -2.447578215734630414e-01 -1.235991988162985944e+00 2.155229473309232535e-01 -6.229511810027481555e-01 7.637314124855729691e-01 1.379077446519799965e-01 -1.239850971844693284e+00 4.923191014351036010e-01 -3.752802265687958383e-01 3.751866012565872599e-01 -1.426879501176701703e+00 2.819325174302324544e-01 7.121024768461673427e-01 3.620330557672499228e-01 4.617824174888437994e-01 2.470702572157782162e-01 -4.605377375638688986e-01 4.128776434591576172e-01 -9.023090265434394741e-01 5.748472605684883385e-01 -2.437929795401480304e-01 1.137084707904246206e-01 1.525487391690990846e-01 7.788054361918425039e-01 -2.405633594036724610e+00 -1.638632656992216496e+00 -1.040432560167595222e+00
1.145167012129489348e-01 7.529664451416716309e-02 -1.698905883532554117e+00 -1.188692986829151810e+00 1.403229357020995050e+00 4.230210086439972206e-01 -6.979272424809755959e-01 1.089846707911370283e+00 6.106035648574783536e-01 -9.397708329322190801e-01 8.592688191683771626e-01 -1.270283264735211359e+00 1.014263667545391767e+00 -7.113456660123729236e-01 1.840751704033771308e+00 8.111602312312066188e-01 1.752967110896488823e+00 -8.060841955171714479e-02 -2.370405266036344383e+00 2.589831310730567604e-01 -5.265520808652358609e-01 -8.887570608835482222e-01 -7.851364681865723449e-01 7.682169537849529162e-01 -1.222504168377013117e-01 -2.855150032689715567e-01 -6.571510696783576799e-01 -8.247847206120209052e-01 2.627427887384680694e-01 -2.480083437954049064e+00 -2.805682126783182184e+00 -3.624735620344483600e-01 -1.607956745479982574e-01 3.587358061803875287e-01 -8.589241148166220086e-01 1.448652705117976947e+00 -8.605115041199111747e-01 -1.280519107950437885e+00 -1.283707501089005776e+00 6.530650877247324848e-01 1.066303428714964863e+00 -5.484443138736777579e-01 -1.773260641063698628e+00 -9.576800597391398329e-01 -7.326706892162349050e-01 -4.087183355259865203e-01 -1.025036029908660717e+00 -4.387488445261837899e-01 4.341399168355946081e-01 -6.867337783839881915e-01 -3.678868272433423736e-01 -1.859352219084093649e+00 1.350933218373664868e+00 4.781998636732110453e-01 1.306817618843262085e+00 1.781998936381785914e-01 5.768453653207834542e-01 -6.683874195015184760e-01 2.255826225034548216e+00 6.836226925487031147e-01 -1.275750228097815298e-01 9.642252345704623029e-02 -4.517119042062525680e-01 -1.547709970722671302e-01 1.654004798462052284e+00 -4.612284966965392585e-01 -6.501225619957139434e-01 6.598571805448280037e-01 6.695004218064897206e-01 2.177273282392508391e-01 -5.801694033687893048e-01 1.300279804747378698e+00 1.216899709234033677e+00 -3.823188138957765436e-01 1.359884620386661913e+00 -6.750513266172049054e-01 -1.418821852335093059e+00 1.581257141815685108e+00 -1.434507667859844071e+00 -3.893936010057642005e-01 -1.422749123514205696e-02 9.395041206272605749e-02 9.393207676049288857e-01 -2.429519140626833495e-01 -3.064161789579324807e-02 1.345377492249276941e+00 1.732127333156197879e-01 -3.667869502431851392e-01 1.901482748101720910e+00 -7.328346119875188414e-02 -2.685039269633793690e+00 -9.114559169132957495e-02 -3.277760012704694081e-01 -8.381715279726481560e-01 8.213722968382133338e-01 1.994800276190489718e+00 -4.973285051400745393e-01 9.328004933829311951e-02 9.048523784308516449e-01 1.219044289775380374e+00 4.448237743913293629e-01 1.296749773236631542e+00 1.443518194739161098e+00 -2.735373614696999245e-01 -1.032940885936371567e+00 -5.254415168671223713e-01 2.550840857797187944e+00 -5.913026809891475111e-01 1.492925260393519749e-01 1.694766567835530313e-01 3.001044524983466077e-01 -1.068913867931048145e+00 -1.346137781125235522e+00 -5.281544345285426045e-01 -4.529518429880398656e-01 -1.260809455191408635e+00 -1.177017655366182636e+00 -2.175812682304484991e+00 -1.178682854982994188e-01 -9.897633770253447816e-01 1.732075611016403283e+00 -4.352321155470758041e-01 -5.408016408947570984e-03 -6.941212712950824981e-01 8.000295934617376870e-02 -1.520002336889741068e+00 3.787856281564559030e-02 1.609712849804414148e-01 1.538292006423887803e-01 1.699694992932731519e-01 1.003045670286775021e-01 -5.323204615083756419e-01 2.587942790919454672e-01 -4.356716532046572277e-01 2.829491877666773791e-01 2.684745869786167027e-01 3.354315211388410045e-01 -1.168898679801138180e-01 7.441732015781304943e-01 7.940188138909227700e-01 -3.928702819746516250e-01 1.343894514008971308e+00 8.358960344572611278e-01 1.194397866295544147e-01 -4.393744400253745130e-01 -5.318869484450138296e-01 1.212842152688506037e+00 1.071993087214617724e+00 -5.017279771385405041e-02 -4.696701594520960032e-01 7.365761173991032251e-01 -4.228175156955046865e-01 3.850140219875875514e-01 2.244652883279392164e-01 -1.229080097906126268e+00 9.405812548455333433e-01 -1.826487623315687370e-01 -7.564256830287583444e-01 -7.299923850175528139e-01 3.970277686641378312e-02 1.225531682855764304e+00 8.975098036225729325e-01 2.319615178847174095e-02 2.019898251498099206e+00 -9.430286803262408757e-01 4.208935297745700632e-01 -2.376021131577958911e-01 -3.551748329101301893e-01 -1.345570135553795788e-01 -8.011811165199853590e-01 -1.101969213325580399e-01 6.365104981855198574e-01 -5.206448900363511711e-01 -9.480831290383221477e-01 -2.487824240456430192e-01 4.145429508036672095e-01 1.810972222902743400e+00 -1.672689352577641619e+00 9.248733952282183202e-01 8.887300375354971749e-01 -1.909356701856675109e-01 5.019858315608676236e-01 -1.592066672560155105e+00 6.749451182170502772e-01 -5.647603590419906228e-01 -1.759573267857095502e-01 -8.475789577433989752e-01 -3.211043854641595918e-01 -5.174106245549247030e-01 4.933950129323430578e-01 1.146841086354708938e+00 4.414260799152644466e-01
-3.717502555270974507e-01 3.314281574294579702e-01 -5.763960525046543659e-02 5.974886655920615963e-01 8.145326320439008061e-01 -1.016639105788473607e+00 1.412804436598587288e-01 -2.805916009065601457e+00 2.366175286459554217e-01 -8.084597614622434092e-01 1.982512407342750804e-01 5.971061560881606445e-01 -9.348264197401805475e-01 9.341678731672816705e-01 -5.970426261115835409e-01 4.508958073125174382e-01 -3.409980661145696756e-01 -4.751045323496835282e-01 -3.608881145040545024e-01 -3.183701997986549959e-01 2.864126182782134045e-01 8.016357805705985606e-02 1.233706617444905396e+00 -1.369656379431659410e+00 -2.828093622839404908e-01 -5.889251252021474037e-02 -1.642342834865733847e+00 -4.416150945313763315e-02 8.691704277508058851e-01 1.520315206154234655e-01 -1.447664765213404925e+00 -1.008505452891812704e+00 1.831076121238248922e+00 1.647404197938788561e+00 -1.129839927702415592e+00 3.351182666585726388e-01 -8.555247963998422467e-01 3.798668468856131741e-01 3.603489028119000182e-01 9.822768587110849992e-02 7.726371646471619226e-01 -1.502736092100274590e+00 -3.374519466273411261e-01 -4.689061538300701160e-01 -4.233247568781403625e-01 1.527095407834847540e+00 5.229770827014934564e-01 1.169368587654459946e+00 3.560497137051881755e-01 -2.363891013913620442e-01 -1.074345335007250046e+00 -5.531424306731810292e-01 5.471950574708642767e-01 -4.583036740474316084e-01 1.148138023112235784e+00 -4.777298190577584092e-01 -1.545110762689288597e+00 -4.453943638602326227e-01 -6.746775755558215293e-01 3.187161776319614170e-01 -7.338166370575618380e-01 4.900620399124554494e-01 1.655184954937018338e+00 8.528080224682630384e-01 -1.037756575510110579e+00 -5.637372514015739355e-01 -1.628861434479239867e-01 4.795353949521288239e-01 -3.419981699343819792e-01 -1.063557194268488715e+00 -7.259285417676553109e-02 -8.890182359579860139e-01 -4.060425513393888242e-01 1.309205986336871685e+00 -7.302593209351360137e-01 -7.337787853175258279e-01 3.801678651187134217e-01 3.286102005207653387e-01 -5.276733709068157641e-01 7.065699055687781893e-01 1.057977493949355946e-01 -1.001450497845483678e+00 -1.347660948094078215e+00 -4.330608809090477455e-03 -1.243138739031049544e+00 1.183010429196020841e+00 1.769587676566327428e+00 1.737417796459089780e+00 3.334037657537976540e-01 8.595404924047976569e-02 -7.460436266363117408e-01 -1.469741784261572315e+00 2.115291510619107251e-01 -8.113191926031071421e-01 -1.377920434806208183e+00 -4.242264484811156811e-01 -7.757636251044913722e-02 -6.406090336536033325e-01 -1.624914628291139529e+00 -6.419153729530761021e-01 5.351770279059425706e-02 -1.692302768583171524e-01 -3.033369774460265011e-01 -8.919556326619526576e-01 -1.799648419497215990e+00 2.729212437135831948e+00 4.839511957723733881e-01 3.142606541710062928e-01 7.902771791466888240e-01 -4.650625416582497840e-01 3.772632012346207042e-01 -1.244137471182945820e+00 1.475067100730357572e-01 1.549999194615341969e+00 -3.444962173507980230e-02 -3.817772208999106187e-01 -5.058390508950786346e-01 9.212988762401863596e-01 5.069531894127843330e-01 9.092053207552489580e-01 -9.999938789380610760e-02 1.575602109525350569e-01 9.211558853696270033e-01 6.166890486618076261e-01 2.824749746619931168e-01 1.299394311326262486e+00 -7.577024450759214380e-01 9.450721283835707975e-01 -1.352468357179687219e-01 1.245897184114427292e-01 3.859057360531598091e-01 -1.199427170594895120e+00 2.082963346407131766e-01 1.852919210535267092e-01 7.975895738330780471e-01 2.807041650709001246e-01 2.242764646676506324e+00 -7.442439736565641395e-01 6.147443717373585192e-01 -8.911167397108099575e-01 2.335787035093363495e-01 -3.154659792297584975e-01 -2.249905870089810300e-01 7.807986560413230359e-01 3.796833412289795512e-02 2.809713659041163103e-02 -7.261531080152063833e-01 7.477188706827123665e-01 1.119694861986979983e+00 1.504349161591919559e+00 -9.260560463490901117e-01 1.496541297534398129e+00 8.247238252167791162e-01 1.422704992799925572e+00 -8.839819035807100489e-01 -6.587624787187648101e-01 1.299763475311674688e+00 5.598367241555721741e-01 6.776173020113123169e-01 1.113695125223592930e+00 -1.931196052447523792e+00 -7.175990958170341827e-01 1.349884496244554422e+00 4.124580132668954624e-01 3.689119370775710838e-01 8.805528524173386051e-01 5.026400919566287318e-01 1.005844570082884637e+00 1.288415152594734270e+00 -8.326044200746796076e-01 3.493465180197909414e-01 2.804979447104384849e-01 -1.191248249784187863e+00 -2.748246333914380890e-01 -1.443227442233136149e+00 -2.784415478894005092e-01 -3.191980305432919329e-01 7.262168645073366902e-01 -1.366509077866280508e+00 -3.399294259872704393e-01 9.057681725477004786e-01 -3.483011737376784933e-01 5.772694951684100850e-01 2.605911233579126129e+00 5.006493280357705578e-01 -3.330975005119469756e-01 -1.259731345491839072e+00 -6.631956875057868350e-01 1.619445229903389682e+00 -8.645474784469628915e-01 -2.156094918786391812e+00 3.949399377722307425e-01
-9.267668232054323552e-01 -8.384737781036265547e-01 -8.694519280402237538e-01 1.218749586676466601e+00 2.223941471689413196e-01 -1.666309835275049112e-01 1.986281692047918712e+00 -5.834990161361385264e-01 -4.811210966076288620e-01 2.039069390838040174e+00 -2.798240611481082052e-01 1.958875523035618904e-01 2.649404106039340290e-01 -1.318908602645548545e+00 7.845211958792952522e-02 5.585866867091083821e-01 2.949072054960700795e-01 -1.368174173519413062e+00 -9.586714371911451149e-01 1.343969497044559924e+00 -8.861195901257261642e-01 -2.818605991773928676e-01 -1.012767644897080599e+00 -3.372769675091600444e-02 2.577473050481554617e-01 -5.620524542869380635e-01 -7.320400045063686356e-01 1.392405390830314449e+00 1.022288400572351597e+00 6.752645932998965206e-01 3.243314293221702949e-01 7.240879415378624895e-01 1.216422011948395276e+00 3.447371785274855882e-01 9.083123344871137927e-01 8.516713037324146196e-01 -1.940586340259256470e+00 1.273029027391320733e+00 8.755983047921283013e-01 1.899521844521251390e+00 2.288284170808544959e-01 -1.896047349462550935e+00 -2.030495840400150520e-01 1.700333684139725410e+00 -9.640841880461013813e-03 1.769102274300514033e+00 -8.797524925530560980e-01 1.182901599063140158e-01 -2.000457846094265690e+00 -8.139439592790266298e-01 3.702164037101198235e-01 -6.570029477379899507e-01 4.909603837338442078e-01 2.546310241301669164e-01 -9.161868749278930801e-01 3.912622554721126300e-01 8.642340516440577547e-01 -1.563898351617547089e+00 -6.986976283403880661e-01 1.023321893740270383e+00 4.175217369306749027e-01 -1.018215411289233874e+00 -5.099102583158676705e-01 1.307584283028023542e+00 -1.415180187682485657e+00 2.532650965389918185e-01 -9.474093370175618034e-01 6.045069042600054177e-01 -1.260028466722279639e+00 1.956389402446183645e+00 -8.094402690865919459e-01 5.496334262861279907e-01 -5.534413770464002846e-01 1.994639229764478605e+00 -1.152312607303920045e+00 -1.238277177338747981e+00 -5.603320438005767734e-01 -6.183029205414843910e-01 -1.418373836835375323e+00 -2.651933041264632251e+00 6.546978384535856454e-02 1.749579994908198322e-01 1.802898158147230534e+00 -1.606175990445254165e+00 6.427309220081505181e-01 -8.637894508895471724e-01 1.003300488026468873e+00 1.571154036955753064e+00 -1.641317565887868035e+00 -8.276402941589424689e-01 -8.775071783317407448e-01 8.475596969454227692e-01 -3.035184964181313116e+00 -1.126535851125612497e+00 1.646889671574402469e-01 -2.012744252400178457e-01 -1.620014073835614188e-01 -1.439391126310233249e+00 -7.668618068901494889e-01 -1.223261510089187487e+00 -1.757837720294171957e+00 7.116087140347385764e-01 -3.736247185007313676e-01 -1.455364048394693022e+00 1.937789346425124348e+00 2.120530597713753407e-01 1.126122166474000513e-01 -6.407432014473104509e-01 -1.505053823050462203e+00 -8.006589167287354591e-01 -1.352561822493909993e+00 5.824616788039823495e-02 -6.526160417658674051e-01 7.787039687576837732e-01 2.550127724496038972e+00 -2.930238913071206430e-01 4.723433887083645644e-01 4.144525225829908122e-01 5.205215276948170766e-01 -1.366145529202089426e+00 4.011587854252535168e-01 -4.681370728013997673e-01 -3.206182891776918620e-01 -5.240484278776303961e-01 -1.320348782169433521e+00 2.971811714433031604e+00 -1.285423662494191710e+00 4.195657429798849702e-01 -9.947902208464363960e-02 -4.351028818492242989e-01 1.294968097488486070e+00 5.669561831739029500e-01 1.076333810049908968e-01 6.436468316250750776e-01 3.828325438374014511e-01 -1.485784591039222668e+00 1.046635469323270229e+00 8.533449245916524539e-01 -5.076827382217853346e-01 -1.253981321274616034e+00 -3.933808150969037715e-02 -1.479201119063871805e-01 -1.367299135862495851e-01 1.820518468742385043e-01 -3.931542539085446375e-01 -4.936982536691983392e-01 4.107803372285772081e-01 -2.253945216679764385e-01 6.224338245424204663e-01 -1.288295663256695756e+00 9.466202963147035687e-02 -2.206901863311747647e-01 2.098085628841574568e+00 1.376622194409702349e-01 6.467876884235738144e-01 7.480459243858003093e-01 2.280227946972546160e+00 6.670795130818648611e-01 -1.225181260778181791e+00 1.012975718356003085e+00 9.987166547240590164e-01 -1.054533929914933443e+00 1.602335945279578011e+00 1.206472397659174467e+00 -1.088714291766579079e+00 4.516648080674657839e-01 2.944122644540793088e-01 2.521911695618122076e-02 -9.222681886541067575e-01 1.149002281996445829e+00 3.621462585999180028e-02 1.797988191909298886e-02 -3.770444936286791449e-01 -1.512708540795615619e-01 1.001741710151820453e+00 -1.549562477870964627e-01 3.693964092104838337e-01 7.286601037901766498e-01 2.370884513705320273e+00 -1.792800802199106425e+00 -6.769933610495730836e-01 1.724604792104969642e+00 -1.520604245375305696e+00 -1.887209574651668165e-01 -1.196084566695730933e-01 -7.881797390574608597e-01 -4.424993282752919810e-01 -5.167793070016437479e-02 1.299510446899962313e+00 -1.909731601230419296e+00 -1.864731807163487964e+00 1.533036915749275697e-01
4.209177510209542450e-01 2.715072759540870240e-01 -1.259610493489818239e+00 1.297280574294073716e-02 -3.134644730486447761e-01 4.183671606112290831e-01 -1.255415306157853239e+00 -3.198909992125882895e-01 -2.092233608729151262e-01 5.765080367217771951e-01 9.098083636813650843e-01 -2.007052951652873229e+00 5.736766999249706123e-01 -1.833873348429265471e-01 -4.803949957537242965e-01 1.771596875974425500e-01 3.947789932261278611e-01 -3.279248133615924599e-01 -2.341122698670719871e+00 -1.439531507933958121e+00 -6.181834032754394137e-01 6.529929007829532450e-01 2.216909057285057494e-01 1.300074782427573572e+00 -9.741251489978818290e-01 1.917112784622531096e-01 -8.741589649408261220e-01 -2.022911047061594747e+00 3.795891154352477592e-01 1.898197396776395429e+00 1.183617144395154641e+00 -1.474493918211532417e+00 2.132790563154066898e+00 1.429606959716062331e+00 -1.333121102606997121e+00 -1.629650326652809955e+00 2.432994337804811058e-01 -5.738788386040913903e-01 -4.487053659084530577e-01 -1.268983799867611451e+00 1.187277807976877764e+00 -4.169794964176608554e-01 -8.658235057048251360e-01 1.632195838761709039e+00 1.795735290748032620e+00 -1.266981661293180017e-01 -6.699685750088465452e-01 -5.731587388031657015e-01 1.999825079121700724e-02 3.811465374517941651e-01 3.285504049682274053e-01 -7.276729557021227590e-01 1.861370745027230766e+00 1.307271829558141363e+00 1.039921048997530795e+00 1.079363626791811859e+00 -8.687138712456923817e-02 6.794124356483813298e-02 2.174726986159485620e-01 -2.831763283476440574e-01 1.316162720276344622e+00 1.824934760382217691e+00 7.948782389594898079e-02 -1.585934928495801727e-02 3.513970638017738679e+00 -3.248603107823124225e-01 1.287112154115255480e+00 -1.298550363161949273e+00 -4.576226430105849174e-01 -8.496573961297243516e-01 -1.825583867501084645e-01 1.436732054833794736e+00 9.962880140513958871e-01 -2.435380169739604472e+00 1.864085457334531792e+00 4.547014663614717400e-01 3.491409125863433327e-01 -1.425258159994304552e-01 -9.895350992629505793e-01 -6.811820423887970932e-01 7.265257162785648815e-02 1.255114510309997877e+00 1.182665816587395780e+00 2.652880085522941189e-01 5.729814782525260997e-01 -1.545250320946710554e+00 -1.578794790115837232e+00 1.057872135443572503e+00 1.771140833118203917e+00 3.252478044481915687e-01 1.504329457398531744e+00 -1.505168607317444618e+00 -2.275227514642713389e-01 -8.357176497514681168e-01 -2.961720801840462269e-01 8.787625849679773227e-01 2.189922689796913069e+00 1.702069605380560180e+00 4.086861483338181666e-01 1.980957993728974520e+00 1.745288137590731647e+00 1.294795411147283692e+00 -8.071948086920429644e-01 -2.701718735543540695e-01 -1.701359194216492510e+00 1.630988623789529468e+00 8.258203163120300117e-01 8.836819176118864139e-01 4.273036287578289016e-01 -9.252749517423424219e-01 -2.624529916645292060e-02 -1.557533673296866705e-01 3.943703743174251652e-01 -7.382283963115722214e-01 -6.483341000480773442e-01 -1.129818527290801788e-01 4.125766718621588502e-01 1.276794253787417954e+00 -1.429854806800632927e+00 -1.853594480170210002e+00 1.040547341157508132e+00 -2.196449555261775488e-01 1.260190542480512654e+00 -1.070524044553762044e+00 -2.092764569085934223e+00 -2.982154622688096279e-01 -2.640189796738773964e+00 -1.537514833873094289e-01 5.208416491197622733e-01 6.180676957781517933e-01 -2.207376539071923549e-01 3.116647211609699930e-01 8.738261547188345135e-01 1.078595077788904844e+00 -2.432577311067325443e+00 -1.934008134389486600e+00 -6.829414550626602409e-01 5.743487186057003036e-02 -7.653702170280455297e-01 2.194377088011151278e-01 -1.338931240745531714e-01 -3.739716525004130876e-01 1.364537189064464195e-01 -5.640286442898059804e-02 4.986287943084237728e-01 7.788262437021538087e-01 5.880982379698492801e-01 -1.882388655876224837e-01 1.442349146783115765e+00 -6.942952418431929118e-01 -8.048051816326031727e-01 -1.433353119081188565e+00 4.084233112378892194e-01 1.858477718076551044e+00 -7.226528276001443762e-01 -8.807221825858088105e-01 -8.968537477221425469e-01 1.374151984197698129e+00 -6.402307973543042152e-02 -7.044656591620442887e-01 5.595785540837636685e-01 -1.768329479562792406e+00 -9.804775820326880886e-01 5.803860248660929200e-01 9.651945872100760049e-01 -1.605356826250240454e-01 2.184647239336785063e+00 2.951365517030783425e-01 -1.782992214367282724e+00 5.495730435146294335e-01 1.598861269913855132e+00 -4.673861118562537831e-01 -2.440248019504936416e-01 9.297424718848947833e-01 -4.772326282123974805e-01 4.960995353696526777e-01 -9.967016990673066568e-01 6.925150952951086847e-01 -5.507936208290170610e-01 -1.126736368089106821e-01 1.079666338966189798e+00 -1.089479944311688930e+00 1.497855989169561308e+00 -1.047007220732598221e+00 2.064127965806296650e-01 3.136561195580584993e-01 -3.911361931627556632e-01 -7.664381698798992115e-01 -7.695593322857348095e-01 2.765120608034427607e-01 -7.814344089258828951e-01 1.772399820828090222e+00
8.582847167547924538e-02 1.255819109497050778e+00 -1.170057017250898168e+00 -1.369792130107451378e+00 -2.385769923197665232e+00 4.095938703370079897e-02 1.438917637437939545e+00 -2.602878526125767533e-01 3.988733611100672705e-01 -7.946726324974047184e-01 -3.003521773740155942e-01 1.881063463974849970e-01 -1.416184031994237813e+00 -1.333395149522854206e+00 1.071818091369690196e+00 5.004191015526705810e-02 -7.736753326156078359e-01 8.377675940823791079e-01 1.232842830662643149e-02 -4.107593608869532509e-01 -2.318173245038544383e+00 -1.548733621005976557e+00 -3.267867909524705405e-01 -1.710164297165434055e+00 5.230238263994914094e-01 4.764845942927399824e-01 8.375696693856889974e-01 -1.162316128542469018e+00 -2.596276097639126923e-01 4.996165677969806040e-01 1.797005100795370458e+00 -9.923499273510699714e-01 -2.389333274962282538e-01 -3.198391208251103457e-01 -7.825350901106183921e-01 -1.450561644869735822e+00 3.716402326894233665e-01 -1.646020924969468169e+00 -5.083524849780952648e-01 3.392937544965843877e-01 -5.519746168697234889e-01 1.276000207689019506e-01 -2.380187188402980714e-01 -1.164840188960857420e-01 3.615665525369248651e-02 -5.496512438807777956e-01 -5.202462865693296967e-01 1.601928252256551666e+00 -1.484219961475932437e-01 -5.226919697703381607e-01 7.567897282530798853e-01 -1.032818383463601108e+00 -6.177873835498396415e-01 -5.050831980315032554e-01 5.397125856829056989e-01 -7.333546740611462944e-01 -2.749214713619360650e-01 6.490897229128704815e-01 1.477960568150253451e+00 -8.026236846258526514e-01 -1.005931589619553229e-01 4.312060687615559273e-01 9.393402743015117906e-01 -2.916553680825585415e-01 -1.189388628622942479e+00 -1.289054187260342932e+00 7.040504562008583767e-01 6.211407061191257517e-01 4.679970859664711047e-01 -4.255950794992761077e-01 8.284796807638429295e-01 -2.281017592990279841e-01 -1.497810114082317179e-01 8.476700921570680114e-01 2.631340356036165229e+00 1.518940965587062708e+00 8.107103163328376327e-01 1.135557939217527901e+00 -9.228572425170623594e-01 2.941670220201418884e-01 1.206586819634463126e+00 2.646653238434373834e-01 -1.722198005584478331e+00 9.815712216186969208e-01 -6.697221817915657294e-01 1.666257519843804547e+00 -1.741583748216314897e-01 1.577026274270571848e+00 3.257258063068271259e-01 -5.491907531884174798e-01 3.312269011756903137e-01 -3.427710365700852302e-01 -1.081431629677760187e+00 -3.690046072630900342e-01 1.144289166226667209e+00 9.896278353066941813e-01 7.262691769657390051e-01 3.277485824970459705e-01 3.361147007788899410e-01 1.520971601499696846e-01 7.873532344790692417e-01 3.017527468252205747e-01 6.591111512791668625e-01 -8.060557751098985924e-02 -2.020625178505526531e-01 -6.263265220842632042e-01 -1.622674718368577240e+00 2.408406330072379933e-02 3.750389797665488745e-01 2.710183147734207543e-01 -3.379959844028760374e-01 -1.315595516558172529e+00 -7.536247407587015612e-01 5.774018903823906479e-01 -6.001552412741027742e-02 -2.948702710070478794e-01 -3.038782863318377769e-01 1.192648857835966747e-01 -4.132471325157152098e-01 4.134396489088151272e-01 1.255028675923199000e+00 6.364119700837296278e-01 -1.130754757885031214e+00 -4.845011565129846987e-01 -2.193721046746434644e-01 1.683175291601665791e+00 6.258712277573741378e-01 -2.183102551775729427e+00 1.496017054163628901e-01 1.940756792374709550e+00 -7.673749603748271364e-02 -9.209491206108183503e-02 -4.716595639746067326e-01 1.120422548907584748e+00 -1.048692461482269245e+00 9.215387805738606275e-02 -4.152183177177753426e-01 -3.994974991071598147e-01 1.222481714325850399e+00 -8.930121186959262269e-01 -3.843745332174460794e-01 6.860470447693627349e-01 -5.638450292887116078e-01 1.077855722187920806e+00 -8.209254681067584825e-02 3.817316565525332162e-01 6.031863805479656948e-01 3.176758635130229325e-02 -1.067662575428878213e+00 -8.705562957941775926e-01 -1.601292523544425306e-01 -1.708625088253471036e+00 -1.329216989736416998e+00 8.064631507936372012e-02 -1.092058077996500565e+00 -7.747769567061589813e-01 -1.566040426853039014e+00 -5.104734400054276033e-01 2.853287304593821627e+00 3.840121944712330260e-01 -4.427498112291451959e-01 -1.532020128679474234e-03 -8.780225822714701756e-02 -1.910776985214273915e-01 -6.533795393540597907e-01 2.477738874869342967e-01 -6.679192734640979068e-02 2.508995413545799913e+00 -9.341547708631559033e-01 8.611637703717062164e-01 -1.121408018299285381e+00 -3.444370762119223217e-01 -5.005397497218555536e-01 -8.004614985083177148e-01 -1.456610992769490132e+00 -4.458962488120566392e-01 -2.558968282526576488e+00 7.685852138582556226e-01 -8.754702430755791909e-01 2.227519244064463944e-01 -2.112821636975680928e+00 -7.330713681267011506e-01 9.506380704138868154e-01 6.678033347569350964e-01 -1.284957465883058036e+00 -2.373218041919262014e-02 -2.604408309764910112e-01 -6.279990699285440403e-01 -2.174605805402648695e+00 4.019994229960983656e-01 -2.798287253671380981e-01 -4.537529667536359390e-02
-5.621365599960505000e-01 6.363614479607718755e-01 9.608181292581994271e-01 1.162052976234012824e+00 -9.038109100922387951e-01 -2.565202440838699083e+00 -3.520881646877309090e-01 -4.494297318625165016e-01 -2.146082978956707965e+00 7.364381213602637644e-01 -9.531481485998942738e-01 1.375028563395616299e+00 -6.022341773180009961e-01 4.439639511050212373e-01 1.105492188515636715e-01 -2.717553385275165434e-01 -1.387383430188042555e+00 8.333916248210238020e-01 -2.380307833192335742e+00 3.643117592899986455e-03 6.004743832243735202e-01 -1.387666443278289807e-01 -7.801796022501050233e-04 1.674486000893254278e+00 2.626706135342106174e-01 -7.993029672930433982e-01 -1.816772759429458706e+00 -1.290056452256457931e+00 -1.556272219040897575e-01 1.986009100988640058e-02 2.005227479748277197e-01 7.126119764962578484e-01 1.802528492985833175e-01 -1.707740640459932902e+00 5.587893251338706957e-01 -2.740437326152676545e-01 -1.285942217414278721e+00 3.723341822341596496e-01 -1.692489563706160771e+00 -1.896577782544446034e-01 6.003794840940149813e-01 1.603648352780699504e+00 5.349360212318632346e-01 5.984618250899388370e-01 8.191735960368304870e-01 5.549502696081132225e-01 -1.352723253618921539e+00 1.668100287843630736e-01 3.495122579477627500e-01 1.334888643868070990e-01 3.189941118876579162e-01 -1.370558076801416725e+00 -2.738579537501582561e-01 -1.484090306766610856e-01 -1.194547328340895609e+00 3.003096284841905161e-01 1.190359326500059600e+00 -1.937889013360159396e+00 -1.103680753843899520e+00 1.748669509412670076e+00 -1.546096058702625786e+00 2.313264318357033389e+00 2.456131832360696488e-01 -1.658730128050613928e+00 -1.422225586325371438e+00 -7.480470131553775825e-01 -1.115918402730861070e-01 7.648948906594342789e-01 -7.161815645470107627e-01 2.710275995878844713e-01 -8.913202934105893815e-01 4.541766823483163185e-01 -3.455073065876260174e-01 7.536237013687769881e-01 -8.231576500544371955e-01 -2.303135184957256221e-01 -5.923568775506746764e-01 3.761680012639284088e-01 4.988749098581399255e-02 -1.044937528416092887e+00 -9.664179490846068754e-01 8.161240590286911178e-01 1.044953654302585244e+00 -1.874925407916150144e+00 -5.830738409233584552e-01 -1.298260257724314970e+00 1.272443861911900509e+00 -4.738811389718853434e-02 5.023009692142639260e-01 6.904512169509929853e-01 7.951145836958092294e-01 -9.290037092207183989e-01 -7.817666801935952980e-01 -1.540877926365228801e+00 2.859871940657459088e-01 -1.848997335814942744e+00 -3.938023225608775491e-01 -1.586901453407387308e+00 -1.362855713853533768e+00 -6.497883932113726058e-01 -1.087671728067372889e+00 -3.561662725031618931e-02 1.347076543509621027e-01 -1.675749105388781413e+00 -6.510141022530804289e-01 1.064353051248598581e+00 1.444560336367301412e+00 -4.282448402710112845e-01 1.996101996452878558e+00 6.959456937958630185e-01 -1.214878034341694280e+00 -1.549488737530311910e+00 -1.138096022496057236e+00 -9.486501872932845414e-01 1.288089433762031610e-01 6.164425986621865361e-01 7.112528259691566213e-01 5.109051478148760594e-01 -8.790854034587963772e-01 -1.424831509873627278e+00 6.533359420588547017e-02 -3.662452355062160714e-01 8.140351272459075416e-01 -5.376195113055242114e-01 -3.445576042333799105e+00 2.878294850068347510e-01 1.743674710899733915e+00 1.338314555717838195e+00 -1.321985443107874136e+00 1.138572300111506674e+00 -1.629401927126210570e+00 1.730599040191789229e+00 8.015094868220994373e-01 -1.788492876954008270e+00 -1.324007289446259117e+00 -1.359570590675488244e+00 -8.087129352342983246e-01 -1.235708623603805206e-01 1.141425464629684416e+00 -1.005729206442919743e+00 -9.323888228679708678e-01 -3.953555860487937279e-01 -8.569453961560553890e-02 1.000476611722242337e+00 2.125102146937841496e+00 1.555581185187134396e+00 1.399158233045238120e+00 -7.320869513419164809e-01 -7.566878692670034878e-01 -5.978265213047059268e-01 6.431296404093959085e-01 1.311103410573354333e+00 -7.213913260012542183e-01 -4.789525413325605024e-02 6.118827364555822212e-01 1.766658057272603999e-01 -1.269744355519332180e+00 6.606581080435198761e-01 -1.398951542993507990e+00 -1.739972333757985767e+00 -4.701578827703152275e-01 1.056094017472256619e+00 7.779687584891845087e-02 -1.160286577555343923e+00 -1.799609644976020717e-01 3.277810490472397031e-01 -1.841227149361536752e-01 5.139081484845037240e-01 1.169862857421715585e+00 -1.549943086868564190e+00 2.717783424033736184e-01 -9.684745840083832658e-01 -1.771043665429749225e+00 1.548944027206333951e+00 -2.378358824803657456e-01 2.444101409843422612e+00 2.263723351588481147e+00 7.775886744486834035e-01 -6.842844766492616193e-01 1.034649175129591869e+00 2.372560814445703603e-01 6.126669927080717892e-01 -6.663812633101072747e-01 2.853682103037528117e-01 8.286275366259396868e-01 -3.392927133848909760e-01 -3.499064093276948312e-02 1.032621138459474563e+00 -8.858625037781542311e-01 1.360323351241884859e+00 -6.676307405762098579e-01 -5.443456735368741306e-01
-7.196276293784956701e-01 2.832736423115985169e-01 -5.607043105727713694e-01 1.290367460516064213e+00 -4.250788148177818138e-01 -1.680397780067612867e-01 4.770232072444923754e-01 -4.841917744033112370e-01 1.522972330112413397e+00 -3.240636816596103031e-01 1.164164943606626590e+00 -6.013291443207982034e-01 1.174868053935727685e+00 -1.830348287198541479e+00 2.581785857971983789e-01 -3.879080411957196856e-02 -2.765777354693992329e+00 9.736590716662315570e-01 -3.665024708209224658e-02 3.746677441486428312e-02 1.091981048027721446e-01 2.219221630538760426e+00 -7.850411414489740780e-01 -5.315592909896880158e-01 8.271670463785602001e-01 4.986899843918348174e-01 -8.281950488669876931e-01 2.593800137311907394e-01 2.604100228686049845e-01 -6.916200969763147688e-01 -7.088063090221881080e-01 -2.637158483407467724e+00 8.724602928573912397e-01 -7.023711169391299025e-01 -6.105901092705012800e-01 -5.114578747637623657e-01 2.532320046616153286e-01 -8.578953685606445223e-01 -1.377396802173849744e-01 4.319146702998145210e-03 9.240708831774689935e-01 -9.278422127480426829e-01 1.234260157414995174e+00 -5.948553655313167793e-02 7.246615346389685686e-02 1.120672260741375492e+00 4.131645224392030413e-01 4.171329789626472273e-01 2.882207721996362104e-01 -7.067230753047964997e-01 2.773202349335268657e-01 2.236391304961312443e+00 3.322394209458577330e-01 2.230773478161779400e-01 1.410359586197588166e+00 -6.607390334704077439e-01 1.244508071015071771e+00 9.434857461552262348e-02 -9.423794188031038299e-01 2.381744994041906649e-01 4.967046366103343435e-02 -7.684810956937624393e-01 1.549588992265853671e+00 1.040242691807815034e-01 6.300353285773502288e-01 -1.073602356312877149e+00 -4.755733764998806845e-01 2.732321647402855339e-02 5.790860005515598985e-01 -9.178944457293720660e-01 -1.822757255547868382e+00 -7.572909382630235164e-01 -6.961596191386773547e-02 -4.909439225683929209e-01 3.316328160570547468e-01 1.919648236922804507e+00 1.516700378753574663e+00 1.135281944196173454e+00 3.219943873637792775e-02 -3.829597947916538181e-01 -1.074046252858023687e+00 2.289345858799201050e-01 1.454200531660261309e+00 1.497669144190946766e-01 5.104822340253410973e-01 9.587446072468298608e-01 -1.609340584741554059e+00 -1.107038253460927546e+00 1.527421673371706090e+00 1.115515291940586406e+00 -1.602150099838904218e+00 1.302485221511080482e+00 1.301612771204653907e+00 -1.564404766068505204e+00 1.579865422268263098e+00 -3.898191233675412509e-02 -2.063829106998735341e+00 -2.833428461288524103e-01 -4.030186747564737937e-01 -1.206832586671211294e+00 5.632945670224470680e-01 1.297376896262548041e+00 3.186556528691145140e-01 5.984123292927717719e-01 -5.652591939573269227e-03 8.983573495469771020e-01 -1.479445817844224909e+00 1.336208379669565183e+00 5.185958153423956274e-01 -1.035850615091447269e+00 -4.138495868719505033e-02 4.875581914158079733e-01 -9.729026497956910768e-01 7.602430408227751624e-01 -5.226490879593070904e-01 -2.087336634318609496e-01 1.315399763688136048e+00 -9.168118561946387857e-01 -6.836888396242598587e-01 1.027068636149730763e+00 1.115591250174685634e+00 -1.588804888392598980e-01 -4.689354954003751574e-01 7.056852853892905397e-01 1.855032443412753806e-01 2.013717084550082081e-01 3.024372542862089341e-01 1.879321586012124623e+00 -4.772828285050406127e-01 -3.433063862645505115e-01 4.554654735328844684e-01 -7.686195210364029640e-01 9.263244066447333669e-01 4.452529145335533678e-01 -8.932501450816211497e-01 -3.302502671789956379e-01 2.631918080910709556e-01 6.341771347874546327e-01 -1.467963174961818273e+00 -1.037695029315010897e+00 7.026666088469909477e-01 -1.476146945874856065e-01 4.332426315867232702e-02 -1.233336595115492651e+00 6.877384501793210037e-01 7.324949475449930025e-01 2.423659905932136205e-01 -5.006998581826977990e-01 -9.699804407725145516e-01 -9.367920523783181963e-01 3.171405869950981171e-01 3.248273668750009668e-01 -1.979556686475714977e-01 8.305328455885771510e-02 -1.676187721111624063e+00 2.077572145072305310e-01 -1.026499974179917229e+00 6.060141752056624753e-01 2.909738507140050001e-01 6.708181110710856876e-01 4.889035699090086284e-01 9.304556088614337472e-01 -3.434539097865171864e-01 -3.828642816655635217e-01 9.234997930491133378e-01 2.263080588043926145e-01 1.321925009000340268e+00 3.270699578411693786e-01 2.833718338548917859e-01 3.111041522397782200e-01 6.290869019482726587e-01 2.326961969373768369e-01 1.807140763805464623e+00 -7.732277566688376957e-01 5.130553990823970567e-01 -2.028282682057944708e+00 -2.475487172414093107e-01 -1.305131891424575086e+00 4.193182834325023256e-01 -4.462888042147920564e-01 -5.745512295939334546e-01 8.303409042080036606e-01 2.037494091046371913e+00 -1.100738138228217533e+00 -1.011888144256821054e+00 -1.048365053827560622e+00 7.733708269230493704e-01 1.239671566590522245e+00 -4.591794587847671250e-01 7.184849852523739200e-02 -1.619229761806990631e+00 6.811116060375741604e-03
1.147271973939471446e+00 -1.174106096760381801e+00 -5.608535393514031409e-01 -7.051368374292825703e-01 -2.274556716557345926e+00 1.137623940166358594e+00 -1.307189484547692793e+00 -1.408102631138552274e+00 -7.726102378826568140e-01 -1.698271356097417417e+00 1.938467591812187196e+00 -8.063646739699302790e-01 5.499562365911062622e-01 9.094562272221978771e-01 -1.140497947821481395e+00 1.529474125260037676e+00 1.831298045255522977e+00 3.066844771684847926e-01 -9.135087942590104371e-01 1.961579605231446657e-02 4.433302129389630752e-01 4.223252032395389266e-01 -2.616951854977872874e-02 -3.933640763523401640e-01 -4.392916868138073139e-01 -5.467675518778971622e-01 3.372175051492875553e-01 -1.185638669390313593e+00 7.097713753727793451e-01 1.721096909805656106e+00 -1.055484079905740558e+00 5.309122827141148360e-01 -8.995861416244238518e-01 -7.342656296070029232e-01 -5.864562804761187520e-01 1.344987702183954026e+00 -8.279516180299521799e-02 3.403396114185928134e-01 1.606523280148244082e+00 2.674396725566628996e-01 -1.745045710283012363e+00 -4.592595837020969074e-01 -1.040939817981350490e+00 6.711726580570401279e-02 -7.754805155294464125e-02 6.646639367642918073e-01 9.944233738544520085e-01 -7.894702406817581952e-01 3.210027257757461783e-01 2.454419738578195731e-01 1.173519141738764926e+00 -1.025296207391002690e-01 2.220398737075401085e-01 1.079107976883310949e+00 1.699075559040726491e+00 -3.287512707306208815e-01 1.128192965863579422e+00 6.034834925845554698e-01 1.056520592432925953e+00 -7.175846064607466213e-01 9.383240201512681455e-01 -9.233275133584765149e-01 7.621689490608216655e-01 3.007626404132283660e-01 6.200863544973149732e-01 1.500442215384110156e-01 8.309667859036549142e-01 8.288176271647901272e-01 -2.814152940329284758e-01 -6.967683927538568245e-01 6.790355021507714639e-01 1.170340592893975573e-01 5.446068991684600569e-01 1.778262275946300708e+00 -9.570280854946044968e-01 -2.360285131239945322e+00 -8.936247105362462584e-01 1.896607838912334199e-01 8.602132189296416431e-01 1.018501356527097501e+00 9.807095692116647445e-01 -1.963275894211584383e-02 -3.331517784895211554e-01 -2.944519778222800532e-01 8.935414135699805138e-01 1.050474243575128641e+00 1.935107931670681288e-03 5.230249824921199275e-01 -2.573628132567127746e+00 -2.282593457443101048e+00 -2.828475924585738821e-01 -9.952599521658368475e-01 1.548847758599860791e+00 -4.535452656041810693e-01 1.066230490403828612e-01 -1.009444101506832059e+00 -1.333863660645019378e-01 3.050955968138919783e-01 1.156374105466078994e+00 -6.560902924291938110e-01 -1.186170870969246227e+00 -2.506979743784853443e-01 9.884676154583247332e-01 -3.018616980541238837e-01 1.497214139145176093e+00 7.520117836504160991e-01 -4.281627572731840914e-01 -3.883298280172580164e-01 1.419738423634921143e-01 4.944247628714254494e-01 -2.114016492058299057e-01 -1.009256357181213204e+00 -1.001124750791186901e+00 -1.272551779118297755e-01 -1.198650263125264237e+00 5.234396773143966675e-01 7.972895119144473020e-01 5.106679183149678281e-01 -7.455947212356577314e-01 1.862242223436509025e+00 -1.665184033247862905e-01 -1.885375964507413071e-01 1.066899860030628311e+00 -6.147922848082070651e-02 3.344205511774347994e-01 -1.222762138052452929e+00 -4.657111257260226345e-01 -1.501293564007442904e-01 5.828798416524028081e-01 -3.333429370556068583e-01 -1.639085430171997038e+00 9.647911024412880732e-01 1.790566457968656433e-01 1.038028956240760747e+00 -1.228364321928561154e+00 7.061782205745450458e-01 -1.397144564914054365e+00 -2.408696093954247608e-01 -6.038260993838048263e-01 8.473149642544401949e-01 1.096090998595637744e+00 -6.937716903948887293e-01 1.360473488077428073e+00 -2.616658848101908741e-01 -7.540260884349495596e-01 -1.219390356532136233e+00 -1.707032684702948666e+00 -7.666997045421980461e-01 1.824234288896874404e-02 4.457101056720310650e-01 -1.756412279151059463e-01 -7.859558379341845535e-01 5.342308729143230295e-01 -3.180906192308802921e-02 -1.224648890713704530e+00 3.288914327443951402e-01 3.568238882723090977e-01 -3.023074551031278423e-01 1.341542007721942875e+00 9.725158386585947001e-01 3.542590652871997758e-02 1.294839954421975747e+00 1.215835020905022379e+00 9.749796530965905150e-01 -2.149090986012756943e+00 -1.853391910417455657e+00 -1.229230982537843631e-01 -1.972250525308649527e+00 -8.979076974343410678e-01 -1.454506980046764042e+00 -1.620209965979294120e+00 5.124814401996642399e-01 5.521691332727403090e-01 -9.947103764942293314e-01 -8.813312939405222313e-01 -4.844248307347088778e-01 1.513701420581537782e+00 3.994495618554944616e-01 -1.013425060085464846e+00 2.140906584575540172e+00 7.891047126522517940e-01 -1.342789706696136294e-02 -3.857584897305274541e-01 2.925009897005762527e-01 6.194277638339703573e-01 2.389952410696697671e-01 1.300988136901211289e+00 -8.217728125927273863e-01 1.919766296296784858e-02 -8.779005467050225997e-01 -8.845293795815851734e-01 6.794730566557307672e-01
1.806813010892558413e-01 7.309403902010769283e-01 7.127785467219597271e-01 4.635989819481489693e-01 5.969042859628598263e-01 -6.689615613672216243e-01 7.357155782567839086e-01 -1.195340235160542663e+00 -7.244466579680818030e-02 -1.324288979123727783e+00 1.620832059212153675e+00 1.192607688324998749e+00 1.485131372332837707e-01 5.868286366080385230e-01 -1.506557321259333504e+00 -1.075834052912529870e+00 8.720142602819120903e-01 -3.089749167876960079e-01 1.955834339686053136e+00 -1.340495676341506792e+00 8.934463463766290081e-01 8.771594778014497606e-01 3.502065002155514417e-01 -3.693770844310548251e-02 -4.815161167077376958e-01 -1.202571955561734685e+00 -1.466489094734040100e+00 -1.280657091301043771e+00 -6.426640770841425265e-01 -2.886033583452687346e-01 -9.478325923184568458e-01 3.663574847949131463e-01 -5.564545008607193477e-01 1.196680140065766507e+00 5.527285899755945975e-01 4.773117567054824435e-03 -8.055186475630600196e-01 5.061026131481690671e-01 -8.252622186284916950e-01 -3.149760677671401693e-02 -1.403279217451311733e-01 -3.798756195172358630e-01 -6.012786260256618442e-01 1.187763456451552457e+00 -1.130418194029770562e-01 -5.304167342298007903e-02 4.576424801847197438e-02 -4.430480477561976604e-01 7.678545458135801471e-01 -5.313454197206324281e-01 -8.293192105395073010e-01 1.358228545399395415e+00 1.210621271418276690e+00 -1.133704020385158523e-01 7.126729904763333678e-01 1.477126374172906193e-04 -6.301289838756198858e-01 1.939589765873389882e-01 -6.887173280858945867e-01 2.206093191042767021e+00 -9.411581072795588421e-01 -1.424596643296255127e+00 7.444853951378588297e-01 -1.795254792177084779e-01 -5.169877028279072466e-03 -9.000199686565529822e-01 -3.913146606380080716e-01 -1.090759638001987497e+00 -6.313809430657617572e-01 -1.502791354893155074e+00 2.619824373289089126e-01 1.043631444959987498e+00 -3.350283249990423373e-01 6.059953020351180331e-02 3.244227544506639860e-01 -1.598311565543931057e+00 5.059774888578044694e-01 1.666637806507326180e+00 1.512073673085180814e-01 -2.415503056306293583e+00 1.705700356238495363e+00 -1.414381267116008756e+00 -1.594053236553313546e+00 7.713654400320488769e-01 -1.493649157712968245e+00 -1.023390817074216058e-01 1.816230573652315883e+00 -1.228285650965527998e+00 4.056186348727514046e-01 5.208186558419130030e-01 5.464633388449680051e-01 6.630585197699849775e-01 -2.090213559882973193e+00 -1.153930576076395154e+00 -1.284694034883168690e-01 1.678277215536605749e-01 2.477084081663613269e+00 2.456940854893266302e+00 -2.486553653715677381e+00 -5.166872637210608854e-01 2.033967045807877350e-01 -1.228518039383247551e+00 4.188797690476880331e-01 -7.493533207457870882e-01 -1.467286471288819616e+00 -4.003797813508584436e-01 -5.594510467350988225e-01 -8.158222774535842103e-02 -2.627910348269666407e-01 3.321036220583838405e-01 1.425521513221991610e+00 5.023088680402151840e-02 1.662306194577141683e-01 -1.265806499406878283e+00 -3.447241888750018912e-01 -1.237623258657145842e+00 -9.014873626774065896e-01 -1.610706582112904739e+00 -2.500722154835544941e+00 -4.173951953576255924e-01 -6.411894954975949634e-01 -1.052994817979863301e-01 -1.565044653004302289e+00 -1.180818017664964636e-01 9.349177765080739499e-01 -1.093402595631128627e+00 5.162408988239263613e-02 9.931866611607566009e-01 -2.088869723991532978e-01 -3.240691685401730915e-01 -8.814499408609953734e-01 6.363623110762697266e-01 2.677495741820594133e-01 2.358624430286786200e-01 2.229925646386768934e-01 2.910065443749577874e+00 -9.593158269895417645e-01 8.293483359223007279e-01 -2.468352297805928852e-01 2.384579708338361304e+00 -2.380682176474265554e-01 -1.711392495128713220e-01 5.857728672928449454e-01 -6.466203110316002256e-01 -6.554321373832183197e-03 3.787071236070684299e-01 9.065581943708185264e-01 -5.766602066443112795e-01 -1.141383409535058790e+00 -1.687396992819655717e+00 -7.561090269433345945e-01 -3.546400450780302308e-03 5.706069847635276693e-01 -5.992162588959035752e-01 1.802172165735516363e-01 9.356440809527085678e-01 -1.819886379693714806e-01 -1.387797234796201096e+00 1.716465346136176739e+00 -1.363252659790328059e+00 9.337004080729528754e-02 -2.579125443146512708e-01 -9.544306522324197406e-02 5.588183752632721601e-01 7.094832422299621744e-01 -5.580325513687467431e-02 -1.568063492868264630e-01 1.030011840029595671e+00 -8.158445558804615638e-01 -2.831099242013735973e-01 6.432015418910068671e-01 -1.753309873958727727e-01 -1.463547793344616155e+00 3.109710195227018414e-01 -5.398601803785273434e-01 1.705768806704126561e+00 4.023740843735389983e-01 -1.517336671968944582e-02 1.106589950990504612e+00 -1.715041856242735419e+00 -1.504958115092965176e+00 9.546042407316932543e-01 1.796722020018491905e+00 3.873642708126230905e-01 -1.707381199108367165e+00 -2.541199897006382602e-01 -8.659881962145153933e-01 -1.607990682961944806e+00 -2.672943366339443627e-01 6.154084543114933803e-01 1.179472669321034894e+00 -2.483526272510565291e-01
-1.591196413224211792e-01 1.283682571244825654e+00 -3.389465279479762505e-01 2.107654872635367660e+00 -1.495531738631297458e-01 5.911266750856838392e-01 1.171459820047446199e+00 8.148379345611457547e-02 -9.991521417316947540e-01 -6.436227874310618269e-01 8.368777636358885053e-01 -9.599896588090444105e-01 -3.805197250904335804e-01 7.492625115136049008e-01 -7.768891806471243944e-02 8.057983809343369774e-01 1.528294163202408296e+00 -9.904860701756617036e-01 -9.294927901879919130e-01 1.053023192019515886e+00 -3.440135480985150873e-01 -9.300735417651708747e-01 -1.564657231049149111e-01 -6.659947314411697183e-01 -2.306194743756069254e-01 -4.376017147666038665e-01 1.157548291576946831e+00 -1.571644876107490596e+00 -2.956578823073004791e+00 -1.251549929041214204e+00 -1.907050531514488390e-01 6.835230353238154200e-01 -8.778280558357994812e-01 1.482929838503750597e+00 -4.675247417832119057e-01 2.074456843216049506e+00 -1.091408983291507484e+00 -7.580544115216277801e-01 2.176896584702875170e+00 1.901521102005524932e+00 5.306505662899720921e-01 -1.222432165154554440e+00 -1.079805810875068106e+00 -1.242577359031430850e+00 -1.260011556623106044e+00 -7.356669539908792244e-01 1.214881374042184325e-01 1.527715652025592563e+00 -6.972862744731063434e-02 6.646887802952848867e-01 -7.524074666973885606e-01 -1.325436420608370747e-01 -1.154615465449316369e+00 8.456709887458251362e-01 1.883658263442649972e+00 8.169645268174527963e-01 8.940616758819069920e-01 -1.077723632072111366e-02 -2.359294956335252547e+00 3.428290935699759290e-01 -5.377796877655733887e-01 -3.982497125268787408e-01 -9.760516210733282128e-01 -7.078518227862239387e-01 2.740779108832415711e-01 -1.507957193620728109e+00 4.708484307909981958e-01 1.581939070433002748e-01 1.102401146734417248e+00 -1.182984898638991478e+00 -1.057508268125111117e+00 -7.830237820366157120e-01 5.695975449908987631e-01 1.452389998735355237e+00 8.923101097681691574e-01 -5.148515800296422917e-02 1.647033669534636591e+00 8.748280828792027730e-01 7.633138041986322619e-01 -5.854865295224267463e-01 1.040050372170168380e+00 -7.766747603732114813e-01 8.203596079579673905e-02 1.307294037765254657e+00 9.956173379585496752e-01 -9.910232017277132988e-01 -1.159475519816335343e+00 3.993972159973894209e-01 -2.047197631242349214e+00 -2.999865114942655842e-01 9.491297846782901226e-01 2.533240520508540872e+00 3.818816469667165037e-01 -2.118986645720476680e+00 6.736583991715371367e-01 -1.471024551440097139e-01 -8.976265052085821705e-02 1.556369700074409501e-01 1.988922423349177848e-02 -1.090973333666781064e+00 -6.736451661570338478e-01 -2.415673041722858905e-01 -5.041643932515849080e-01 -6.401657626805474788e-01 8.133583550712711885e-01 -1.391443901257593652e+00 -4.896455555803554405e-01 -7.251234441066372050e-01 2.623011483289353074e-01 3.031046488391256344e-01 1.749540158161778214e+00 -9.108461119402128103e-01 -2.897885571617150879e-01 1.218101734939462943e-01 -1.377222612846622285e+00 2.937713064475208080e-01 -4.178657172614403392e-01 1.043725894061623832e-01 1.414397626127476881e+00 3.220863787656358945e-01 -1.632066868087628020e+00 -1.827198786642491024e+00 -8.787616235615844928e-01 -1.242985075093986147e+00 1.337662319240084663e-01 4.016363309059785801e-03 -1.226062610467058445e+00 7.778347889290000428e-01 1.469842807320001776e-01 -2.232969911134281560e+00 -4.534630653692251490e-01 8.025088269133731078e-01 1.722411291397002719e-01 -1.493758598343637445e+00 3.220272103708326367e-02 1.294281336189748277e+00 -7.195538062578076266e-01 6.056796210135700909e-01 -4.148404463487310179e-01 -2.462554210014459011e-01 1.831599429132683143e-01 -2.133611597404289628e-01 -2.099765919448864232e-02 -1.840426307031324038e+00 -5.136940576506092704e-01 4.889176393410775145e-01 2.118639975442582646e+00 7.239565092632706256e-02 8.135880870335001624e-01 7.281241620405813908e-01 6.327207864759851197e-02 9.002259154801668384e-01 -2.119089985061004544e+00 -8.498419257168378094e-01 6.256162833256252442e-01 2.066966427304091525e+00 -9.620808702621027608e-01 -1.119871238628389998e+00 8.944212072572601535e-01 -1.445448458150495163e+00 7.933588058200687909e-01 -1.719042851571445651e-01 -1.318623252354003794e+00 -2.144819657204711516e-01 1.054292661376897700e+00 -1.414890146598077658e+00 -2.318185302406153281e-01 2.265807048330490542e-02 1.698318916467900674e+00 1.913957280314136922e+00 1.867521554671143225e+00 1.641466474745159609e-01 -2.082889128949209079e-01 5.174658764227723085e-01 -4.711157738273558659e-01 -5.831944446485388678e-01 2.669807581458863988e-01 -4.449721148161264739e-01 -8.832610636015333361e-01 -2.476220937803843003e-01 1.804353149234389164e+00 -1.588171362447101942e-01 2.097887087309143972e+00 5.460602277190922116e-02 1.967259667665666734e-01 -1.644172361723065912e+00 -3.531843559270618216e-01 -4.905092869093555241e-01 -1.840777435608375479e+00 9.583000949915785327e-01 2.158487989048460745e-02 -6.120579660391968213e-01
-8.624167239233275772e-01 -1.322495520542765091e+00 2.689440218384658188e+00 -1.573481678428307662e+00 3.968701870387626035e-02 -3.736018677975800339e-01 1.971132273499970333e-01 1.208836740412955635e+00 -2.870133918394680503e-02 1.199423562150872258e-01 1.567215716225368149e+00 -1.637041337140802799e+00 -8.090224929178558844e-01 -7.695432747177280985e-01 4.312209825538638186e-01 7.016617100694222398e-01 9.789333848791423875e-01 -1.475030511825498714e+00 -1.363428592641930281e+00 -7.582626198966659903e-01 1.240537889787226788e+00 7.885999209147678268e-01 -1.149978782160049562e+00 1.038643420547628482e+00 6.060592059576683788e-01 -7.102366310615508826e-01 1.377428152193889810e+00 -4.198474759428041381e-01 2.274579424118395865e-01 4.556537992043811491e-01 -3.591120326945034247e-01 -1.012533255695030610e+00 7.277371451022431881e-01 7.084135349834906892e-01 -3.750959550940640153e-01 -9.632287978202875856e-01 1.054048866847244054e-01 7.554375987527559566e-01 -2.277984974073476165e-01 -9.192513952454151038e-01 -1.347001299915911110e+00 -3.912543045605386127e-01 -2.474568675622817182e-01 -9.898327058785261201e-01 2.266175408017092885e-01 -2.737257918700712334e-01 8.936202624179434562e-01 8.866283419550343714e-01 1.245140385555402851e+00 -3.914412669339540352e-01 -1.677029773747002350e+00 -6.334091964815993236e-01 2.772742893189448221e-01 -3.709480611125696159e-01 8.642689695930863003e-01 2.880611262783727256e+00 5.496974153989891976e-01 -7.139101613955688430e-01 -2.526372421251368294e-01 -8.515411735133652238e-01 -3.409847533971505640e-01 -3.693502407870354887e-01 -1.181907993711413418e+00 -1.437867927998998541e+00 1.541857690895213039e-02 2.068417209119112865e+00 1.617447983435268632e+00 6.195350059899817907e-01 -4.295402992723243996e-01 6.592359173964411623e-01 2.047267081802349953e+00 4.488505755943578146e-01 9.407254186295684883e-01 -5.964483401287784536e-01 -3.580631521877793433e-01 -3.384847970288918928e-01 8.004497814217356733e-02 -1.425133658850159524e+00 -5.868838190908557545e-03 -1.161081537057568336e-01 1.655938993685679428e+00 1.730103568564174688e-01 -2.271141412520333580e-01 -2.969008876870757319e-01 5.964704766883295317e-01 2.553009634366123493e-01 9.254976782872932350e-01 -1.335451092681786189e+00 -6.304102514672194069e-01 -1.924673585877494097e-01 5.339412805363625836e-01 1.259478897800572872e+00 -8.950397217168798436e-01 -2.414740395618317770e+00 9.702770379010785540e-01 1.953671968676796988e-01 2.086507054984565457e+00 9.520595632705053379e-01 -3.426630392070172809e-02 3.521844960181024220e-01 -2.363889052768303745e-01 1.577265491362594141e-01 1.001788266269717509e+00 9.617092924758379180e-01 -7.787933315819576263e-01 -3.777099484839997467e-01 -8.752031888573170715e-01 -6.144928059362935180e-01 -1.745161955294797229e-01 5.158033632183327555e-01 -6.091258912040653506e-01 7.236253421775109551e-01 2.363214368662843734e-01 9.355176518663500529e-01 4.926004288202869841e-01 8.840405661454046049e-01 2.494299227179274325e+00 -1.296793669771900026e+00 1.202912592810163606e+00 1.046733068032668079e+00 -4.001283252873178986e-01 -5.617135039998935042e-01 -7.091398695742853198e-01 9.802077994932827387e-01 7.023390731754745042e-01 2.545515075213076184e+00 1.287618242317796202e+00 1.136364459907565738e+00 4.907329277252902577e-01 -2.534320954548398008e-01 1.651613275952940052e-01 -1.201947008161728725e+00 -4.229859007896793477e-01 -7.072722418149715029e-01 -6.567101779077176849e-01 7.226270793752042065e-01 -3.800621595232838712e-01 -2.882463347654230512e-01 4.851893840897324450e-01 2.158661551681867463e-01 -5.409579902991212830e-01 -2.069473551689748447e+00 -9.235590490729008728e-01 1.139002927520714525e+00 2.030556138019332213e+00 -8.677012223793337808e-01 -6.835159741841304593e-01 -3.112675316364966971e+00 5.365210867594003563e-01 -1.044066308193957404e+00 -4.281010805672230135e-01 1.182454388207334173e+00 2.345010336594158529e-01 -4.471135020149162309e-01 -1.851021864268834749e+00 -2.833299072751493952e-01 2.631908470282076640e-01 -6.435749079433654707e-01 4.727283569034906874e-01 2.911401929701203373e-01 2.511465000905446221e-01 1.055360056464983654e+00 1.638818929897021714e+00 -7.094846713603908395e-01 4.338176794292707417e-01 2.370588005775747797e-02 -5.344327545997936690e-01 5.148758359737241191e-02 1.140195991091469407e+00 3.703457951342669641e-01 1.624330572200595846e+00 1.198165728506287719e-01 -6.794407687046895294e-02 1.205982148328711201e+00 1.008121555258549407e+00 6.888991292495270091e-01 -1.078839282541726785e+00 8.670258154841591347e-01 -8.614387333322923723e-01 -4.258002700018679310e-01 3.736662363315279012e-01 -3.832388909771772822e-01 -1.230013289602200910e+00 8.572850446587609863e-01 2.088919835771945455e-01 -4.844414978374764202e-02 1.174162535178916063e-02 8.909266240175185425e-01 3.903421494835687677e-01 -1.299318933752295013e+00 -3.327585835400935776e-01 3.805341045799241484e-01
6.964016213545036749e-01 -4.555266232973902846e-03 1.160675803725088828e+00 -1.783652429500414416e-01 2.341467593040298112e-01 6.003306568486026507e-01 1.689799667861030086e+00 8.334765750270525242e-01 4.910499114562056344e-01 1.917953502818061096e-01 9.626761117682380853e-01 -1.515973924910798631e+00 8.105059929522824280e-01 3.968274040915180656e-01 -6.435160665167184435e-01 6.789951437897798758e-01 7.052314678790874147e-01 -2.416405756941533423e-01 1.876892921234406764e+00 -5.953556071419503493e-01 2.894663226268624490e-01 2.629590553106124773e-01 1.093055309981214362e+00 -6.334494045540431939e-01 -6.200225722642041006e-03 1.670710618838919137e+00 -2.852528561604684987e-02 3.637895947948202591e-01 -9.747958157797158296e-02 -8.128505533313964415e-01 4.158113815078940401e-01 1.562692927342559157e+00 -6.239063055301607291e-02 -1.432260769700571534e-01 1.599000614202286119e-01 -1.895180996777990068e-01 -1.552337195747774734e+00 -1.198733669076704089e+00 1.803612773851972217e-01 3.323732180865101582e-01 9.266217331281632053e-01 -1.026613523094370040e+00 -2.026011192893475865e+00 -2.066196940424303907e+00 1.013591958488536671e+00 -6.761308696249920258e-01 2.145357685460170735e-02 1.638378594741810856e-01 -1.346347332183286838e+00 1.703547376674961478e-01 -1.201586075806053477e+00 -9.438864950551002497e-01 -1.937662047264104626e+00 -2.149037702213135947e+00 4.446563671791508576e-01 2.910199692799272375e-01 -1.361185883382989736e+00 -7.641708317270663464e-01 1.441521809651074237e+00 -5.695593837318408958e-01 -1.389235354927657040e+00 1.144574953959040853e+00 -6.481325293376096752e-01 1.740244907102939997e+00 1.790781045071858424e+00 -7.267214602750519115e-01 1.615824787230224713e+00 -1.867010610995610276e-01 1.210342230155597054e+00 1.096276138472660033e+00 -9.498014253018197683e-01 1.726736437084602116e+00 -1.107499750378174275e+00 -8.574050372140187282e-01 1.704784243947436329e+00 -6.677184144342944438e-02 1.333587207241076489e-01 4.366412143762253284e-01 2.204674778903654153e-01 1.531043639586960436e+00 2.540277225125977090e+00 -4.043944485794783716e-01 5.948973554473023784e-01 -7.900660800996417432e-01 3.318078797269483071e-01 6.302257213422345350e-01 -3.191107351381126337e-03 -4.492590789594255174e-01 -1.135184129344251197e-01 1.019239525169915783e+00 -1.094881990075731837e+00 -1.557165869317235218e+00 6.291575995015937783e-01 -9.845454278382775870e-01 -6.580091755974020185e-01 -4.758856038995419313e-01 -9.003813922333404607e-01 -2.747832431636735295e-01 -1.270361176726172658e+00 5.652610879117554443e-01 -9.932416706208319068e-01 -2.125598971109645963e-01 2.973284857348943433e-01 4.672324300410847786e-01 2.161649778859968229e+00 2.308795532559927421e-01 2.550350200186245475e-01 -4.719739308614063766e-01 1.091662700855623669e+00 3.861669809585550617e-01 -7.323396981080231294e-01 -4.059102584728186969e-01 3.751570867284680366e-01 1.459205767963125781e-02 -1.362136135788559965e+00 -3.358557018210812928e-02 4.439973301450548249e-01 3.253440069210469243e-01 1.201394735812367776e+00 3.744444152603427223e-01 5.555134138156100354e-01 8.207440674006318826e-01 3.557975175033739057e-01 5.106288813523698344e-01 4.702825528719229986e-01 -5.518688233878685789e-01 1.415010131185932829e-01 2.216260462759214733e-01 -1.582060942181032548e+00 -1.417985476401765754e-01 -8.060281217311727753e-01 6.410751829660062961e-01 2.944735650667893445e-01 -1.889826565041589079e-01 -2.063899945536956659e-01 9.118650151678491245e-01 -8.145203922089176984e-01 1.257760059574326128e+00 1.051448307765590062e+00 -1.926127115057752803e+00 -3.139988377523869056e-01 -1.213232443617330958e+00 2.399965119886910414e-01 -2.574548639816781059e-01 -5.076709278416889903e-01 1.202379478178527972e-01 1.080986448177926773e+00 6.441367934219885405e-02 -3.103656727548782523e-01 -6.037001927830398795e-01 9.800225331004542850e-01 -1.204103245736480199e+00 1.341930429801279301e+00 -1.772738270451604814e+00 7.414466434271266282e-01 -1.834796245193582587e-01 1.399166608930780820e+00 -8.799180089864140353e-01 -1.827827064448552363e+00 -1.618206756675080182e-01 1.576577290441031787e+00 1.600938039414649738e+00 -1.919645672205564368e+00 -1.602178442262402580e+00 -2.810425490399912074e-01 -1.812827566604360729e+00 2.846142905050192962e-01 8.104297310456227699e-01 -1.130444180357683903e+00 5.193344930573805529e-01 -3.650950144628049010e-01 8.727025543415738440e-01 5.944158257780892685e-01 -1.202087515099105275e+00 -1.229540833125923660e+00 1.353929378674258555e+00 -1.274722807157289695e-01 2.738169458506105672e-02 -1.274271024805485153e+00 2.077639429082601408e-01 -1.130597130002281236e+00 -1.929723869977923334e+00 -1.440500748414588861e+00 1.723559079768388277e-02 -1.364465398576531208e-01 3.217524937356618375e-01 -2.049337916591624509e-01 -9.066999467343729302e-01 -4.606871310461341795e-01 -1.451939091480304755e+00 -3.576791833436327450e-01 -6.638295799215070403e-01
-1.979886045533274963e+00 -7.427466277978221898e-01 6.338926555149799746e-01 -1.372753924391410196e+00 9.127418660990203048e-01 -2.123095185243016214e+00 1.831045354581005147e-01 8.206091041989661550e-01 -1.173575621986361339e+00 -5.349166910976975720e-01 2.992705756589958965e-01 -1.425313849531438359e+00 1.725546707940328828e+00 -1.095157756033441121e+00 7.284576010642069832e-01 -1.851425544605644902e+00 -7.555185347534486562e-01 4.665852428135928709e-01 -1.590446005493328652e-01 1.286084988424688991e+00 -9.787622156765878323e-01 1.301241721495008941e+00 -1.151928921326235589e+00 3.154366953367016002e-01 2.977029116941806164e-01 -1.116704526125356089e+00 -3.581970692826940694e-01 -1.042186376735472431e+00 -4.718246549974352555e-01 3.376411153338919613e-01 -1.343402231489591037e+00 -5.338886097684859555e-01 1.394658620969087881e+00 3.947239229935994853e-01 -1.518515066760269594e+00 3.847646277215127086e-01 -5.643475682297128815e-01 1.544151860133476939e+00 4.068795151935587079e-02 2.050528123609963171e-01 -9.558286761029161083e-02 2.544322500681387211e+00 -2.098396780702671105e+00 -2.059858334815316105e+00 7.968615035237498478e-01 -8.754318448477222958e-01 -2.513710654313114912e-01 1.163826227385226508e-01 -2.736667203372205037e-01 6.487168200812773455e-02 4.203277007046202218e-01 9.331593182608152182e-01 1.352063579915668834e-01 -4.363699274165380171e-01 1.814839423609446722e+00 -6.584286645562388296e-01 2.159292277520930559e-01 7.693588956306208759e-01 -1.716535218605428126e+00 4.847470413479804674e-01 -3.185277337466694419e-02 -5.907353697353306954e-01 -6.058713080832783121e-02 -3.961082911548335916e-01 -2.884837615890915585e-01 5.909606683996481147e-01 -1.019355772512638980e+00 3.922679259742588020e-01 -5.240014794337866100e-01 -1.194264441371622132e+00 7.033151464200887437e-01 8.208497721970989813e-01 1.151876430860098166e+00 -1.291107102512141780e-01 4.939430785376124344e-01 2.084253281837600280e+00 1.458549475955287278e+00 -1.282386833954682670e+00 8.993745236149067734e-01 -3.320406725680896121e-01 -7.542181954072694205e-01 -5.049674512008905936e-01 4.249140071743179314e-02 -7.342692701656166054e-01 1.864523487172136784e+00 1.483201376110122371e+00 -1.472409941737305106e+00 -2.950360606314657019e-01 -1.880931619920520603e+00 -4.831560248256869250e-01 -1.074136190365326815e+00 9.191992098813572820e-02 1.882218413548891398e-02 1.580326337511990920e+00 -6.344192326112042812e-02 4.929876851742248656e-01 2.117594448989891021e+00 -3.801844149810040818e-01 4.827289475661118989e-01 -3.026697364225223730e-01 -1.293618204536251259e-01 2.601967774669659006e-01 -1.168059008268827137e+00 1.176972567809482451e+00 2.231397008992522246e-01 5.921588112861070341e-01 1.143208805982785181e+00 -1.527210440594110930e+00 4.765066786349457795e-01 2.203066982520629491e-01 -8.073844505583195330e-01 -1.431016423574588359e+00 -1.847431814428945884e+00 6.174316069126589701e-01 2.530874221526736578e-01 2.919634904369975970e-01 -1.044245434653471305e+00 1.379509274941433938e+00 -7.817733425095892974e-01 2.705438521302918176e+00 -3.237427117178777181e-01 4.989586406295419274e-01 8.539738142069553950e-01 1.651830912727680234e+00 -3.698648099674764489e-01 -6.202152661883127971e-01 5.291600132910020404e-01 -6.501222446540060318e-01 -9.298717495396470190e-01 -5.571788713742602539e-01 8.047164746266508573e-01 -2.470853861578892752e-01 6.830945160559312966e-03 1.650964553319804295e+00 3.965921449199514282e-01 5.581481305795064074e-01 -1.337776341532756152e+00 -3.087882055054365638e-01 -5.006357090346561511e-01 3.387349397593751643e+00 1.410177485996306546e+00 9.116881492746682636e-02 9.808396996587861461e-01 -4.984470622599638245e-01 1.891528684892654633e-01 -2.179091043300996622e-01 -9.578053241942618978e-01 -9.711213349380474202e-01 -1.184131592874535954e+00 2.181980130877694268e-01 -2.174485012613485146e-01 1.215131851008216746e+00 -2.768887262413920469e-01 -2.026357235293162473e-01 4.668809190563462663e-01 -7.598616424968409611e-01 1.057212105642998529e-01 -1.257443267782099694e+00 5.183300075179649857e-01 3.981975295750697641e-01 -1.357208877748017795e+00 4.780006740534505916e-01 5.003747431049950789e-01 -4.608388681345633731e-01 1.875062648795169817e+00 -2.743644107387168241e+00 -1.093115327460658426e+00 -3.601903308074691501e-01 4.146114215353348675e-01 -1.629594076105168821e+00 1.076617493646015111e+00 1.553520639150411276e+00 -1.884909693382501861e-01 -5.463749803215811607e-01 1.028976250072991094e+00 -1.786515582471131847e+00 2.918773805470344096e-02 -2.029007948897950886e+00 1.113460826003796145e+00 5.163700981952017433e-01 1.016708973991781395e+00 1.029523049428083814e-01 -8.057559270342585789e-01 -1.190998841383059226e+00 -1.041864724851854884e+00 3.868444547377413167e-01 1.289882237354285310e+00 -1.019533336758970732e+00 -6.485237593576510529e-01 -1.760865714654603620e+00 -2.962067106372488379e+00 -6.590847109288758832e-01
2.000788354407926906e-01 -1.409222282076769472e+00 1.042674238329284742e-01 -7.064557980135413029e-01 -3.359582832375502259e-01 -4.138792105920363062e-01 -1.173385247609400883e+00 -2.898432165550182682e-01 -7.144940299854300736e-02 9.504380580516742505e-01 -9.909986962975204650e-01 2.771427037188027853e-01 7.158467670168920938e-01 1.019665144007541269e+00 4.022766170162284660e-01 -1.318588802895110268e+00 -4.392388513779954540e-01 3.121173814723808282e-01 2.765844245268627710e-01 -4.394021847932144120e-01 -9.740147844313992165e-01 8.972846184305915962e-01 -1.359718932365751698e+00 -1.969880893964421342e-01 -2.572939727320410971e-02 -7.068130381602011347e-01 -5.891128851013013312e-01 1.643741161045609855e+00 3.976965468895666822e-01 2.661387823490985946e-02 -1.344787437462698909e+00 4.793029548773191095e-01 -7.103755360946758524e-01 1.729050597026236466e-02 -9.789294263944571250e-01 1.424474890388855441e-01 -1.862365808252488986e+00 -5.077751142347209923e-01 7.616824363222680638e-01 1.545266595941462207e+00 -8.920900014703823100e-01 1.332228753706324653e+00 1.398308277787290443e-01 -1.252527499987232229e+00 -7.929669784103766661e-01 3.615473677404067443e-01 6.103395453307556284e-01 4.414106467574832604e-01 -8.362329443989867661e-01 -1.927656442544718018e+00 -8.274215742566644050e-01 9.597581794949737455e-02 5.935382116526167345e-02 -5.780300624630104744e-01 -8.549953315782253815e-01 -8.829250149063798403e-02 5.158998675366357478e-01 -2.023558401049864841e+00 8.039593279308103746e-01 2.367434823659256282e-01 -9.666174409272014489e-02 -1.087911825830028878e+00 -6.124136668178443710e-01 -5.450331841229798524e-01 -8.763712327595125640e-01 5.260530448558250471e-01 -6.543905400844675091e-01 6.200483070809472697e-01 -2.073807130748858141e-01 7.354352425967431994e-01 1.967702274829836284e+00 5.917705564171431565e-01 5.229569416427793521e-02 1.145763405892125553e+00 -5.132913351862604667e-01 -5.842743933762120090e-01 -5.199085668303018437e-01 1.360055673334073623e+00 -1.159652924953999964e+00 1.049039850689551301e+00 -8.468748244739409126e-01 -9.452919610788051985e-01 -3.465322937810565856e-02 4.652145479539611106e-01 -6.631586850010445788e-01 -9.856441271942071314e-01 4.512079967033790218e-01 8.188760874787381905e-01 -5.945920783917864050e-01 -1.358764993478699834e+00 -2.377289167199544140e-01 -7.933297079464345369e-01 1.524541493509638801e-01 3.453961425101029215e-01 -3.033267489750047230e-01 -1.436190907800885874e+00 -1.595469011163423767e+00 -1.475024948654962698e+00 -2.456489424062489879e-01 8.307581792160664280e-01 -9.989352806969055143e-01 -2.299953883551088651e+00 -5.944503099209510477e-01 9.576465677714942615e-01 -5.870540971850444212e-01 -3.658947547064816952e-02 7.111530341094250973e-01 -1.127163516896817708e+00 6.197508467994657100e-02 -9.593548046934621265e-01 6.569405343035368550e-02 -7.306625070916536457e-02 -1.097174598232295573e+00 -2.031006048337529624e+00 6.105074705310787886e-01 -2.817857484725432293e+00 1.187450784552200773e-02 -1.241650264548026295e+00 -2.741433878869803831e+00 4.699623902052756375e-01 -3.595326655376531733e-01 5.144736261278528566e-01 -1.055970459302979947e+00 4.872864877099162273e-01 -1.068601914425933774e+00 -9.268028272175954374e-01 1.632534182094366182e-01 -1.114757321481277152e+00 5.363459656127572694e-01 -2.475628757097887989e-01 1.161416210243181729e-01 2.610126323296848572e-01 6.454210522534044037e-01 -8.779220277273456219e-01 3.063703986555440378e-02 1.185570438944148153e+00 2.681258195504325204e-01 1.053032428996393821e-01 1.297836816278659544e+00 6.454774862962856519e-01 -1.236404856996668133e+00 3.528109446314587339e-01 7.329700910768111033e-01 -3.337100743873115394e-01 1.312566445742041843e+00 -1.118392603636304772e+00 1.898604775845040837e-01 -1.106236000425651955e+00 -1.177623341081243807e-01 -8.939784760703407551e-01 8.656518165805292264e-02 -9.640593347845438643e-01 -9.643331727499879769e-01 -1.332417030595538954e+00 -1.182738368686961694e+00 -2.705114411901899940e-01 1.384195723068141648e+00 -1.014194683188198276e+00 -2.345780905171867214e+00 4.049998924308552684e-01 1.364716920919301080e-01 -3.221732739261085748e-02 1.405171817320414407e+00 -4.553644448748418450e-01 -5.699694136647558418e-01 -1.311680815419835389e+00 -4.264585046668185608e-01 -9.679194755686033602e-01 9.077174709770605698e-01 -3.243766473557246899e-01 1.329090513808068863e+00 7.708807725542172751e-01 -1.464201581238912808e-01 2.367940107415915929e-01 -2.056604942453903462e+00 -1.514845948117285790e+00 2.253896023689390127e-01 -2.092430870768916762e+00 1.299405416365859045e+00 1.569627720530162585e-01 6.009801581570766160e-01 -2.610589344581344395e-01 -1.128716907122485402e+00 3.598405303366758456e-01 -4.108177426208462490e-01 2.045196651204636562e-01 -1.269159876387251140e+00 -1.843881923070670892e+00 -9.374035889314194514e-02 1.240959309169470393e+00 4.470193301049398826e-01 -6.401436619437371744e-01
5.695616413208601791e-01 -1.428215467168211461e+00 -9.777168098349667824e-01 -1.563813878899511067e+00 -9.895863011192340686e-01 -8.072041895389553412e-01 -2.076000284332094048e-01 8.804389519584457924e-01 1.125256461647588191e+00 1.890484278346432401e+00 -3.532842544700749987e-01 -1.370922320441783748e+00 -2.421026651893445902e-01 2.219012765491772121e-01 -6.744385381467843388e-02 -7.260025712604062376e-02 1.011875349907133348e+00 -3.191808384611731775e-01 -1.017827322948958946e+00 -9.422664898630066510e-01 9.761057171156326540e-01 6.178023391959945876e-01 6.530729505283754399e-01 6.127665581781349680e-01 2.195946550854081247e-01 -9.531927014144089827e-02 -1.075874994745710689e+00 -2.522903726679470160e-01 5.612766033698751711e-01 -5.572889414444389677e-01 1.161503898050730843e+00 -4.690678174682577639e-01 -2.646636784823791722e+00 -1.130620084625145461e-01 7.327955691792072124e-02 -5.066939922424036347e-01 1.155063246689851164e+00 3.539501271619243661e-01 7.165029572625784826e-02 -1.455634880035546308e+00 7.081520384321829953e-01 -1.931500180995777027e+00 6.879909211320652807e-01 1.434238497221243802e-01 1.484473950154278965e+00 2.480806725731444506e-01 -1.163631261252165539e+00 -1.522025970884345769e+00 1.595315354408119723e-01 -1.366367056686325965e+00 -6.703980438478432391e-02 -3.358623364990218629e-01 -1.471003582465364667e+00 3.077880355855835415e-01 2.442375635125600408e-01 5.345389123456124603e-01 4.613955652405246077e-01 1.554610771706282035e+00 -1.066397717181072791e+00 6.420217510636768710e-01 7.287410307023790557e-01 -1.915776306686576946e+00 -9.089577551921422804e-01 1.213880218571788294e+00 2.624477919434252904e+00 -7.998424379738094947e-01 1.428503319999811394e+00 -1.066477325460154058e+00 -2.170191791434432915e-01 6.309171865258365042e-01 -1.150959079056323997e-01 1.818070647933758055e+00 1.631116752162925732e+00 -9.098769892313306462e-01 7.620102798857996129e-01 -1.163972061929243518e+00 1.070591261095142688e+00 1.912841284669397179e+00 8.765877101603140042e-01 -9.803044524784414182e-02 7.930655244419919647e-01 -1.522870797777767238e-01 -1.259034690381264365e+00 4.826493161380660535e-01 -5.585912568413944346e-01 -4.351880467931252827e-01 1.630242867438050469e+00 -2.887311412133641841e-01 7.313139838801286929e-01 6.811905202567265505e-01 4.229550058373864885e-01 1.195238016942384407e+00 1.823254903147944583e+00 1.301064765893249486e-01 1.439774049148342838e+00 4.063325161784658301e-01 -5.720693241455215849e-01 1.467642314896598910e-01 -4.761974284961964510e-01 -7.554182678145585084e-02 1.628405897625506971e-01 -1.996855682660944598e-01 3.634255267970847025e-02 5.588214373050018891e-01 1.432710586588964441e+00 -8.033545719399574070e-01 1.552174933857955574e+00 -4.738827816238451729e-01 1.614647488295722022e+00 2.780279621815698654e+00 8.619137893280375273e-01 -4.884299074288659948e-01 5.621702332555806869e-01 -2.558681608134783514e-01 -2.270899664442727506e+00 1.532002942447631411e-01 -2.383598907396123678e+00 1.023233653613982996e+00 1.039241227459463124e+00 1.042425087218250113e+00 8.056568872272203974e-01 2.078294465572434746e-02 -2.607503387725841337e-01 -1.017894887839651874e+00 -1.445784836896813585e+00 1.151334170103669008e+00 -4.693269695389270385e-02 1.654512850030117610e+00 2.401812189265470632e-01 1.626739655301962517e-01 -3.209456504682818290e-01 1.380471481982065818e+00 -1.365394731845790854e+00 -4.566562842024061153e-01 -2.070809169958807150e-01 -1.179066982740058167e+00 7.138101539012481345e-01 1.348305806816539332e-01 -7.074682746394948124e-03 -8.181496732313239262e-01 -5.923446325429062576e-01 -1.504260868571946963e+00 -1.113057454062113871e+00 -1.477941438045246914e+00 -5.115621638863904197e-01 9.884452622278274703e-01 -1.147564225948480177e+00 1.361155612826417949e+00 9.244745085571579590e-01 1.011647141989364895e+00 -9.582397568919072128e-01 -7.832167987726018632e-01 -1.366619861696762417e+00 4.455082513215286727e-02 -3.412439331970492096e-01 -1.036484318687824535e+00 4.459040829197694067e-01 6.385978962238029188e-01 -9.000184659119710995e-01 4.116393757165686673e-01 -1.169120324496106589e+00 -1.761688429644398868e+00 4.952172730247116073e-02 9.536108534104800194e-01 -7.870955204548633066e-01 1.731561705848453925e-01 1.488729068174347692e+00 1.357075252166746460e-01 -7.195506330898734371e-01 5.887829507392752237e-01 -5.321356312338536565e-01 -6.422540650944789098e-01 1.633354784952499861e+00 -5.129500588980039355e-01 2.513951845425984821e+00 -4.609538777414474708e-01 9.971179383898133297e-01 9.145159309112043111e-01 5.138732911731359598e-01 8.964104006067631358e-01 7.191356501002686974e-01 -2.434033223966008130e-01 -1.173182663160304562e-01 9.058044503935738234e-01 -1.079757338086861918e-01 1.474029157327824135e+00 -7.446570773160546830e-01 -1.051528169826969172e+00 -1.400563452402760367e+00 7.925002433623942188e-01 1.814041331301124771e+00 -2.077248939366360680e-01
-1.880108108723039129e+00 1.314535840677336087e-01 6.172504772305285048e-01 1.888640004502286640e+00 6.969602224060700291e-01 1.448921538145089505e+00 2.986669252667163987e-01 -2.257020390106284080e-01 -1.499510431092439422e+00 4.476451327794713775e-01 -2.409736665404848266e-01 -2.869002993310906802e-01 -7.272666751729254253e-01 -5.163161885919131944e-01 -2.319903981806097359e+00 -3.397895400098072116e-01 2.377621457199754484e+00 -5.463732384005880460e-01 -4.136680992715859873e-01 4.896362357834577739e-01 -1.587329422730790807e+00 -4.203146186315027122e-01 -8.763602409511997426e-02 2.415321365170654822e-01 1.571460359594462064e+00 -1.396597919093861329e+00 -8.602306393625275271e-01 -2.012096720503745162e-01 1.429660780727674663e+00 2.109658609451563027e+00 -2.627673571705145261e-01 1.999118597646612816e+00 1.657125808307005954e+00 1.037610654014746059e+00 -1.188178435125651911e+00 -7.271419555952117753e-01 -1.894163094339657905e+00 3.835594549783299390e-01 -4.811376626446128291e-01 -7.635874618572310313e-01 9.903587571405230161e-01 1.549949114382652704e-01 4.737188459145704189e-01 -1.088553288020440046e+00 5.006365359751870914e-01 -4.978497497247525994e-01 8.490626535072975933e-01 9.194390472880762388e-01 1.858561838815333989e+00 -5.009411896419533328e-01 4.917170132539886995e-01 -1.828746876714650305e-01 2.048252943171732454e+00 2.510968424714497826e-02 3.114233358853252254e-01 -1.385386300310159857e+00 -4.883297463147796558e-01 1.455758872735795628e-01 2.573771995543412405e+00 -2.647287010277751262e-01 -9.860850954188072892e-01 -2.372761797698581088e+00 6.202922560442165612e-01 4.371380437293890253e-01 8.210881022848348643e-01 -1.495677197264372316e-01 8.032934352264298195e-01 -3.044445988337035058e-01 8.018479668567529695e-01 6.881282519778371132e-01 5.279555997404236090e-01 2.932583655079400442e-01 -2.722107570093109958e-03 1.623310469524540611e+00 -1.761674918426824610e-01 -5.112384067931564219e-03 3.585496283964980657e-01 -1.635790519514080943e-01 -8.650326995992428658e-02 -1.429961856646116081e+00 3.021573333434686703e-01 3.627065423361666152e-01 3.528665756209599658e-01 7.637453819775815722e-01 7.940540273639853375e-01 5.965922420261501186e-02 1.300901751847792331e+00 1.267829610775567939e-01 -7.188563029538980187e-01 1.620965215401786175e-01 -1.717459095353732978e+00 3.514726838640150897e-01 1.052813702859197065e+00 -1.097078772183455175e+00 1.031384544759261335e+00 -5.250898812972263352e-01 1.151639287532792988e+00 3.938629543980600167e-01 -1.343572852344372404e+00 -5.120297591150939631e-01 -8.998185857113667474e-01 9.081155428233071980e-01 6.513101896716442241e-01 -6.285762161576911033e-01 -1.918142935852493458e-01 9.931553464519390362e-01 -1.026918449191234872e+00 2.141382578494808619e+00 -9.743934925364925448e-01 -1.760177252433919426e+00 -1.802463696570716922e-01 4.156430986547782203e-01 1.457400466012630236e-01 2.252263202931905905e-01 -8.656793076714117685e-01 -8.250929481561758427e-01 -1.884831890287465672e+00 -2.001095396406426641e+00 -3.720316042003005141e-02 -9.883819170009396082e-02 3.353223136270188504e-02 -1.475281932756935310e+00 -1.386780673097307570e+00 -4.708176597848303113e-01 1.721170265489577883e-02 -4.289523256883024382e-01 1.352275290610080449e-01 9.524368106560605618e-01 1.215026243646615045e+00 -3.613939354542822224e-01 -1.293320330278371788e+00 1.226632436095699497e+00 -8.827012721987316235e-01 -3.445241279262873935e-01 4.696307265171257295e-01 2.498784641198343037e-01 3.025341948917253387e-01 3.198969538754985464e-01 4.911185971029401187e-02 2.244704213507696444e+00 1.132613327930424463e+00 5.311790119526070830e-01 9.305307147812809099e-01 1.060118936338543705e+00 8.841666935723446752e-01 1.515120399206725033e+00 -1.941728512906617521e+00 1.217074495724141503e+00 -2.121725348395297583e+00 -1.776417418487392652e-01 -2.543013663697617499e-01 -2.642698367333779497e-01 4.753666282076763339e-01 -2.888596133882899153e-01 1.144538511032702655e+00 7.376135836379537070e-01 -5.598550223361697942e-01 -1.779798235230002579e+00 -1.323847432320100492e-01 1.654283206307429532e+00 4.415924860455276019e-02 1.266719127050991656e+00 -8.517099832397614367e-01 3.388253046729938212e-01 9.743449221418052364e-01 -9.703145815479760072e-01 -3.004915385087230106e-01 8.841354454949419406e-01 9.780640270197257236e-01 -7.508165015118289931e-01 4.493658905735397474e-02 1.575598509601131847e-01 2.271525775252744239e+00 -1.778335557859614946e+00 -1.420919794692730442e-01 -1.031393463755785112e+00 -6.076596487614965847e-01 1.584946702312050704e+00 -8.040463771579210439e-01 -4.522479058071558478e-01 -8.338749796428434058e-01 -1.036294934988726935e+00 -1.061726741725002698e+00 -1.205186335756346594e+00 7.132939838691623180e-01 -1.751255840799559538e+00 4.800059997148609092e-02 7.448124609529014339e-01 9.421529607966170339e-01 -7.302853445158737911e-01 6.960589528665603321e-02 -5.967460804844400279e-03
4.796061694421741017e-02 -7.509030242280850809e-02 9.116611548150556354e-02 2.303621603729333334e-01 -1.866076484159739701e+00 -2.895850475926710632e-01 -6.257373716888682269e-01 -1.563558110648309407e+00 -7.187761017408378361e-01 1.123535380186147625e+00 -2.291563276292354345e-01 -1.079764404462342675e+00 3.238066627230487115e-03 1.045796797446406190e+00 -4.341468057483450771e-01 -1.389019244469329672e+00 -1.428502599042465127e+00 1.319728698889212515e+00 2.618590052319399453e-01 -5.677003195925554024e-01 -3.894589924499226585e-01 -6.368306231437071974e-01 1.355019454234403398e+00 -9.036307636022273826e-01 2.186857441348400571e-02 6.104064760741832046e-02 2.612538917782550318e-01 -2.147254058657699360e-01 9.540668217898907733e-01 4.134898953746812267e-01 7.604965357901083411e-01 8.972257026620761300e-01 -2.189508848926553508e+00 -7.108326882347568709e-01 -2.976036204257294759e+00 1.832372050463577207e+00 2.189132261324789053e-01 -9.356990371620294011e-01 -1.008187261020351277e+00 1.160043424988780991e+00 2.881424619078200577e-01 -8.871133162594628807e-01 1.500908496161778904e+00 8.724279208967115895e-02 2.276190258290738289e+00 -2.683049660790047808e-01 -1.798576936717481534e+00 1.397883115186910608e-01 -4.005853667524950090e-01 -5.456738881787323026e-01 1.697837432155362869e+00 -1.648008177461363077e+00 7.892272484605626637e-02 1.999719556537503884e+00 -1.501084249972194806e+00 3.922902476690535711e-01 7.879459976179647995e-02 -1.537014029664523163e+00 -3.347442016332303205e-01 -1.689843471857714441e+00 6.862027442234079622e-02 -5.524057774608401306e-02 -1.043541384167074870e+00 -2.351006624081320717e-01 -4.497735182860848613e-01 -1.406850721986938835e+00 1.098491407795130215e-01 -1.793518496244653093e+00 -3.702433890026097796e-01 6.872126112526645292e-01 -1.036088075781266271e+00 -5.813414909735294955e-01 -1.494419283395522990e+00 -1.260161426070610935e-01 9.717932389701662288e-01 4.763478609292519650e-01 -8.855821865091854095e-01 7.945776304434026827e-01 -4.993361246118605545e-01 8.750308191530019319e-02 -5.621197251572810361e-01 1.071380090904545446e+00 -2.114210413165448887e+00 6.866943169940904479e-01 -9.594452349528528323e-01 1.915802787398389329e-01 -3.680076830356030504e-01 -2.086444715018284768e+00 6.153793337025150745e-01 -3.805749665422668016e-01 9.823067167498464869e-01 3.059648515914583089e-01 1.403330709325409265e+00 -2.478344473914397827e-01 -9.728360254379304906e-02 1.128884913458105543e-01 3.099511429733801116e-01 1.121175843908458036e+00 9.411174114055620432e-01 8.984839332984826399e-01 2.019774898744954417e+00 -1.769957126310229556e-01 4.002333900346505824e-01 9.282552329248062728e-01 1.372930332131492959e+00 -2.266257295136035188e-01 -3.963070381473113996e-02 5.274070328413659192e-01 -3.704329608472267665e-01 1.723236478846174313e-01 3.033240544011604367e+00 -3.115382239029557132e-01 -2.406887973999622066e+00 5.575827585996057101e-01 5.874356369311494186e-01 -2.399910012518369773e-01 -4.328825687958723356e-01 8.072923388029777936e-01 -1.903020318745475503e+00 -2.289249192114087839e-01 -3.135586101795079794e-01 1.953358681053567025e+00 -8.238364010235065260e-01 1.399722748143143736e-02 6.048164471159991201e-02 -6.575202275804749030e-01 9.914764129194947317e-01 9.282247513320043275e-01 -1.230681926144881588e+00 1.799606495454418198e+00 -8.298726739745421188e-02 9.937025946524231657e-01 -1.181065552412839531e-01 -8.597648345871896636e-01 -3.679766329647644191e-02 -8.396594486056930817e-01 1.737329625057159266e+00 -1.187884643428811060e+00 6.894677685155391478e-01 6.598986712022444356e-01 -1.019080663183642654e+00 4.287017576848258238e-01 2.209482154007269106e+00 7.413141389097782641e-01 8.336782131932832796e-01 -1.371126474854361121e-01 -9.945640401945400333e-01 -3.068994739181726272e-01 -1.068312932114319436e+00 -2.263950357098877542e-01 -3.893725316126844249e-01 9.717299355480063516e-01 -1.292216889293940518e+00 -1.075961886913356702e+00 7.978450200360919231e-01 -4.988037261859019078e-01 5.550852985890397662e-01 -1.283995064082673387e+00 1.342304790952742133e+00 -2.607194071419050574e-01 7.947619605536465626e-01 -1.159863909148108441e+00 1.535312944926213286e+00 1.068994401174254483e+00 -1.883283514656184821e+00 -1.071363111368356380e+00 1.371720627506551049e-01 1.382665217292478266e+00 -1.124247268516231690e+00 1.207389661977687156e+00 1.120589154576851598e+00 -2.630759666774254990e-01 3.807761223026823183e-01 -9.705324719972829861e-01 1.848939119241985507e+00 -5.979747676781465016e-01 -7.458745629881748107e-02 -1.440793382449886195e+00 -4.024335752922612031e-01 -5.443064553699576980e-01 2.542659219876500926e-02 2.295083020774911109e+00 -4.348119304583034639e-01 4.063688479759778455e-02 2.770077637968801354e-01 1.378289797245435891e-02 1.161665661921209347e+00 -1.428706211760201406e+00 -2.370802475625688022e+00 -5.912101476256134136e-01 -2.111350949919770237e-01 8.867434087814358712e-01
-3.248962288334674708e-01 1.839128492248814695e+00 7.663725839308600518e-01 -2.751078928313478444e-01 1.600521679302109757e+00 1.471749736361040728e-01 1.691653135063654778e+00 1.615100123791196607e+00 -5.477850566309002689e-01 1.094037983114255708e+00 8.911966437943970032e-01 1.376428699596721206e+00 -2.217134668068876380e-01 -1.148701787441263611e-01 3.411605004811842368e-01 2.009486014178655036e-02 1.535464950990977906e+00 -1.674919447250723614e+00 8.653698482902585365e-01 -7.019461172668721716e-01 6.573974315729836926e-01 9.651599632345108093e-01 4.826288614710066982e-01 1.661868609760958737e+00 1.508384700343811113e+00 -3.176143414664157061e-01 -2.183331468517387408e-01 -3.891985308334992566e-01 1.396389544232583102e+00 -1.988245338644455407e+00 -7.823887970143047488e-01 -1.361872055458868969e-01 2.060696840497778515e-01 9.045813489648521499e-02 -2.818474889604685174e+00 2.914774239219749541e-01 -6.801177328447804982e-02 1.630723660159999477e+00 -1.314516758604254765e+00 1.680358609201985098e+00 8.319505728738467720e-01 5.038552143899397429e-01 -3.762460553742097980e-01 -4.132368968076668425e-01 1.051916122524614083e+00 3.422541596392017493e-01 -6.222255431670613290e-02 3.190402317644136510e+00 2.318801279274706140e+00 1.881456770481977570e+00 -1.156912323284568833e+00 2.598700176726042033e-01 -1.203631714396934171e+00 -1.543377713145010766e-01 2.246436750200583532e+00 -8.030969288532728845e-01 -9.597281340095151769e-01 3.936749936023381524e-01 2.578145361817867798e+00 1.165890681510620142e-01 4.195335316602827325e-01 -1.496470774003491599e-01 -5.661043243879356757e-01 -1.125456320122267956e-02 1.928194573187922423e+00 2.278169968544895285e-01 1.037385779810178876e+00 -9.958975191043762942e-01 1.354978762681122995e-01 -9.498155885813426291e-01 1.000298909290641358e+00 -3.121972715699394829e-01 -4.795022633931397271e-01 3.985728208943786766e-02 -2.794557751245800581e-02 3.542845018416188596e-01 9.599717428265863717e-01 -6.017164661827139049e-01 3.679294502583670967e-01 -8.753465131984412562e-01 -4.382927734875558534e-01 3.544763042401722908e-01 -2.224549683419823509e+00 1.362375577206529131e+00 -1.432863842684244826e+00 -1.204941848386941405e+00 7.690804223397104122e-01 9.771888267923535543e-02 2.548792486819620784e+00 -6.270122986413901867e-01 3.883932524178302703e+00 1.511322917676179989e+00 -4.636846741134323380e-02 -4.141391430329556256e-01 8.189345125828992877e-01 5.432443768222037228e-01 3.335660830186543135e-01 8.537557780007190567e-02 1.380562564400091841e+00 -1.061775836618427948e-01 1.922738096359521143e-01 1.878932898885635305e+00 1.846797709279092703e-01 -5.050863603742398178e-01 -1.105048703892173467e+00 -6.171025069333777591e-01 1.590147431940039047e+00 1.387868623126361056e+00 9.590996141019882959e-01 -1.708164629100039855e+00 1.995421752778142876e-01 8.452027885544937114e-01 -1.167706179565931590e+00 1.381785088190949085e-01 -6.133136631887440293e-01 -7.934702095914811792e-01 2.597265987678331126e-02 4.293157490218987155e-02 -1.361507687661235311e+00 6.281833462187296213e-01 2.128521965597947874e-01 7.643716556343254087e-01 -2.268474786974906954e-01 5.872197228731226293e-01 2.058561517415241404e+00 -1.705275098401691780e+00 5.698193425825884839e-01 -5.112357693299717232e-01 8.475657577848129398e-02 -1.955283629959803371e-01 -1.213010195534128144e+00 7.294593733542261704e-01 -1.340228000402535202e-01 -8.495537835129169935e-01 2.010558797298535871e-01 -1.070032907868324057e-01 3.381861557009359087e-01 -1.890939377051238657e-01 9.955655639216572927e-01 4.572293704812360193e-01 2.631097225910979942e-01 1.842224957286950016e+00 1.063761974583188552e+00 5.064893327137622858e-01 -2.045496264604244718e+00 -9.111745420172265297e-02 1.054065207155975986e-01 -3.370754533520795015e-01 1.684251192885593884e+00 7.706252074652223394e-01 8.410263047434949346e-01 1.231962900701043306e+00 -9.858280385412379054e-01 1.509811114986927549e+00 -3.366493984091217806e-01 8.077807146324532672e-01 5.514528149892437003e-01 -3.463840695149089099e-01 3.632374718988060081e-01 1.177657338793236974e+00 -6.562958331355901453e-01 -5.293794208471424012e-01 1.166973391082611222e+00 -1.818972614952953926e+00 3.421066474346009523e-01 3.284342804740671973e-01 -2.059401179815449456e+00 7.301007266495027626e-01 -2.202218705025929535e-01 -1.026153045186234819e-01 9.860502237304547002e-01 -2.796290358108767249e-01 -1.450152391932621986e-02 1.725263735934629006e-01 1.456909477288611976e+00 5.375016189027556068e-01 3.107359792541384280e-01 -5.986238796033339638e-01 -6.580262398074975261e-01 -2.464800751163447323e-01 2.110896173159049899e-02 -6.208140836596132139e-01 -4.909109609565319166e-01 -1.753725555262331648e+00 8.111930771072081159e-01 -4.052190488333987095e-01 2.743818784959111134e-01 5.919723256792673860e-01 -1.530525449906908197e-01 1.969792839363680159e-01 9.853646282663950373e-01 5.505389571193213261e-01
-7.809225397050550965e-01 -2.043324901398032800e+00 3.827536007902153092e-01 1.400409378198906651e+00 -7.631570556468616484e-01 1.419378367287821019e-01 1.817447971029752196e+00 -1.065223729851471735e+00 -5.553405699708888754e-01 -8.165946423898049478e-01 -2.009156586137248457e+00 -2.307106995494943597e-03 -5.709639356147155204e-02 -1.852693074742352453e+00 1.044953925382543503e+00 1.009674451835159692e+00 4.441493352391096550e-01 3.572327153857891568e-01 1.820169764489748099e+00 4.738165046531694347e-01 -1.613176659662172649e-02 1.549446955039913476e+00 7.188481844313171498e-01 -3.044614161727310364e-01 -3.092740119801523635e-01 6.567123009518711640e-01 -1.186584217698968713e+00 5.335222670475321394e-01 -1.085484899950164284e+00 9.887107316784534694e-01 4.510798912939944505e-01 1.629739006908595300e+00 2.500728379784646349e-01 6.509189540944173430e-03 -4.304532873822191630e-01 -1.508763381627126643e+00 -9.842530487598712963e-01 -9.517157055517289077e-01 1.189522435588217242e+00 -7.098731271719482816e-01 -4.862379985577430230e-01 1.381962125754550241e+00 1.561355829259119254e-01 1.098054367462206471e-01 2.253081007478361375e+00 -1.366641346308696547e-01 2.028982656034070131e-01 -6.683416602512861626e-01 -1.229329540809469767e+00 1.072363855868661009e-01 3.167642749428339899e-01 3.921194422755632236e-01 1.742897261568648049e-01 -1.571807079056740941e-01 6.917369837976926616e-01 4.043507380890447589e-01 1.305097910541349382e+00 4.697510834637796950e-01 -5.491126392700121928e-01 -1.330558168917441275e+00 -4.269415714146733432e-02 -1.590626665580954446e+00 -7.678804743935373489e-01 5.816186125502708082e-01 1.027621957658079621e+00 -9.051564790618086276e-01 2.110682614973113491e+00 1.823339797541271512e+00 9.760734844969002344e-01 -9.786342729540565832e-01 6.235435723070915232e-02 2.202705722878110617e+00 7.970608030541033173e-01 5.114556473323532693e-01 -1.041487887183107475e+00 2.522820883094271938e-02 8.028942881690049882e-01 -2.920256491919336894e-01 5.266808600676695651e-01 2.529228770457486175e-01 -1.476440009381222440e+00 6.288251876325804401e-01 3.779935247474384141e+00 2.116567174581941657e+00 -6.901883398750425780e-01 3.073851853214611962e-01 -2.176334570421461501e-01 -1.562452577151872246e+00 2.015705604118662730e-01 -8.293505333415509551e-01 -3.828531858756704653e-01 8.311076692993604187e-01 5.978672792061517222e-02 -1.568787804603110292e+00 1.018068905367854660e+00 -5.612830129277867064e-01 -1.410707982389436121e-01 -3.227556615557026776e-01 1.380111329643757934e+00 1.854799210237741303e+00 6.347398136199104979e-01 1.345173787412388688e-01 4.031262715064996560e-01 -4.806434517692365627e-01 -3.587933630604508428e-01 -7.529829029299217602e-01 3.093823641856071061e-01 2.199758141580342719e-01 6.559097318928016618e-01 1.740045750567177640e-01 1.126875681432663034e+00 -1.517400778091334557e+00 -1.198859543071220779e+00 -6.928836713426058669e-01 -2.977950327845169110e-01 6.657330621439421225e-01 -6.856063538457679574e-01 3.758510986175788576e-02 4.746798420831677134e-01 6.157261440787243911e-01 -4.684333656005575941e-01 -1.070578179299443766e+00 1.088960796726335056e+00 -1.378255601623855853e+00 1.264491559287005629e+00 -1.313806133882730043e-01 -1.019667198858716928e+00 -1.976736774993647971e+00 -1.826226528184429210e+00 6.029404671446148001e-01 -1.816440578282605856e+00 9.312651944691848760e-01 -2.570192519674514009e-01 9.981930049336913691e-02 -6.281057787849330110e-01 -3.980166827784113459e-01 1.710563533433925032e-01 -1.828035222579388885e-01 -1.859461056982321558e+00 -5.176634407161426754e-01 -1.100884833693495768e+00 1.951150225983263597e+00 1.093435341510185399e+00 -6.519573867666830780e-02 3.602787022926900451e-01 -2.975609877114314683e-01 1.494689175908173184e-01 1.721554265776335413e+00 -1.258826171040920094e+00 1.329017352090018922e-01 2.781796182561234801e-02 8.946269092562404435e-01 -4.120626253277133721e-01 -3.146887162424345963e+00 6.336380980549380926e-01 -2.322386626394544740e-01 2.156233786411491771e+00 -8.324024458441579011e-01 9.943451989743523622e-01 -5.190854486661382605e-01 -1.308973015440629606e+00 -2.034412493224886653e-01 5.326582353171015471e-01 -8.507657597411000250e-01 -8.812571926524395693e-02 6.459308370050964587e-01 -6.125997127564966060e-01 1.654492479431014240e-01 1.458854764853981356e+00 -1.185094661911414216e+00 -1.644077340246363983e+00 5.471760329550059421e-01 -1.166519323594720436e+00 -6.592035422195291483e-01 -1.152684236329646617e-01 -1.795656365459833870e+00 3.419403036490794023e-01 -1.262119820712835017e+00 -8.289436801347584982e-01 3.117477690208433905e-01 1.455881602405356134e-01 -1.612698218841007725e+00 -3.269980704554371065e-01 1.345313837179134664e+00 -1.130750784188506941e+00 -1.170291848891755082e+00 -1.037110472381146620e+00 6.086231310882772583e-01 4.420559519782518709e-02 2.614317358302554739e-01 -1.491827127649140605e+00 -6.996300358331074276e-02
